{"learner":{"attributes":{"best_iteration":"378","best_score":"0.14115311289467125","scikit_learn":"{\"_estimator_type\": \"classifier\"}"},"feature_names":[],"feature_types":[],"gradient_booster":{"model":{"cats":{"enc":[],"feature_segments":[],"sorted_idx":[]},"gbtree_model_param":{"num_parallel_tree":"1","num_trees":"429"},"iteration_indptr":[0,1,2,3,4,5,6,7,8,9,10,11,12,13,14,15,16,17,18,19,20,21,22,23,24,25,26,27,28,29,30,31,32,33,34,35,36,37,38,39,40,41,42,43,44,45,46,47,48,49,50,51,52,53,54,55,56,57,58,59,60,61,62,63,64,65,66,67,68,69,70,71,72,73,74,75,76,77,78,79,80,81,82,83,84,85,86,87,88,89,90,91,92,93,94,95,96,97,98,99,100,101,102,103,104,105,106,107,108,109,110,111,112,113,114,115,116,117,118,119,120,121,122,123,124,125,126,127,128,129,130,131,132,133,134,135,136,137,138,139,140,141,142,143,144,145,146,147,148,149,150,151,152,153,154,155,156,157,158,159,160,161,162,163,164,165,166,167,168,169,170,171,172,173,174,175,176,177,178,179,180,181,182,183,184,185,186,187,188,189,190,191,192,193,194,195,196,197,198,199,200,201,202,203,204,205,206,207,208,209,210,211,212,213,214,215,216,217,218,219,220,221,222,223,224,225,226,227,228,229,230,231,232,233,234,235,236,237,238,239,240,241,242,243,244,245,246,247,248,249,250,251,252,253,254,255,256,257,258,259,260,261,262,263,264,265,266,267,268,269,270,271,272,273,274,275,276,277,278,279,280,281,282,283,284,285,286,287,288,289,290,291,292,293,294,295,296,297,298,299,300,301,302,303,304,305,306,307,308,309,310,311,312,313,314,315,316,317,318,319,320,321,322,323,324,325,326,327,328,329,330,331,332,333,334,335,336,337,338,339,340,341,342,343,344,345,346,347,348,349,350,351,352,353,354,355,356,357,358,359,360,361,362,363,364,365,366,367,368,369,370,371,372,373,374,375,376,377,378,379,380,381,382,383,384,385,386,387,388,389,390,391,392,393,394,395,396,397,398,399,400,401,402,403,404,405,406,407,408,409,410,411,412,413,414,415,416,417,418,419,420,421,422,423,424,425,426,427,428,429],"tree_info":[0,0,0,0,0,0,0,0,0,0,0,0,0,0,0,0,0,0,0,0,0,0,0,0,0,0,0,0,0,0,0,0,0,0,0,0,0,0,0,0,0,0,0,0,0,0,0,0,0,0,0,0,0,0,0,0,0,0,0,0,0,0,0,0,0,0,0,0,0,0,0,0,0,0,0,0,0,0,0,0,0,0,0,0,0,0,0,0,0,0,0,0,0,0,0,0,0,0,0,0,0,0,0,0,0,0,0,0,0,0,0,0,0,0,0,0,0,0,0,0,0,0,0,0,0,0,0,0,0,0,0,0,0,0,0,0,0,0,0,0,0,0,0,0,0,0,0,0,0,0,0,0,0,0,0,0,0,0,0,0,0,0,0,0,0,0,0,0,0,0,0,0,0,0,0,0,0,0,0,0,0,0,0,0,0,0,0,0,0,0,0,0,0,0,0,0,0,0,0,0,0,0,0,0,0,0,0,0,0,0,0,0,0,0,0,0,0,0,0,0,0,0,0,0,0,0,0,0,0,0,0,0,0,0,0,0,0,0,0,0,0,0,0,0,0,0,0,0,0,0,0,0,0,0,0,0,0,0,0,0,0,0,0,0,0,0,0,0,0,0,0,0,0,0,0,0,0,0,0,0,0,0,0,0,0,0,0,0,0,0,0,0,0,0,0,0,0,0,0,0,0,0,0,0,0,0,0,0,0,0,0,0,0,0,0,0,0,0,0,0,0,0,0,0,0,0,0,0,0,0,0,0,0,0,0,0,0,0,0,0,0,0,0,0,0,0,0,0,0,0,0,0,0,0,0,0,0,0,0,0,0,0,0,0,0,0,0,0,0,0,0,0,0,0,0,0,0,0,0,0,0,0,0,0,0,0,0,0,0,0,0,0,0,0,0,0,0,0,0,0,0,0,0,0,0,0,0,0,0,0,0,0,0,0,0,0,0,0,0,0,0,0,0,0,0,0,0,0,0],"trees":[{"base_weights":[1.1312499E-2,-5.924633E-1,7.7413476E-1,-2.0721989E0,-2.2504817E-1,3.9663664E-1,9.874484E-1,-1.189603E0,-4.762727E0,3.902136E-1,-5.461875E-1,-8.298931E-2,8.5194266E-1,6.5527123E-1,1.0308143E0,3.781805E-1,-1.9094429E0,-5.68376E0,-6.9932157E-1,-1.4804375E0,4.7897518E-1,7.3768325E-2,-1.0738733E0,2.8851593E-1,-2.4749405E0,-2.5956318E-1,8.8165724E-1,8.941279E-1,-4.1769892E-1,-4.118619E-3,1.0344548E0,-1.4174442E0,6.4631975E-1,-8.638989E-1,-4.490922E0,-3.343049E0,-7.0468874E0,2.3913635E-1,-1.9094822E0,1.3942441E-2,-2.7603495E0,-1.9242907E-1,6.416047E-1,6.0100543E-1,-5.946948E-1,-1.5304952E0,-3.9622825E-1,9.8378384E-1,-4.4238183E-1,-4.1563745E0,-5.939417E-1,-1.1672748E0,5.311919E-1,8.968186E-1,-1.3777538E-1,-2.6189992E-1,9.3908286E-1,-2.1579528E0,6.277155E-1,-1.8803133E-2,1.3970725E-2,1.0696379E0,8.841645E-1,1.4131132E-2,-8.095734E-2,2.6835075E-2,-1.8747024E-2,-8.055071E-3,-6.010393E-2,-5.4973955E-3,-1.6597395E-1,-1.51705155E-2,-1.2158988E-1,-2.2314829E-1,3.1507493E-3,-3.1877734E-2,1.7047338E-2,7.4897516E-3,-7.790336E-2,-2.5881557E-2,2.0937182E-2,-1.1067808E-1,3.6801405E-3,-4.919532E-2,1.9236525E-3,-1.459482E-2,2.2103582E-2,1.06323175E-2,2.7815145E-2,-4.9399067E-2,1.4285438E-2,-8.429106E-2,-2.8487178E-2,-1.3178454E-3,-3.2727685E-2,3.0911239E-2,-8.153404E-3,2.39847E-2,-3.7288312E-2,-1.4547011E-1,8.294777E-3,1.0553759E-2,-5.385706E-2,1.0088724E-2,-5.7454333E-2,1.8008301E-2,7.36685E-4,4.0425495E-3,2.838429E-2,-2.7118338E-2,1.5351801E-2,-3.1877734E-2,1.42628085E-2,3.0059623E-2,4.839787E-3,1.2372581E-2,-8.86692E-2,-9.919804E-3,2.562539E-2,3.303855E-2,2.2675092E-3,-1.0236452E-2,2.9579325E-2],"categories":[],"categories_nodes":[],"categories_segments":[],"categories_sizes":[],"default_left":[0,0,0,0,0,0,0,0,0,0,0,0,0,0,0,0,0,0,0,0,0,0,0,0,0,0,0,0,0,0,0,0,0,0,0,0,0,0,0,0,0,0,0,0,0,0,0,0,0,0,0,0,0,0,0,0,0,0,0,0,0,0,0,0,0,0,0,0,0,0,0,0,0,0,0,0,0,0,0,0,0,0,0,0,0,0,0,0,0,0,0,0,0,0,0,0,0,0,0,0,0,0,0,0,0,0,0,0,0,0,0,0,0,0,0,0,0,0,0,0,0,0,0],"id":0,"left_children":[1,3,5,7,9,11,13,15,17,19,21,23,25,27,29,31,33,35,37,39,41,43,45,47,49,51,53,55,57,59,61,63,65,67,69,71,73,75,77,79,81,83,85,87,89,91,93,95,97,99,101,103,105,107,109,111,113,115,117,-1,-1,119,121,-1,-1,-1,-1,-1,-1,-1,-1,-1,-1,-1,-1,-1,-1,-1,-1,-1,-1,-1,-1,-1,-1,-1,-1,-1,-1,-1,-1,-1,-1,-1,-1,-1,-1,-1,-1,-1,-1,-1,-1,-1,-1,-1,-1,-1,-1,-1,-1,-1,-1,-1,-1,-1,-1,-1,-1,-1,-1,-1,-1],"loss_changes":[1.9007423E3,1.2506895E3,1.453601E2,1.065964E3,3.6624112E2,1.4537982E2,1.4230591E1,3.9726822E2,4.0376147E2,1.0830649E2,3.9837204E2,2.932288E2,1.2122681E1,3.8405033E1,3.8712158E0,5.785559E1,6.339743E2,2.017732E2,2.9977655E1,5.7033966E1,6.711536E1,1.9973497E2,2.0120966E2,1.4713132E2,1.3107748E2,1.0734902E1,5.6124268E0,7.1172485E0,5.7471367E1,3.0424843E0,1.864502E0,4.045259E1,3.0391819E1,1.1301715E2,2.6011267E2,6.216217E1,7.74436E1,9.044314E0,1.731551E1,1.200465E1,3.998278E1,4.3981197E1,4.275876E1,2.3275497E1,2.6957544E2,2.764853E2,6.3292416E1,4.5325165E0,1.3666965E2,6.1605896E1,2.9514687E1,9.180975E0,1.8262792E-1,5.6304016E0,5.4475293E0,5.9004455E0,2.705864E0,2.5748909E1,5.035184E0,0E0,0E0,1.6033325E0,2.0915741E1,0E0,0E0,0E0,0E0,0E0,0E0,0E0,0E0,0E0,0E0,0E0,0E0,0E0,0E0,0E0,0E0,0E0,0E0,0E0,0E0,0E0,0E0,0E0,0E0,0E0,0E0,0E0,0E0,0E0,0E0,0E0,0E0,0E0,0E0,0E0,0E0,0E0,0E0,0E0,0E0,0E0,0E0,0E0,0E0,0E0,0E0,0E0,0E0,0E0,0E0,0E0,0E0,0E0,0E0,0E0,0E0,0E0,0E0,0E0,0E0],"parents":[2147483647,0,0,1,1,2,2,3,3,4,4,5,5,6,6,7,7,8,8,9,9,10,10,11,11,12,12,13,13,14,14,15,15,16,16,17,17,18,18,19,19,20,20,21,21,22,22,23,23,24,24,25,25,26,26,27,27,28,28,29,29,30,30,31,31,32,32,33,33,34,34,35,35,36,36,37,37,38,38,39,39,40,40,41,41,42,42,43,43,44,44,45,45,46,46,47,47,48,48,49,49,50,50,51,51,52,52,53,53,54,54,55,55,56,56,57,57,58,58,61,61,62,62],"right_children":[2,4,6,8,10,12,14,16,18,20,22,24,26,28,30,32,34,36,38,40,42,44,46,48,50,52,54,56,58,60,62,64,66,68,70,72,74,76,78,80,82,84,86,88,90,92,94,96,98,100,102,104,106,108,110,112,114,116,118,-1,-1,120,122,-1,-1,-1,-1,-1,-1,-1,-1,-1,-1,-1,-1,-1,-1,-1,-1,-1,-1,-1,-1,-1,-1,-1,-1,-1,-1,-1,-1,-1,-1,-1,-1,-1,-1,-1,-1,-1,-1,-1,-1,-1,-1,-1,-1,-1,-1,-1,-1,-1,-1,-1,-1,-1,-1,-1,-1,-1,-1,-1,-1],"split_conditions":[8.197356E-2,-6.9809437E-1,5.693548E-1,-1.1658909E-1,-5.697126E-1,-2.7970952E-1,-8.3806807E-1,-7.943577E-1,1.4460894E-1,-1.0701057E0,3.6302242E-1,7.056973E-1,-1.7983783E0,5.251487E-1,-2.749565E0,-1.130453E-1,8.7792176E-1,1.5234389E-2,-4.1165882E-1,7.723354E-1,-1.3504748E0,-1.9538987E-1,6.193429E-1,-5.196534E-1,3.588823E-1,1.3457634E-1,2.3279436E0,-5.3005676E0,7.5588636E-2,-1.0224377E0,4.5930713E-1,-2.1919622E-1,1.3206391E0,2.1531902E-2,2.4988744E-1,-5.946358E-1,1.3522598E0,-1.4739907E0,-4.945431E-1,2.8968254E-1,6.643702E-1,-6.2629825E-1,-9.328493E-1,1.1525273E0,2.3476702E-1,-1.5925767E-1,2.0518094E-1,1.7729763E0,-6.043091E-1,8.1059146E-1,7.508856E-2,-2.8310728E-1,7.405941E-1,-1.1365945E0,-1.2569714E-2,1.3342868E-1,1.5234873E0,-5.63331E-2,-1.8392789E0,-1.8803133E-2,1.3970725E-2,1.7593104E0,-6.0657823E-1,1.4131132E-2,-8.095734E-2,2.6835075E-2,-1.8747024E-2,-8.055071E-3,-6.010393E-2,-5.4973955E-3,-1.6597395E-1,-1.51705155E-2,-1.2158988E-1,-2.2314829E-1,3.1507493E-3,-3.1877734E-2,1.7047338E-2,7.4897516E-3,-7.790336E-2,-2.5881557E-2,2.0937182E-2,-1.1067808E-1,3.6801405E-3,-4.919532E-2,1.9236525E-3,-1.459482E-2,2.2103582E-2,1.06323175E-2,2.7815145E-2,-4.9399067E-2,1.4285438E-2,-8.429106E-2,-2.8487178E-2,-1.3178454E-3,-3.2727685E-2,3.0911239E-2,-8.153404E-3,2.39847E-2,-3.7288312E-2,-1.4547011E-1,8.294777E-3,1.0553759E-2,-5.385706E-2,1.0088724E-2,-5.7454333E-2,1.8008301E-2,7.36685E-4,4.0425495E-3,2.838429E-2,-2.7118338E-2,1.5351801E-2,-3.1877734E-2,1.42628085E-2,3.0059623E-2,4.839787E-3,1.2372581E-2,-8.86692E-2,-9.919804E-3,2.562539E-2,3.303855E-2,2.2675092E-3,-1.0236452E-2,2.9579325E-2],"split_indices":[225,33,225,311,274,4,492,491,426,47,228,101,454,6,422,506,3,423,221,11,225,3,408,498,155,40,483,506,426,19,484,23,186,180,438,318,624,128,75,282,416,149,40,4,426,40,92,502,214,426,38,1,0,33,426,48,523,491,422,0,0,408,391,0,0,0,0,0,0,0,0,0,0,0,0,0,0,0,0,0,0,0,0,0,0,0,0,0,0,0,0,0,0,0,0,0,0,0,0,0,0,0,0,0,0,0,0,0,0,0,0,0,0,0,0,0,0,0,0,0,0,0,0],"split_type":[0,0,0,0,0,0,0,0,0,0,0,0,0,0,0,0,0,0,0,0,0,0,0,0,0,0,0,0,0,0,0,0,0,0,0,0,0,0,0,0,0,0,0,0,0,0,0,0,0,0,0,0,0,0,0,0,0,0,0,0,0,0,0,0,0,0,0,0,0,0,0,0,0,0,0,0,0,0,0,0,0,0,0,0,0,0,0,0,0,0,0,0,0,0,0,0,0,0,0,0,0,0,0,0,0,0,0,0,0,0,0,0,0,0,0,0,0,0,0,0,0,0,0],"sum_hessian":[4.119496E3,2.2999226E3,1.8195735E3,4.5404865E2,1.8458739E3,6.607997E2,1.1587738E3,3.4592444E2,1.08124214E2,6.327641E2,1.2131099E3,3.232768E2,3.375229E2,1.4072586E2,1.0180479E3,1.0940271E2,2.3652171E2,8.693771E1,2.11865E1,2.6026522E1,6.0673755E2,5.5925055E2,6.5385925E2,2.826389E2,4.06379E1,8.036259E0,3.2948663E2,1.1561255E2,2.511331E1,3.561524E0,1.0144864E3,1.214571E1,9.7256996E1,1.7186636E2,6.465536E1,3.6711094E1,5.022662E1,1.3606848E1,7.5796533E0,1.3698169E1,1.2328352E1,1.1816953E2,4.8856802E2,3.1286618E2,2.463844E2,3.8784082E2,2.6601843E2,1.4419606E2,1.3844283E2,1.9086115E1,2.1551786E1,2.922276E0,5.113983E0,3.251032E2,4.3834143E0,3.652845E0,1.119597E2,7.9449377E0,1.7168371E1,1.0045323E0,2.5569916E0,8.036259E2,2.1086047E2,5.6619096E0,6.4838E0,8.346751E1,1.378949E1,1.1351216E2,5.83542E1,1.1871746E1,5.278361E1,7.5796533E0,2.913144E1,4.8856804E1,1.3698169E0,1.0045323E0,1.2602315E1,2.1917071E0,5.3879466E0,5.5705886E0,8.127581E0,8.85815E0,3.4702027E0,1.5159307E1,1.0301023E2,2.9770687E1,4.5879733E2,1.7351013E2,1.3935603E2,1.2520126E2,1.21183136E2,1.2547523E2,2.623656E2,1.763411E2,8.9677345E1,1.4273492E2,1.461138E0,5.342286E1,8.5019966E1,1.6711765E1,2.3743494E0,1.3332885E1,8.218902E0,1.5524591E0,1.3698169E0,4.109451E0,1.0045323E0,1.0684571E1,3.1441864E2,1.3698169E0,3.0135972E0,1.0045323E0,2.6483126E0,1.0611515E2,5.844552E0,2.100386E0,5.844552E0,2.6483126E0,1.4520059E1,8.014342E2,2.1917071E0,1.1597783E1,1.992627E2],"tree_param":{"num_deleted":"0","num_feature":"630","num_nodes":"123","size_leaf_vector":"1"}},{"base_weights":[8.240083E-4,-5.418838E-1,8.003061E-1,-1.8209603E0,-1.6924049E-1,4.166082E-1,9.6824205E-1,-3.9749143E-1,-3.0877051E0,4.0098104E-1,-4.592587E-1,-4.9397302E-1,6.479817E-1,6.1638665E-1,1.0167565E0,7.7553797E-1,-1.0978884E0,-2.0889003E0,-5.2717013E0,-2.5676775E-1,5.864385E-1,9.348134E-2,-9.99798E-1,-2.0284271E0,3.7770197E-1,1.0192873E0,3.635301E-1,-2.9337388E-1,9.3877125E-1,1.0651723E0,8.293707E-1,-3.925605E-1,8.955199E-1,-8.911933E-2,-2.894674E0,-1.2820109E0,-3.6721685E0,-8.4246606E-1,-5.764907E0,-3.3601847E-2,-1.4011813E0,-8.635618E-1,6.437042E-1,3.9581624E-1,-3.584481E-1,-5.3798854E-1,-1.7832832E0,4.6362996E-1,-3.398351E0,9.359584E-1,-3.348618E-1,1.0459044E0,-0E0,-4.8473555E-1,7.815828E-1,5.1157105E-1,-2.4128878E0,1.9846897E-1,1.0010666E0,1.0675938E0,8.9949655E-4,-7.772822E-2,9.618192E-1,1.9779785E-2,-4.573008E-2,-2.757795E-3,3.0264797E-2,1.4135742E-2,-2.5043389E-2,-1.0995325E-1,1.0476346E-3,1.4203449E-2,-5.080202E-2,-1.4447255E-1,-8.365873E-3,-5.6863558E-2,1.0594822E-2,-1.8345404E-1,7.869811E-3,-1.6095176E-2,9.458379E-3,-6.978178E-2,9.166012E-3,1.6018799E-2,-5.961693E-2,-1.1311229E-2,2.1688452E-2,2.1238426E-2,-7.484732E-3,-2.5709318E-2,2.318869E-2,-3.1685643E-2,-1.5469147E-3,-1.2986314E-1,-3.440563E-2,2.38989E-2,-2.1309212E-2,-1.3132806E-1,-5.17568E-4,-7.4092755E-3,3.0984601E-2,1.9405348E-2,-5.480434E-2,3.2747205E-2,-0E0,1.609425E-2,-2.3069328E-2,-3.9332036E-2,1.5839795E-2,1.4211092E-4,2.7799508E-2,2.7871737E-2,-3.8960837E-2,1.3743913E-2,-1.0227162E-1,-2.3289008E-2,2.2129968E-2,3.1967502E-2,2.624859E-3,3.2977138E-2,2.4775118E-3,2.1672474E-2,-4.1984566E-2,3.0243129E-2,-1.5733307E-2],"categories":[],"categories_nodes":[],"categories_segments":[],"categories_sizes":[],"default_left":[0,0,0,0,0,0,0,0,0,0,0,0,0,0,0,0,0,0,0,0,0,0,0,0,0,0,0,0,0,0,0,0,0,0,0,0,0,0,0,0,0,0,0,0,0,0,0,0,0,0,0,0,0,0,0,0,0,0,0,0,0,0,0,0,0,0,0,0,0,0,0,0,0,0,0,0,0,0,0,0,0,0,0,0,0,0,0,0,0,0,0,0,0,0,0,0,0,0,0,0,0,0,0,0,0,0,0,0,0,0,0,0,0,0,0,0,0,0,0,0,0,0,0,0,0],"id":1,"left_children":[1,3,5,7,9,11,13,15,17,19,21,23,25,27,29,31,33,35,37,39,41,43,45,47,49,51,53,55,57,59,61,63,65,67,69,71,73,75,77,79,81,83,85,87,89,91,93,95,97,99,101,103,105,107,109,111,113,115,117,119,-1,121,123,-1,-1,-1,-1,-1,-1,-1,-1,-1,-1,-1,-1,-1,-1,-1,-1,-1,-1,-1,-1,-1,-1,-1,-1,-1,-1,-1,-1,-1,-1,-1,-1,-1,-1,-1,-1,-1,-1,-1,-1,-1,-1,-1,-1,-1,-1,-1,-1,-1,-1,-1,-1,-1,-1,-1,-1,-1,-1,-1,-1,-1,-1],"loss_changes":[1.7929487E3,1.1720597E3,1.06161865E2,9.960758E2,3.1658237E2,1.09731705E2,1.745691E1,2.2134465E2,5.9843384E2,7.935905E1,3.791834E2,1.4527951E2,4.2176834E1,4.4996895E1,5.904297E0,1.5525917E1,3.0320642E2,2.472821E2,1.7754102E2,3.676041E1,4.3996475E1,8.6644516E1,2.284878E2,1.3955473E2,2.942266E1,4.802704E0,8.6266525E1,7.632911E1,4.402298E0,1.8653564E0,2.7292084E1,1.7110886E1,8.265129E0,4.5496056E1,1.19163086E2,9.41284E1,2.3000879E2,1.8199474E1,9.595972E1,2.1368656E1,3.69724E1,3.4502213E1,3.0563187E1,7.169821E1,1.3686856E2,9.754612E1,3.654358E2,8.16797E0,7.474713E1,4.232731E0,5.1398716E1,3.0012817E0,4.6586723E0,6.6688194E1,1.5111893E1,2.7628777E1,3.715233E1,8.603773E0,3.0464935E0,1.5599976E0,0E0,3.5729046E1,7.4957886E0,0E0,0E0,0E0,0E0,0E0,0E0,0E0,0E0,0E0,0E0,0E0,0E0,0E0,0E0,0E0,0E0,0E0,0E0,0E0,0E0,0E0,0E0,0E0,0E0,0E0,0E0,0E0,0E0,0E0,0E0,0E0,0E0,0E0,0E0,0E0,0E0,0E0,0E0,0E0,0E0,0E0,0E0,0E0,0E0,0E0,0E0,0E0,0E0,0E0,0E0,0E0,0E0,0E0,0E0,0E0,0E0,0E0,0E0,0E0,0E0,0E0,0E0],"parents":[2147483647,0,0,1,1,2,2,3,3,4,4,5,5,6,6,7,7,8,8,9,9,10,10,11,11,12,12,13,13,14,14,15,15,16,16,17,17,18,18,19,19,20,20,21,21,22,22,23,23,24,24,25,25,26,26,27,27,28,28,29,29,30,30,31,31,32,32,33,33,34,34,35,35,36,36,37,37,38,38,39,39,40,40,41,41,42,42,43,43,44,44,45,45,46,46,47,47,48,48,49,49,50,50,51,51,52,52,53,53,54,54,55,55,56,56,57,57,58,58,59,59,61,61,62,62],"right_children":[2,4,6,8,10,12,14,16,18,20,22,24,26,28,30,32,34,36,38,40,42,44,46,48,50,52,54,56,58,60,62,64,66,68,70,72,74,76,78,80,82,84,86,88,90,92,94,96,98,100,102,104,106,108,110,112,114,116,118,120,-1,122,124,-1,-1,-1,-1,-1,-1,-1,-1,-1,-1,-1,-1,-1,-1,-1,-1,-1,-1,-1,-1,-1,-1,-1,-1,-1,-1,-1,-1,-1,-1,-1,-1,-1,-1,-1,-1,-1,-1,-1,-1,-1,-1,-1,-1,-1,-1,-1,-1,-1,-1,-1,-1,-1,-1,-1,-1,-1,-1,-1,-1,-1,-1],"split_conditions":[1.7236853E-1,-6.1835194E-1,5.5575657E-1,-7.4077964E-1,-5.697126E-1,-7.517357E-1,-8.22064E-1,-7.792453E-1,9.1433924E-1,-1.2390558E0,2.4988744E-1,1.4567174E-1,-2.637785E-1,1.3092627E-1,4.2931625E-1,-1.727392E0,7.8023803E-1,3.1643353E-2,-1.1089098E0,3.7100995E-1,-1.2184529E0,-1.8448955E-1,-1.2021131E-1,-5.446284E-1,-6.0731107E-1,1.8185622E0,-2.7970952E-1,5.67333E-1,1.9430967E-1,3.2528205E0,-4.593195E-2,-1.4827547E0,-1.07271E-1,5.837522E-1,-1.1659302E-1,-5.733491E-1,1.0201395E-1,-1.2998117E0,9.43285E-1,-2.9415345E-1,6.8534994E-1,1.5755236E-1,-9.899126E-1,3.6302242E-1,8.1059146E-1,6.529559E-1,-2.8296483E-1,1.9612371E0,8.818811E-1,-9.410567E-1,-1.934766E-1,2.016607E0,-6.754761E-2,3.1396317E-1,-1.979204E-1,6.585579E-1,1.5755236E-1,-4.9675646E-1,8.154354E-1,1.8359717E0,8.9949655E-4,8.764009E-1,1.2719495E0,1.9779785E-2,-4.573008E-2,-2.757795E-3,3.0264797E-2,1.4135742E-2,-2.5043389E-2,-1.0995325E-1,1.0476346E-3,1.4203449E-2,-5.080202E-2,-1.4447255E-1,-8.365873E-3,-5.6863558E-2,1.0594822E-2,-1.8345404E-1,7.869811E-3,-1.6095176E-2,9.458379E-3,-6.978178E-2,9.166012E-3,1.6018799E-2,-5.961693E-2,-1.1311229E-2,2.1688452E-2,2.1238426E-2,-7.484732E-3,-2.5709318E-2,2.318869E-2,-3.1685643E-2,-1.5469147E-3,-1.2986314E-1,-3.440563E-2,2.38989E-2,-2.1309212E-2,-1.3132806E-1,-5.17568E-4,-7.4092755E-3,3.0984601E-2,1.9405348E-2,-5.480434E-2,3.2747205E-2,-0E0,1.609425E-2,-2.3069328E-2,-3.9332036E-2,1.5839795E-2,1.4211092E-4,2.7799508E-2,2.7871737E-2,-3.8960837E-2,1.3743913E-2,-1.0227162E-1,-2.3289008E-2,2.2129968E-2,3.1967502E-2,2.624859E-3,3.2977138E-2,2.4775118E-3,2.1672474E-2,-4.1984566E-2,3.0243129E-2,-1.5733307E-2],"split_indices":[225,33,225,325,274,33,492,491,3,435,438,100,498,426,484,398,3,318,302,570,47,3,318,214,512,98,4,428,244,449,20,540,296,228,440,214,426,440,426,47,58,1,40,228,426,408,40,521,190,551,235,283,507,426,391,423,1,100,151,604,0,423,396,0,0,0,0,0,0,0,0,0,0,0,0,0,0,0,0,0,0,0,0,0,0,0,0,0,0,0,0,0,0,0,0,0,0,0,0,0,0,0,0,0,0,0,0,0,0,0,0,0,0,0,0,0,0,0,0,0,0,0,0,0,0],"split_type":[0,0,0,0,0,0,0,0,0,0,0,0,0,0,0,0,0,0,0,0,0,0,0,0,0,0,0,0,0,0,0,0,0,0,0,0,0,0,0,0,0,0,0,0,0,0,0,0,0,0,0,0,0,0,0,0,0,0,0,0,0,0,0,0,0,0,0,0,0,0,0,0,0,0,0,0,0,0,0,0,0,0,0,0,0,0,0,0,0,0,0,0,0,0,0,0,0,0,0,0,0,0,0,0,0,0,0,0,0,0,0,0,0,0,0,0,0,0,0,0,0,0,0,0,0],"sum_hessian":[4.1248906E3,2.4577195E3,1.6671711E3,5.5122797E2,1.9064915E3,5.1148447E2,1.1556866E3,2.6185458E2,2.8937338E2,6.422629E2,1.2642285E3,1.0277485E2,4.0870963E2,1.4621404E2,1.0094726E3,9.7744896E1,1.6410968E2,2.0354642E2,8.582696E1,1.4094106E2,5.0132187E2,6.2657196E2,6.3765656E2,3.545129E1,6.7323555E1,1.7312268E2,2.3558696E2,3.833904E1,1.07875E2,7.883698E2,2.211028E2,8.315381E0,8.942952E1,1.0759793E2,5.651175E1,1.3928113E2,6.426529E1,9.607227E0,7.621973E1,1.2114151E2,1.9799541E1,1.7058554E1,4.842633E2,3.7570383E2,2.5086815E2,4.0512698E2,2.3252956E2,1.3444468E1,2.2006823E1,3.71013E1,3.022226E1,1.6862718E2,4.495494E0,7.757517E1,1.5801178E2,2.9824276E1,8.514764E0,9.5851555E0,9.828984E1,7.8641315E2,1.9566796E0,2.8360638E1,1.9274216E2,5.050809E0,3.264572E0,7.2026505E0,8.222687E1,6.2002243E1,4.559569E1,4.5295616E1,1.1216132E1,2.4023691E1,1.1525744E2,4.8404804E1,1.5860486E1,4.0925303E0,5.514697E0,7.395732E1,2.262405E0,4.894213E1,7.219938E1,1.2311907E1,7.4876337E0,8.274012E0,8.784542E0,2.6077305E1,4.58186E2,2.5726953E2,1.1843429E2,1.7629529E2,7.4572845E1,2.0002727E2,2.0509973E2,4.5818905E1,1.8671065E2,1.1550331E1,1.8941362E0,1.6762838E1,5.2439847E0,1.5531917E0,3.5548107E1,1.9367802E1,1.0854459E1,1.6592818E2,2.6989994E0,3.3049345E0,1.1905591E0,4.2705334E1,3.4869835E1,2.1727905E1,1.3628387E2,2.5915482E1,3.9087956E0,2.4997003E0,6.0150642E0,2.7813854E0,6.80377E0,9.4075615E1,4.2142315E0,7.8417633E2,2.236797E0,1.8679287E1,9.681351E0,1.9144995E2,1.2922045E0],"tree_param":{"num_deleted":"0","num_feature":"630","num_nodes":"125","size_leaf_vector":"1"}},{"base_weights":[-3.7241026E-3,-5.250744E-1,7.946209E-1,-1.760478E0,-1.9422373E-1,4.1824445E-1,9.6943134E-1,-3.1285133E0,-6.2974757E-1,3.644756E-1,-4.9270096E-1,-5.8937192E-2,8.7242174E-1,8.361904E-1,1.0822568E0,-3.7933211E0,-9.470262E-1,5.290908E-1,-1.2273238E0,-1.2495799E0,4.4206724E-1,-2.6041207E-1,-1.770897E0,7.916708E-1,-1.0620733E0,-3.626662E-2,9.126668E-1,9.932215E-1,4.1173068E-1,1.085547E0,1.929662E-1,-4.1992483E0,-5.4398622E-2,3.2721433E-1,-1.8383826E0,-1.159514E0,7.666674E-1,-3.9271408E-1,-2.4827478E0,7.104396E-2,-2.1068158E0,9.568772E-2,7.541953E-1,2.0436864E-1,-8.7599856E-1,4.182497E-1,-2.3519633E0,9.709616E-1,-4.9014825E-2,-1.8869871E0,4.3184412E-1,6.257035E-1,-1.420859E0,9.234878E-1,-1.0735214E-2,1.0122801E0,5.587585E-2,-2.5872824E-1,9.282067E-1,9.5665036E-4,1.087222E0,1.1668253E-2,-5.4528303E-3,-5.30503E-2,-1.4818262E-1,1.8699357E-2,-2.6815241E-2,-2.6686203E-2,2.5623841E-2,7.5907703E-3,-8.732457E-2,1.3773334E-2,-7.311063E-2,2.6953187E-2,-2.3518184E-2,-2.3639403E-2,2.1911522E-2,-4.26697E-3,-9.931643E-2,1.804276E-2,-3.1147443E-2,1.491755E-2,-8.149915E-2,-3.5429753E-2,7.019261E-3,-1.1350708E-3,2.5311003E-2,2.1356711E-2,-3.4548147E-3,-1.7816488E-2,-5.783145E-2,2.2944262E-2,-2.888802E-2,-3.548576E-5,-9.120083E-2,-1.0089035E-2,3.142114E-2,-5.5202853E-2,1.5319307E-2,-8.897837E-2,-3.2891734E-3,2.5042055E-2,-1.583722E-2,-5.3938967E-3,2.324474E-2,1.1991026E-3,-5.4594446E-2,2.8891822E-2,-6.184078E-3,4.5708027E-3,3.1725753E-2,-3.0068E-2,1.8199146E-2,1.6061097E-2,-4.7195684E-2,3.0666044E-2,-1.1548002E-2,3.355909E-2,2.7218403E-3],"categories":[],"categories_nodes":[],"categories_segments":[],"categories_sizes":[],"default_left":[0,0,0,0,0,0,0,0,0,0,0,0,0,0,0,0,0,0,0,0,0,0,0,0,0,0,0,0,0,0,0,0,0,0,0,0,0,0,0,0,0,0,0,0,0,0,0,0,0,0,0,0,0,0,0,0,0,0,0,0,0,0,0,0,0,0,0,0,0,0,0,0,0,0,0,0,0,0,0,0,0,0,0,0,0,0,0,0,0,0,0,0,0,0,0,0,0,0,0,0,0,0,0,0,0,0,0,0,0,0,0,0,0,0,0,0,0,0,0],"id":2,"left_children":[1,3,5,7,9,11,13,15,17,19,21,23,25,27,29,31,33,35,37,39,41,43,45,47,49,51,53,55,57,59,61,63,65,67,69,71,73,75,77,79,81,83,85,87,89,91,93,95,97,99,101,103,105,107,-1,109,111,113,115,-1,117,-1,-1,-1,-1,-1,-1,-1,-1,-1,-1,-1,-1,-1,-1,-1,-1,-1,-1,-1,-1,-1,-1,-1,-1,-1,-1,-1,-1,-1,-1,-1,-1,-1,-1,-1,-1,-1,-1,-1,-1,-1,-1,-1,-1,-1,-1,-1,-1,-1,-1,-1,-1,-1,-1,-1,-1,-1,-1],"loss_changes":[1.7161611E3,1.01823663E3,1.0566113E2,8.069935E2,3.294499E2,1.1357401E2,1.3310669E1,3.3076733E2,2.0521619E2,8.829049E1,3.8030023E2,2.2376181E2,9.938461E0,3.3471283E1,9.366455E-1,2.7326587E2,7.080574E1,4.4306557E1,1.9999619E2,3.7419582E1,7.106329E1,3.1342984E2,2.545373E2,2.1592636E1,1.5120894E2,1.6995983E1,4.7039948E0,6.583893E0,5.2190147E1,9.0216064E-1,7.087132E-1,2.149956E2,1.3526952E1,1.9510876E1,7.745291E1,3.1378119E1,1.7635841E1,5.207131E1,1.3170206E2,1.131761E1,3.242649E1,5.31008E1,1.8501389E1,9.706563E1,1.3633572E2,2.2273994E1,2.2325653E2,8.635422E0,3.0419912E1,1.379964E2,1.8036953E1,1.797832E0,3.3200502E0,4.719284E0,0E0,4.943756E0,8.486544E0,6.981474E1,8.741806E0,0E0,6.1206055E-1,0E0,0E0,0E0,0E0,0E0,0E0,0E0,0E0,0E0,0E0,0E0,0E0,0E0,0E0,0E0,0E0,0E0,0E0,0E0,0E0,0E0,0E0,0E0,0E0,0E0,0E0,0E0,0E0,0E0,0E0,0E0,0E0,0E0,0E0,0E0,0E0,0E0,0E0,0E0,0E0,0E0,0E0,0E0,0E0,0E0,0E0,0E0,0E0,0E0,0E0,0E0,0E0,0E0,0E0,0E0,0E0,0E0,0E0],"parents":[2147483647,0,0,1,1,2,2,3,3,4,4,5,5,6,6,7,7,8,8,9,9,10,10,11,11,12,12,13,13,14,14,15,15,16,16,17,17,18,18,19,19,20,20,21,21,22,22,23,23,24,24,25,25,26,26,27,27,28,28,29,29,30,30,31,31,32,32,33,33,34,34,35,35,36,36,37,37,38,38,39,39,40,40,41,41,42,42,43,43,44,44,45,45,46,46,47,47,48,48,49,49,50,50,51,51,52,52,53,53,55,55,56,56,57,57,58,58,60,60],"right_children":[2,4,6,8,10,12,14,16,18,20,22,24,26,28,30,32,34,36,38,40,42,44,46,48,50,52,54,56,58,60,62,64,66,68,70,72,74,76,78,80,82,84,86,88,90,92,94,96,98,100,102,104,106,108,-1,110,112,114,116,-1,118,-1,-1,-1,-1,-1,-1,-1,-1,-1,-1,-1,-1,-1,-1,-1,-1,-1,-1,-1,-1,-1,-1,-1,-1,-1,-1,-1,-1,-1,-1,-1,-1,-1,-1,-1,-1,-1,-1,-1,-1,-1,-1,-1,-1,-1,-1,-1,-1,-1,-1,-1,-1,-1,-1,-1,-1,-1,-1],"split_conditions":[1.7236853E-1,-6.9809437E-1,5.693548E-1,3.3681518E-1,-5.2494854E-1,-2.7970952E-1,4.3841097E-1,4.604973E-1,-8.037712E-1,-1.0958436E0,7.4845296E-1,-3.818435E-1,-1.1371464E0,1.4634535E-1,3.943784E0,5.925073E-1,-1.0515817E0,-1.7226857E0,6.358893E-1,5.363895E-1,-7.594964E-1,4.6081123E-1,-8.98799E-1,-1.10222906E-1,5.160507E-1,4.997041E-1,2.8126688E0,1.6264492E0,5.7008743E-1,-1.1608982E0,-5.4243565E-1,-7.138189E-2,-2.1383338E-1,-1.3289787E0,-1.8684043E-1,-4.9990094E-1,1.5003623E0,2.8214142E-1,-1.2495996E0,2.74751E-1,-1.1607746E0,-7.6978326E-1,-9.81257E-1,-7.6874655E-1,3.7984622E-1,-5.811806E-1,-9.219433E-1,-1.6820264E0,-8.919089E-1,5.460122E-2,-6.9240594E-1,-1.0736425E0,-3.1772855E-1,2.9710948E0,-1.0735214E-2,-1.8558763E0,-1.5577829E-1,4.995192E-1,2.4819496E0,9.5665036E-4,2.897632E0,1.1668253E-2,-5.4528303E-3,-5.30503E-2,-1.4818262E-1,1.8699357E-2,-2.6815241E-2,-2.6686203E-2,2.5623841E-2,7.5907703E-3,-8.732457E-2,1.3773334E-2,-7.311063E-2,2.6953187E-2,-2.3518184E-2,-2.3639403E-2,2.1911522E-2,-4.26697E-3,-9.931643E-2,1.804276E-2,-3.1147443E-2,1.491755E-2,-8.149915E-2,-3.5429753E-2,7.019261E-3,-1.1350708E-3,2.5311003E-2,2.1356711E-2,-3.4548147E-3,-1.7816488E-2,-5.783145E-2,2.2944262E-2,-2.888802E-2,-3.548576E-5,-9.120083E-2,-1.0089035E-2,3.142114E-2,-5.5202853E-2,1.5319307E-2,-8.897837E-2,-3.2891734E-3,2.5042055E-2,-1.583722E-2,-5.3938967E-3,2.324474E-2,1.1991026E-3,-5.4594446E-2,2.8891822E-2,-6.184078E-3,4.5708027E-3,3.1725753E-2,-3.0068E-2,1.8199146E-2,1.6061097E-2,-4.7195684E-2,3.0666044E-2,-1.1548002E-2,3.355909E-2,2.7218403E-3],"split_indices":[225,33,225,184,274,4,405,492,295,47,3,512,393,498,295,426,491,461,3,3,435,228,295,491,426,502,483,423,216,421,205,144,389,419,214,80,423,426,547,565,346,68,68,3,318,316,267,485,149,33,214,42,267,45,0,41,397,423,297,0,504,0,0,0,0,0,0,0,0,0,0,0,0,0,0,0,0,0,0,0,0,0,0,0,0,0,0,0,0,0,0,0,0,0,0,0,0,0,0,0,0,0,0,0,0,0,0,0,0,0,0,0,0,0,0,0,0,0,0],"split_type":[0,0,0,0,0,0,0,0,0,0,0,0,0,0,0,0,0,0,0,0,0,0,0,0,0,0,0,0,0,0,0,0,0,0,0,0,0,0,0,0,0,0,0,0,0,0,0,0,0,0,0,0,0,0,0,0,0,0,0,0,0,0,0,0,0,0,0,0,0,0,0,0,0,0,0,0,0,0,0,0,0,0,0,0,0,0,0,0,0,0,0,0,0,0,0,0,0,0,0,0,0,0,0,0,0,0,0,0,0,0,0,0,0,0,0,0,0,0,0],"sum_hessian":[4.115807E3,2.4906155E3,1.6251918E3,5.2272003E2,1.9678954E3,5.194357E2,1.1057561E3,2.3357071E2,2.8914932E2,6.8494824E2,1.2829471E3,2.5487132E2,2.6456442E2,5.213375E2,5.844186E2,1.7691289E2,5.665781E1,9.851735E1,1.9063199E2,2.884338E1,6.5610486E2,1.0894326E3,1.9351454E2,1.3834145E2,1.16529884E2,1.1230139E1,2.5333429E2,3.7691257E2,1.4442494E2,5.814424E2,2.9761472E0,1.5917352E2,1.773937E1,2.428415E1,3.237366E1,1.0372668E1,8.814468E1,1.17435356E2,7.3196625E1,1.2689858E1,1.615352E1,3.132951E2,3.4280978E2,6.221589E2,4.672737E2,4.0806705E1,1.5270784E2,1.1355544E2,2.4786001E1,7.444842E1,4.2081467E1,8.970665E0,2.2594738E0,2.5216766E2,1.1666201E0,3.691053E2,7.8072953E0,6.36452E1,8.077974E1,1.042232E0,5.804002E2,1.9334307E0,1.0427165E0,3.4198082E1,1.2497544E2,1.0318975E1,7.4203954E0,6.4200797E0,1.786407E1,1.135991E1,2.101375E1,5.467849E0,4.9048195E0,8.382559E1,4.319085E0,8.8542564E1,2.8892797E1,1.8615906E1,5.458072E1,9.757044E0,2.9328146E0,2.8375769E0,1.3315945E1,2.7295572E1,2.8599954E2,2.6919628E1,3.1589014E2,2.428408E2,3.7931805E2,3.64574E2,1.0269969E2,3.4242638E1,6.564071E0,3.2113102E1,1.20594734E2,3.3222163E0,1.1023322E2,3.8988855E0,2.0887115E1,4.6190426E1,2.825799E1,3.0380198E1,1.170127E1,1.0491365E0,7.9215283E0,1.0731792E0,1.1862946E0,2.4968652E2,2.481148E0,7.8776016E0,3.612277E2,1.6170638E0,6.190232E0,4.0818295E1,2.2826904E1,7.767716E1,3.1025717E0,5.7909143E2,1.3087709E0],"tree_param":{"num_deleted":"0","num_feature":"630","num_nodes":"119","size_leaf_vector":"1"}},{"base_weights":[-2.3314517E-3,-4.807489E-1,8.077587E-1,-1.5532199E0,-1.4737913E-1,5.298204E-1,1.0082415E0,-8.058131E-1,-3.2883766E0,4.018027E-1,-4.1397116E-1,1.3480844E-1,8.9820045E-1,1.0144422E0,-0E0,1.9859725E-1,-1.510845E0,-3.8868723E0,-5.105704E-1,1.1358625E-3,6.459028E-1,1.7945649E-1,-7.475942E-1,8.0116194E-1,-8.34213E-1,3.2753992E-1,9.4475925E-1,8.9270914E-1,1.084304E0,-2.4873257E-2,1.7344622E-2,8.5066766E-1,-4.5629102E-1,-9.683544E-1,-4.107066E0,-2.4854753E0,-4.9180093E0,4.5392212E-1,-1.3466375E0,-9.8332125E-1,1.7309985E-1,-6.3465774E-1,7.179645E-1,5.82882E-1,-9.787813E-2,-1.4212451E0,-3.3322084E-1,9.7489864E-1,3.1759527E-2,-2.2311654E0,3.2275495E-1,8.249997E-1,-6.068296E-1,9.7716844E-1,2.8152704E-1,1.033739E0,2.9122925E-1,-7.2859955E-4,1.0879513E0,2.9902607E-2,-1.6098421E-2,1.0351259E-2,-4.1528136E-2,-7.0890435E-4,-4.800852E-2,-1.4437082E-1,-5.333685E-3,-8.467291E-2,1.3900175E-2,-1.551597E-1,5.462959E-3,2.4601942E-2,-1.6520169E-2,1.5267331E-2,-6.1090216E-2,-4.7549978E-2,1.7152468E-2,-1.3545241E-2,1.1688594E-2,-5.2437004E-2,1.8271672E-2,5.797134E-3,2.5153458E-2,2.3741106E-2,-5.983929E-3,1.6619492E-2,-1.2821116E-2,-1.5747732E-2,-9.821219E-2,3.5537092E-3,-3.8029727E-2,3.0949295E-2,-1.1038558E-3,-4.6140008E-2,1.9138677E-2,4.362407E-3,-1.0034928E-1,1.8244645E-2,-3.5443068E-2,-5.4060607E-3,2.7958505E-2,-4.334296E-2,1.4910125E-2,3.0413935E-2,-8.161196E-3,2.2346837E-2,-2.6438486E-2,3.239821E-2,-5.464831E-3,2.3980329E-2,-5.0466258E-2,4.8593194E-3,3.364227E-2],"categories":[],"categories_nodes":[],"categories_segments":[],"categories_sizes":[],"default_left":[0,0,0,0,0,0,0,0,0,0,0,0,0,0,0,0,0,0,0,0,0,0,0,0,0,0,0,0,0,0,0,0,0,0,0,0,0,0,0,0,0,0,0,0,0,0,0,0,0,0,0,0,0,0,0,0,0,0,0,0,0,0,0,0,0,0,0,0,0,0,0,0,0,0,0,0,0,0,0,0,0,0,0,0,0,0,0,0,0,0,0,0,0,0,0,0,0,0,0,0,0,0,0,0,0,0,0,0,0,0,0,0,0],"id":3,"left_children":[1,3,5,7,9,11,13,15,17,19,21,23,25,27,29,31,33,35,37,39,41,43,45,47,49,51,53,55,57,-1,-1,59,61,63,65,67,69,71,73,75,77,79,81,83,85,87,89,91,93,95,97,99,101,103,105,107,109,-1,111,-1,-1,-1,-1,-1,-1,-1,-1,-1,-1,-1,-1,-1,-1,-1,-1,-1,-1,-1,-1,-1,-1,-1,-1,-1,-1,-1,-1,-1,-1,-1,-1,-1,-1,-1,-1,-1,-1,-1,-1,-1,-1,-1,-1,-1,-1,-1,-1,-1,-1,-1,-1,-1,-1],"loss_changes":[1.5970323E3,9.253968E2,8.326465E1,7.8635596E2,2.905733E2,9.398129E1,5.532959E0,3.0847296E2,2.978993E2,6.3476303E1,2.648246E2,2.0751994E2,7.749634E0,3.8762817E0,5.8259287E0,7.928314E1,3.4500543E2,1.721128E2,3.1966377E1,4.285851E1,3.8910522E1,5.430507E1,2.3699869E2,2.5284447E1,2.1473236E2,1.6253143E1,5.590515E0,2.7857422E1,2.2890625E0,0E0,0E0,1.7092827E1,6.758904E1,1.2029549E2,9.464343E1,5.945102E1,5.2544556E1,8.36215E0,2.784182E1,3.5627422E1,2.7837608E1,3.4459602E1,1.9382523E1,2.9324142E1,5.9544525E1,5.1561755E2,2.1645067E2,4.7286224E0,3.8442894E1,1.474047E2,3.2262657E1,2.385254E0,1.3771733E1,4.482239E0,1.2193929E1,6.526703E0,7.051469E1,0E0,1.1826172E0,0E0,0E0,0E0,0E0,0E0,0E0,0E0,0E0,0E0,0E0,0E0,0E0,0E0,0E0,0E0,0E0,0E0,0E0,0E0,0E0,0E0,0E0,0E0,0E0,0E0,0E0,0E0,0E0,0E0,0E0,0E0,0E0,0E0,0E0,0E0,0E0,0E0,0E0,0E0,0E0,0E0,0E0,0E0,0E0,0E0,0E0,0E0,0E0,0E0,0E0,0E0,0E0,0E0,0E0],"parents":[2147483647,0,0,1,1,2,2,3,3,4,4,5,5,6,6,7,7,8,8,9,9,10,10,11,11,12,12,13,13,14,14,15,15,16,16,17,17,18,18,19,19,20,20,21,21,22,22,23,23,24,24,25,25,26,26,27,27,28,28,31,31,32,32,33,33,34,34,35,35,36,36,37,37,38,38,39,39,40,40,41,41,42,42,43,43,44,44,45,45,46,46,47,47,48,48,49,49,50,50,51,51,52,52,53,53,54,54,55,55,56,56,58,58],"right_children":[2,4,6,8,10,12,14,16,18,20,22,24,26,28,30,32,34,36,38,40,42,44,46,48,50,52,54,56,58,-1,-1,60,62,64,66,68,70,72,74,76,78,80,82,84,86,88,90,92,94,96,98,100,102,104,106,108,110,-1,112,-1,-1,-1,-1,-1,-1,-1,-1,-1,-1,-1,-1,-1,-1,-1,-1,-1,-1,-1,-1,-1,-1,-1,-1,-1,-1,-1,-1,-1,-1,-1,-1,-1,-1,-1,-1,-1,-1,-1,-1,-1,-1,-1,-1,-1,-1,-1,-1,-1,-1,-1,-1,-1,-1],"split_conditions":[2.2017391E-1,-6.1835194E-1,7.4828506E-1,-1.6415961E-1,-4.6635187E-1,-2.7970952E-1,3.943784E0,-6.022802E-1,1.3092627E-1,-9.0875316E-1,1.0074681E-1,-9.800733E-2,-8.8274807E-1,4.6023154E-1,4.4812518E-1,-6.665017E-1,1.2903488E0,2.7128345E-1,-6.196229E-1,-2.9597312E-1,-1.0958436E0,-1.2757427E-1,-1.6521038E-1,-2.637785E-1,2.652477E-1,3.3884013E-1,1.2965158E0,1.7403261E-1,-1.1688185E0,-2.4873257E-2,1.7344622E-2,1.7839816E0,6.271797E-1,2.9116756E-1,6.27896E-2,8.818811E-1,1.3522598E0,3.4245723E-1,5.846098E-2,1.0426334E0,1.7842233E-1,2.4844043E-1,-5.6599915E-1,4.0025634E-1,-2.0561203E-1,-2.8116673E-1,2.1591995E-2,1.7587844E0,-3.9550787E-1,-1.4757127E-1,1.2594244E-1,-1.525866E0,5.261332E-4,2.935349E0,7.1872747E-1,1.4256958E0,3.6677536E-1,-7.2859955E-4,-3.0603867E0,2.9902607E-2,-1.6098421E-2,1.0351259E-2,-4.1528136E-2,-7.0890435E-4,-4.800852E-2,-1.4437082E-1,-5.333685E-3,-8.467291E-2,1.3900175E-2,-1.551597E-1,5.462959E-3,2.4601942E-2,-1.6520169E-2,1.5267331E-2,-6.1090216E-2,-4.7549978E-2,1.7152468E-2,-1.3545241E-2,1.1688594E-2,-5.2437004E-2,1.8271672E-2,5.797134E-3,2.5153458E-2,2.3741106E-2,-5.983929E-3,1.6619492E-2,-1.2821116E-2,-1.5747732E-2,-9.821219E-2,3.5537092E-3,-3.8029727E-2,3.0949295E-2,-1.1038558E-3,-4.6140008E-2,1.9138677E-2,4.362407E-3,-1.0034928E-1,1.8244645E-2,-3.5443068E-2,-5.4060607E-3,2.7958505E-2,-4.334296E-2,1.4910125E-2,3.0413935E-2,-8.161196E-3,2.2346837E-2,-2.6438486E-2,3.239821E-2,-5.464831E-3,2.3980329E-2,-5.0466258E-2,4.8593194E-3,3.364227E-2],"split_indices":[225,33,225,311,283,4,295,304,426,435,438,491,386,216,328,491,3,423,221,296,47,228,40,498,426,484,82,491,239,0,0,172,438,438,26,190,624,19,3,268,282,177,485,3,274,374,274,101,20,423,445,201,572,115,449,423,3,0,464,0,0,0,0,0,0,0,0,0,0,0,0,0,0,0,0,0,0,0,0,0,0,0,0,0,0,0,0,0,0,0,0,0,0,0,0,0,0,0,0,0,0,0,0,0,0,0,0,0,0,0,0,0,0],"split_type":[0,0,0,0,0,0,0,0,0,0,0,0,0,0,0,0,0,0,0,0,0,0,0,0,0,0,0,0,0,0,0,0,0,0,0,0,0,0,0,0,0,0,0,0,0,0,0,0,0,0,0,0,0,0,0,0,0,0,0,0,0,0,0,0,0,0,0,0,0,0,0,0,0,0,0,0,0,0,0,0,0,0,0,0,0,0,0,0,0,0,0,0,0,0,0,0,0,0,0,0,0,0,0,0,0,0,0,0,0,0,0,0,0],"sum_hessian":[4.1133E3,2.5870012E3,1.5262983E3,6.102377E2,1.9767635E3,6.4527136E2,8.81027E2,4.3031738E2,1.7992032E2,6.4537775E2,1.3313859E3,3.1383267E2,3.3143866E2,8.756209E2,5.406052E0,1.785733E2,2.5174406E2,1.4680672E2,3.311361E1,2.4575093E2,3.996268E2,4.7974445E2,8.516414E2,1.8634189E2,1.2749079E2,2.7258957E1,3.041797E2,3.379472E2,5.376737E2,1.5607625E0,3.8452897E0,8.892765E1,8.964566E1,2.1244795E2,3.9296112E1,6.759598E1,7.921074E1,1.6160194E1,1.6953415E1,3.39364E1,2.1181453E2,1.974321E1,3.798836E2,1.9378589E2,2.8595856E2,3.2090884E2,5.3073254E2,1.5120146E2,3.5140423E1,5.6197193E1,7.12936E1,1.8075619E1,9.183339E0,2.8832614E2,1.5853564E1,2.715915E2,6.6355705E1,1.6925169E0,5.359812E2,8.280772E1,6.119933E0,4.8679913E1,4.0965744E1,8.306985E1,1.293781E2,3.364887E1,5.647246E0,6.2281754E1,5.314222E0,7.748497E1,1.7257687E0,1.2526874E1,3.6333206E0,4.5566463E0,1.2396769E1,2.4888979E1,9.047421E0,5.226981E1,1.5954472E2,9.799362E0,9.943847E0,6.1091408E1,3.187922E2,1.5615549E2,3.76304E1,9.436787E1,1.9159068E2,2.1489456E2,1.0601429E2,3.5645908E2,1.7427348E2,1.4696815E2,4.233318E0,8.1829605E0,2.6957462E1,1.7914629E1,3.8282566E1,6.215401E1,9.139589E0,1.0473834E0,1.7028234E1,4.68204E0,4.5012984E0,2.8685825E2,1.4678786E0,1.2385608E1,3.4679568E0,2.6821274E2,3.378775E0,5.4751045E1,1.1604661E1,2.7363508E0,5.332449E2],"tree_param":{"num_deleted":"0","num_feature":"630","num_nodes":"113","size_leaf_vector":"1"}},{"base_weights":[3.3556984E-4,-4.6543217E-1,8.079343E-1,-1.4588495E0,-1.420952E-1,5.330375E-1,1.0088445E0,-2.8145972E-1,-2.397671E0,3.961662E-1,-4.1037446E-1,9.667819E-1,2.093384E-1,1.0151923E0,5.858251E-3,7.5531864E-1,-8.5577697E-1,-1.3859607E0,-3.4723282E0,-9.2172295E-1,4.9805516E-1,-6.4473873E-1,5.840312E-1,-1.7474091E-1,9.9010986E-1,7.063295E-1,-8.7435484E-1,-1.9942792E-1,1.0195924E0,-2.4271905E-2,1.7333794E-2,-3.772875E-1,9.227859E-1,-3.8963478E-2,-2.369151E0,-8.1844115E-1,-3.0119672E0,-3.8457272E0,-1.1989819E0,-3.0064015E0,1.552987E-1,-1.0632447E0,5.651366E-1,1.6201282E-2,-1.1470562E0,7.753663E-1,-2.743079E-1,1.558284E-2,-2.7798163E-2,2.2095275E-1,1.0166085E0,8.9123905E-1,1.4601395E-1,-1.6099617E0,8.8748795E-1,-1.8437713E-2,9.547095E-3,1.0218235E0,-5.592211E-3,-5.272177E-2,1.655093E-2,2.997915E-2,-8.797225E-3,-3.5478707E-2,5.701042E-3,1.8918684E-2,-8.741156E-2,1.2269265E-5,-4.2976726E-2,-1.0757341E-1,5.477502E-3,-6.922359E-2,-1.3648047E-1,-8.0291696E-2,-7.6269144E-3,-1.1927308E-1,1.1118472E-2,2.3284504E-2,-3.0793114E-2,1.0521429E-2,-5.8428124E-2,4.623057E-3,2.3080023E-2,-1.894573E-2,1.946751E-2,-7.6413755E-3,-4.934389E-2,7.578924E-3,2.7643293E-2,-3.3911113E-2,1.7902298E-2,2.122483E-2,-3.2814372E-2,3.2304976E-2,1.09836785E-2,-1.8014409E-2,2.821122E-2,1.7876899E-2,-1.655137E-2,4.8663444E-3,-7.47876E-2,-8.9230295E-3,2.9658483E-2,3.162265E-2,4.843541E-3],"categories":[],"categories_nodes":[],"categories_segments":[],"categories_sizes":[],"default_left":[0,0,0,0,0,0,0,0,0,0,0,0,0,0,0,0,0,0,0,0,0,0,0,0,0,0,0,0,0,0,0,0,0,0,0,0,0,0,0,0,0,0,0,0,0,0,0,0,0,0,0,0,0,0,0,0,0,0,0,0,0,0,0,0,0,0,0,0,0,0,0,0,0,0,0,0,0,0,0,0,0,0,0,0,0,0,0,0,0,0,0,0,0,0,0,0,0,0,0,0,0,0,0,0,0],"id":4,"left_children":[1,3,5,7,9,11,13,15,17,19,21,23,25,27,29,31,33,35,37,39,41,43,45,47,49,51,53,55,57,-1,-1,59,61,63,65,67,69,71,73,75,77,79,81,83,85,87,89,-1,-1,91,93,95,97,99,101,-1,-1,103,-1,-1,-1,-1,-1,-1,-1,-1,-1,-1,-1,-1,-1,-1,-1,-1,-1,-1,-1,-1,-1,-1,-1,-1,-1,-1,-1,-1,-1,-1,-1,-1,-1,-1,-1,-1,-1,-1,-1,-1,-1,-1,-1,-1,-1,-1,-1],"loss_changes":[1.5485447E3,8.3788434E2,8.116284E1,7.057206E2,2.8564825E2,8.9622086E1,5.484619E0,1.7415665E2,3.6916248E2,9.0119064E1,3.088353E2,7.9444885E0,2.0337744E2,5.3571167E0,5.6967173E0,2.1171516E1,2.3126178E2,1.6573944E2,1.27305664E2,1.1075893E2,6.649431E1,3.5509662E2,4.243235E1,5.9675226E0,4.6453247E0,2.6245056E1,1.5958958E2,1.9490141E0,2.991211E0,0E0,0E0,2.307678E1,6.6088104E0,3.2045628E1,9.789703E1,6.868444E1,7.504535E1,9.77124E1,3.6928543E1,5.383081E1,2.7424498E1,3.3473698E1,4.4641006E1,1.8216835E2,2.4655591E2,1.2584E1,3.6953346E1,0E0,0E0,1.0963013E1,4.0114746E0,8.869614E0,2.145459E1,1.2458954E2,4.3366165E0,0E0,0E0,2.5352173E0,0E0,0E0,0E0,0E0,0E0,0E0,0E0,0E0,0E0,0E0,0E0,0E0,0E0,0E0,0E0,0E0,0E0,0E0,0E0,0E0,0E0,0E0,0E0,0E0,0E0,0E0,0E0,0E0,0E0,0E0,0E0,0E0,0E0,0E0,0E0,0E0,0E0,0E0,0E0,0E0,0E0,0E0,0E0,0E0,0E0,0E0,0E0],"parents":[2147483647,0,0,1,1,2,2,3,3,4,4,5,5,6,6,7,7,8,8,9,9,10,10,11,11,12,12,13,13,14,14,15,15,16,16,17,17,18,18,19,19,20,20,21,21,22,22,23,23,24,24,25,25,26,26,27,27,28,28,31,31,32,32,33,33,34,34,35,35,36,36,37,37,38,38,39,39,40,40,41,41,42,42,43,43,44,44,45,45,46,46,49,49,50,50,51,51,52,52,53,53,54,54,57,57],"right_children":[2,4,6,8,10,12,14,16,18,20,22,24,26,28,30,32,34,36,38,40,42,44,46,48,50,52,54,56,58,-1,-1,60,62,64,66,68,70,72,74,76,78,80,82,84,86,88,90,-1,-1,92,94,96,98,100,102,-1,-1,104,-1,-1,-1,-1,-1,-1,-1,-1,-1,-1,-1,-1,-1,-1,-1,-1,-1,-1,-1,-1,-1,-1,-1,-1,-1,-1,-1,-1,-1,-1,-1,-1,-1,-1,-1,-1,-1,-1,-1,-1,-1,-1,-1,-1,-1,-1,-1],"split_conditions":[2.2017391E-1,-6.0665524E-1,7.4828506E-1,-7.4077964E-1,-3.594389E-1,-3.744397E-1,3.0634198E0,-7.792453E-1,6.1397296E-1,-9.899126E-1,2.3476702E-1,-1.4202762E0,3.6677536E-1,-2.749565E0,-7.666339E-1,-1.6680827E0,3.489966E-1,3.7361178E-1,7.494635E-1,2.7306065E-1,-1.1860284E0,-8.925119E-1,9.4105676E-2,5.0611943E-1,-1.7973739E0,7.791956E-2,8.0142695E-1,1.249012E-1,1.9314632E0,-2.4271905E-2,1.7333794E-2,5.6827563E-1,1.2240969E0,-6.108484E-1,-4.921251E-1,-1.489621E-1,4.9771073E-1,1.8029866E-1,8.723834E-3,1.7239957E-1,1.0172911E-1,1.5755236E-1,-9.318903E-1,-7.8629583E-1,-5.526323E-1,-2.5921324E-1,5.013747E-1,1.558284E-2,-2.7798163E-2,2.2096567E-1,3.3608535E-1,-2.1334372E0,-2.562093E-1,-2.2684498E-1,-2.267267E0,-1.8437713E-2,9.547095E-3,1.7489364E0,-5.592211E-3,-5.272177E-2,1.655093E-2,2.997915E-2,-8.797225E-3,-3.5478707E-2,5.701042E-3,1.8918684E-2,-8.741156E-2,1.2269265E-5,-4.2976726E-2,-1.0757341E-1,5.477502E-3,-6.922359E-2,-1.3648047E-1,-8.0291696E-2,-7.6269144E-3,-1.1927308E-1,1.1118472E-2,2.3284504E-2,-3.0793114E-2,1.0521429E-2,-5.8428124E-2,4.623057E-3,2.3080023E-2,-1.894573E-2,1.946751E-2,-7.6413755E-3,-4.934389E-2,7.578924E-3,2.7643293E-2,-3.3911113E-2,1.7902298E-2,2.122483E-2,-3.2814372E-2,3.2304976E-2,1.09836785E-2,-1.8014409E-2,2.821122E-2,1.7876899E-2,-1.655137E-2,4.8663444E-3,-7.47876E-2,-8.9230295E-3,2.9658483E-2,3.162265E-2,4.843541E-3],"split_indices":[225,33,225,325,64,498,493,491,3,40,426,492,3,422,273,461,180,108,58,366,47,3,242,1,41,417,216,144,3,0,0,499,518,232,424,500,426,423,16,456,73,1,435,216,267,583,177,0,0,376,505,131,153,484,392,0,0,6,0,0,0,0,0,0,0,0,0,0,0,0,0,0,0,0,0,0,0,0,0,0,0,0,0,0,0,0,0,0,0,0,0,0,0,0,0,0,0,0,0,0,0,0,0,0,0],"split_type":[0,0,0,0,0,0,0,0,0,0,0,0,0,0,0,0,0,0,0,0,0,0,0,0,0,0,0,0,0,0,0,0,0,0,0,0,0,0,0,0,0,0,0,0,0,0,0,0,0,0,0,0,0,0,0,0,0,0,0,0,0,0,0,0,0,0,0,0,0,0,0,0,0,0,0,0,0,0,0,0,0,0,0,0,0,0,0,0,0,0,0,0,0,0,0,0,0,0,0,0,0,0,0,0,0],"sum_hessian":[4.1093667E3,2.6072485E3,1.5021179E3,6.370222E2,1.9702264E3,6.4000574E2,8.621122E2,2.8474603E2,3.522762E2,6.547605E2,1.315466E3,2.7035413E2,3.6965158E2,8.5664E2,5.472178E0,1.0108498E2,1.8366106E2,1.8583026E2,1.6644595E2,4.4842136E1,6.0991833E2,1.0656263E3,2.4983966E2,4.927291E0,2.6542685E2,2.5431668E2,1.153349E2,2.4940646E0,8.5414594E2,1.6172404E0,3.8549376E0,1.2418149E1,8.8666824E1,1.2175516E2,6.19059E1,1.4188812E2,4.394214E1,1.4075793E2,2.5688007E1,1.3013164E1,3.1828972E1,2.2852783E1,5.8706555E2,4.6170398E2,6.039223E2,2.0459729E2,4.5242374E1,3.1258435E0,1.8014474E0,1.0000536E1,2.5542632E2,1.8955939E2,6.47573E1,8.1591606E1,3.3743294E1,1.0408841E0,1.4531803E0,8.531193E2,1.0266062E0,3.739511E0,8.6786375E0,8.584555E1,2.8212755E0,1.7836254E1,1.039189E2,8.221793E0,5.3684105E1,6.0121433E1,8.1766685E1,3.7907703E1,6.0344324E0,4.239317E1,9.836478E1,7.762392E0,1.7925617E1,9.917053E0,3.0961103E0,2.1787863E1,1.004111E1,9.31669E0,1.3536093E1,1.8219572E2,4.0486984E2,2.2798402E2,2.3371996E2,2.0455997E2,3.9936234E2,4.031029E1,1.64287E2,2.247613E1,2.2766245E1,8.599124E0,1.4014121E0,2.4167334E2,1.3752966E1,1.6601025E0,1.8789928E2,3.9943382E1,2.481392E1,2.6725235E1,5.4866375E1,1.37673E0,3.236656E1,8.482627E2,4.8566556E0],"tree_param":{"num_deleted":"0","num_feature":"630","num_nodes":"105","size_leaf_vector":"1"}},{"base_weights":[1.041755E-3,-5.066092E-1,7.095966E-1,-1.7271852E0,-2.4691361E-1,3.3517596E-1,9.5488304E-1,-2.7973163E0,-6.1706966E-1,-1.702245E0,-1.3600047E-1,-1.4177679E-1,8.253184E-1,5.981509E-1,1.0042408E0,1.3482064E-1,-3.0970578E0,5.875352E-1,-1.2311401E0,-2.658669E0,6.0244557E-2,4.358631E-1,-3.863068E-1,7.9540205E-1,-9.774432E-1,3.948645E-1,8.8503945E-1,-5.7080615E-1,8.284116E-1,1.0583116E0,8.52549E-1,-1.0379629E0,7.174368E-1,-1.1635377E0,-3.6792982E0,7.077911E-1,-1.1092418E0,-1.7300152E0,3.396614E-1,-3.089853E0,6.624271E-1,-8.792878E-1,6.974448E-1,-5.189915E-1,5.33014E-1,8.812285E-2,-8.305856E-1,9.073927E-1,-6.3974226E-1,-2.0099788E0,3.6551845E-1,-7.12277E-1,6.96883E-1,9.294406E-1,2.9867113E-1,-1.6472272E0,6.667238E-1,8.837518E-1,-5.524393E-1,1.0612953E0,-2.6691887E-3,-3.357023E-1,9.001184E-1,1.3346762E-2,-5.3785298E-2,2.6799396E-2,-1.1397578E-2,1.6882397E-2,-5.1150948E-2,1.2227268E-2,-1.19156525E-1,2.5881175E-2,-1.6236199E-2,-4.867852E-2,7.848387E-3,-1.760785E-2,-8.404691E-2,-2.202266E-2,2.1845987E-2,-5.0255876E-2,-1.4117554E-1,-5.607455E-3,2.4217797E-2,-5.918876E-2,1.1492666E-2,-1.0714467E-2,2.61985E-2,1.9733632E-2,-3.5773966E-2,-1.7793546E-3,2.1199292E-2,1.45175075E-2,-1.3221908E-2,-3.8768563E-2,-8.844019E-3,-1.0987385E-2,3.0483013E-2,-5.1480874E-2,1.739037E-2,5.7385294E-3,-8.549787E-2,2.3208056E-2,-1.9048251E-2,1.4966276E-2,-5.1494565E-2,-1.9846741E-2,2.5714014E-2,2.8957509E-2,-8.005119E-3,-2.3210041E-2,2.1944596E-2,1.4747664E-2,-7.207106E-2,-5.7123355E-3,2.4243155E-2,3.0558184E-2,7.860181E-3,-3.8198277E-2,1.1734868E-2,1.6499159E-3,3.2753915E-2,-4.4618856E-2,2.020516E-2,-1.0394583E-2,2.8301734E-2],"categories":[],"categories_nodes":[],"categories_segments":[],"categories_sizes":[],"default_left":[0,0,0,0,0,0,0,0,0,0,0,0,0,0,0,0,0,0,0,0,0,0,0,0,0,0,0,0,0,0,0,0,0,0,0,0,0,0,0,0,0,0,0,0,0,0,0,0,0,0,0,0,0,0,0,0,0,0,0,0,0,0,0,0,0,0,0,0,0,0,0,0,0,0,0,0,0,0,0,0,0,0,0,0,0,0,0,0,0,0,0,0,0,0,0,0,0,0,0,0,0,0,0,0,0,0,0,0,0,0,0,0,0,0,0,0,0,0,0,0,0,0,0,0,0],"id":5,"left_children":[1,3,5,7,9,11,13,15,17,19,21,23,25,27,29,31,33,35,37,39,41,43,45,47,49,51,53,55,57,59,61,63,65,67,69,71,73,75,77,79,81,83,85,87,89,91,93,95,97,99,101,103,105,107,109,111,113,115,117,119,-1,121,123,-1,-1,-1,-1,-1,-1,-1,-1,-1,-1,-1,-1,-1,-1,-1,-1,-1,-1,-1,-1,-1,-1,-1,-1,-1,-1,-1,-1,-1,-1,-1,-1,-1,-1,-1,-1,-1,-1,-1,-1,-1,-1,-1,-1,-1,-1,-1,-1,-1,-1,-1,-1,-1,-1,-1,-1,-1,-1,-1,-1,-1,-1],"loss_changes":[1.4806825E3,7.5859094E2,1.566084E2,4.926626E2,3.1902652E2,1.6076505E2,1.6006226E1,1.8864258E2,1.5874277E2,2.3663165E2,2.6479254E2,2.775791E2,7.4055786E0,3.8125797E1,4.062805E0,1.8677914E1,2.0167273E2,1.7957127E1,1.12630554E2,1.3770038E2,3.3930958E1,5.3308136E1,2.7125842E2,2.9055817E1,2.6215387E2,1.7886684E1,6.6309814E0,3.662132E1,1.05553665E1,2.5721436E0,1.5642426E1,1.2428523E1,4.1332684E0,4.5967888E1,1.176095E2,1.32326355E1,5.554404E0,1.184837E2,1.6306551E1,1.486084E2,1.9392881E0,3.2662117E1,6.455427E0,4.2877403E1,4.711087E1,1.24528336E2,1.5297025E2,1.7500748E1,2.1232857E1,1.8039429E2,3.3917175E1,1.6928139E1,9.28953E0,4.190796E0,1.338267E1,2.4934013E1,1.9746923E0,6.6048737E0,6.0426674E0,7.4768066E-1,0E0,1.739821E1,6.733536E0,0E0,0E0,0E0,0E0,0E0,0E0,0E0,0E0,0E0,0E0,0E0,0E0,0E0,0E0,0E0,0E0,0E0,0E0,0E0,0E0,0E0,0E0,0E0,0E0,0E0,0E0,0E0,0E0,0E0,0E0,0E0,0E0,0E0,0E0,0E0,0E0,0E0,0E0,0E0,0E0,0E0,0E0,0E0,0E0,0E0,0E0,0E0,0E0,0E0,0E0,0E0,0E0,0E0,0E0,0E0,0E0,0E0,0E0,0E0,0E0,0E0,0E0],"parents":[2147483647,0,0,1,1,2,2,3,3,4,4,5,5,6,6,7,7,8,8,9,9,10,10,11,11,12,12,13,13,14,14,15,15,16,16,17,17,18,18,19,19,20,20,21,21,22,22,23,23,24,24,25,25,26,26,27,27,28,28,29,29,30,30,31,31,32,32,33,33,34,34,35,35,36,36,37,37,38,38,39,39,40,40,41,41,42,42,43,43,44,44,45,45,46,46,47,47,48,48,49,49,50,50,51,51,52,52,53,53,54,54,55,55,56,56,57,57,58,58,59,59,61,61,62,62],"right_children":[2,4,6,8,10,12,14,16,18,20,22,24,26,28,30,32,34,36,38,40,42,44,46,48,50,52,54,56,58,60,62,64,66,68,70,72,74,76,78,80,82,84,86,88,90,92,94,96,98,100,102,104,106,108,110,112,114,116,118,120,-1,122,124,-1,-1,-1,-1,-1,-1,-1,-1,-1,-1,-1,-1,-1,-1,-1,-1,-1,-1,-1,-1,-1,-1,-1,-1,-1,-1,-1,-1,-1,-1,-1,-1,-1,-1,-1,-1,-1,-1,-1,-1,-1,-1,-1,-1,-1,-1,-1,-1,-1,-1,-1,-1,-1,-1,-1,-1,-1,-1,-1,-1,-1,-1],"split_conditions":[4.947704E-2,-8.8457894E-1,5.693548E-1,4.435271E-1,-1.0701057E0,-2.7970952E-1,-8.22064E-1,-1.2123623E0,-8.178682E-1,5.1577014E-1,-6.221678E-1,-3.150016E-1,-8.066769E-1,-7.623094E-1,-5.07431E-2,-1.4375159E0,2.139439E-1,-3.874211E-1,-8.905944E-2,6.291577E-1,-3.7572652E-1,-8.478722E-1,4.6081123E-1,5.327644E-1,3.1396317E-1,-9.178961E-1,1.335889E0,3.9674032E-1,4.6383266E0,2.6649547E0,-1.1734788E0,-3.6924277E-2,-6.3403714E-1,-6.67763E-1,-8.304614E-1,1.2685491E0,-9.433929E-1,-1.3688889E-2,2.8615612E-1,2.7128345E-1,-8.2148916E-1,8.594167E-1,4.3338323E-1,-1.2663678E0,-1.3729178E0,-1.5388332E-1,2.588582E-1,-6.1219156E-1,-2.6432505E-1,-2.4671616E-1,-5.733491E-1,-2.3511756E-2,-1.179462E0,2.772605E0,-1.7211532E-2,-2.508966E-1,-8.604918E-1,-2.597385E-1,9.0238994E-1,-2.1179147E0,-2.6691887E-3,-2.998209E-2,-2.4864283E0,1.3346762E-2,-5.3785298E-2,2.6799396E-2,-1.1397578E-2,1.6882397E-2,-5.1150948E-2,1.2227268E-2,-1.19156525E-1,2.5881175E-2,-1.6236199E-2,-4.867852E-2,7.848387E-3,-1.760785E-2,-8.404691E-2,-2.202266E-2,2.1845987E-2,-5.0255876E-2,-1.4117554E-1,-5.607455E-3,2.4217797E-2,-5.918876E-2,1.1492666E-2,-1.0714467E-2,2.61985E-2,1.9733632E-2,-3.5773966E-2,-1.7793546E-3,2.1199292E-2,1.45175075E-2,-1.3221908E-2,-3.8768563E-2,-8.844019E-3,-1.0987385E-2,3.0483013E-2,-5.1480874E-2,1.739037E-2,5.7385294E-3,-8.549787E-2,2.3208056E-2,-1.9048251E-2,1.4966276E-2,-5.1494565E-2,-1.9846741E-2,2.5714014E-2,2.8957509E-2,-8.005119E-3,-2.3210041E-2,2.1944596E-2,1.4747664E-2,-7.207106E-2,-5.7123355E-3,2.4243155E-2,3.0558184E-2,7.860181E-3,-3.8198277E-2,1.1734868E-2,1.6499159E-3,3.2753915E-2,-4.4618856E-2,2.020516E-2,-1.0394583E-2,2.8301734E-2],"split_indices":[225,33,225,177,47,4,492,491,295,184,274,491,47,4,73,48,3,367,440,426,426,68,228,73,426,188,495,426,507,500,41,280,498,221,214,423,447,423,100,423,327,401,135,491,225,3,58,303,20,421,214,80,327,339,398,403,299,228,136,282,0,292,422,0,0,0,0,0,0,0,0,0,0,0,0,0,0,0,0,0,0,0,0,0,0,0,0,0,0,0,0,0,0,0,0,0,0,0,0,0,0,0,0,0,0,0,0,0,0,0,0,0,0,0,0,0,0,0,0,0,0,0,0,0,0],"split_type":[0,0,0,0,0,0,0,0,0,0,0,0,0,0,0,0,0,0,0,0,0,0,0,0,0,0,0,0,0,0,0,0,0,0,0,0,0,0,0,0,0,0,0,0,0,0,0,0,0,0,0,0,0,0,0,0,0,0,0,0,0,0,0,0,0,0,0,0,0,0,0,0,0,0,0,0,0,0,0,0,0,0,0,0,0,0,0,0,0,0,0,0,0,0,0,0,0,0,0,0,0,0,0,0,0,0,0,0,0,0,0,0,0,0,0,0,0,0,0,0,0,0,0,0,0],"sum_hessian":[4.109033E3,2.394512E3,1.7145216E3,4.164063E2,1.9781056E3,6.821092E2,1.0324124E3,2.0914803E2,2.0725829E2,1.3630614E2,1.8417994E3,3.470367E2,3.3507248E2,1.3141226E2,9.010001E2,1.9585098E1,1.8956293E2,7.003126E1,1.3722704E2,8.713737E1,4.9168774E1,5.598844E2,1.281915E3,1.6366393E2,1.833728E2,4.4275726E1,2.9079675E2,2.071885E1,1.10693405E2,6.4786E2,2.5314017E2,5.534811E0,1.4050288E1,4.64485E1,1.4311443E2,6.741867E1,2.6125848E0,1.0386709E2,3.3359947E1,7.7354294E1,9.783079E0,1.9297329E1,2.9871445E1,5.0211494E1,5.096729E2,6.213543E2,6.6056067E2,1.5308603E2,1.0577894E1,1.0262845E2,8.074435E1,8.405413E0,3.5870316E1,2.6830045E2,2.2496305E1,1.0426231E1,1.0292618E1,1.07716E2,2.9774017E0,6.464511E2,1.408873E0,8.874485E0,2.4426567E2,2.2613792E0,3.2734318E0,1.2981795E1,1.068493E0,1.0350637E1,3.6097866E1,6.0932803E0,1.3702115E2,6.1983677E1,5.4349947E0,1.5097383E0,1.1028466E0,5.074129E1,5.3125793E1,7.7481837E0,2.5611761E1,4.3019825E1,3.4334465E1,1.0169084E0,8.7661705E0,9.457607E0,9.839722E0,3.1976655E0,2.6673779E1,1.7891754E1,3.231974E1,1.0632226E2,4.0335065E2,3.5719797E2,2.6415634E2,3.6710007E2,2.934606E2,8.532102E0,1.4455392E2,4.92741E0,5.650484E0,2.7214592E1,7.541386E1,5.855124E1,2.2193106E1,4.5473967E0,3.8580158E0,2.060578E0,3.380974E1,2.6680756E2,1.4928846E0,5.483007E0,1.7013298E1,2.8367136E0,7.589518E0,1.0141262E0,9.278492E0,9.011863E1,1.7597376E1,1.0171636E0,1.960238E0,1.151041E0,6.4530005E2,3.380051E0,5.4944344E0,2.5914607E0,2.4167421E2],"tree_param":{"num_deleted":"0","num_feature":"630","num_nodes":"125","size_leaf_vector":"1"}},{"base_weights":[1.3286861E-3,-4.2457277E-1,7.891141E-1,-1.3316933E0,-1.1744749E-1,5.139688E-1,9.932124E-1,-2.176061E0,-3.5369068E-1,4.118886E-1,-3.72786E-1,9.5064676E-1,1.9654268E-1,9.9981356E-1,-1.0053233E-3,1.5463294E-1,-2.4896107E0,5.769913E-1,-8.898063E-1,-1.04059E-1,6.147675E-1,-2.0828064E-1,-1.6303477E0,-2.2663933E-1,9.785798E-1,-6.056619E-1,7.773047E-1,1.041514E0,7.905971E-1,1.7191755E-2,-2.4380146E-2,7.3612326E-1,-6.840973E-1,-1.5103469E0,-3.3459427E0,-9.2958087E-1,7.614279E-1,-4.2356947E-1,-2.6617396E0,6.652611E-2,-2.3483307E0,-6.427945E-1,6.802967E-1,2.6700407E-1,-6.1751306E-1,-5.182782E-2,-2.4215472E0,1.6165854E-2,-3.1244993E-2,-2.217466E-2,1.0074129E0,3.687456E-1,-1.3555214E0,1.83391E-1,9.3484044E-1,1.0458174E0,-7.0719615E-2,1.0162412E0,2.7631015E-1,2.6449692E-2,-1.2481512E-2,2.0455973E-2,-4.0016457E-2,2.905556E-3,-5.9937004E-2,-1.0975408E-2,-1.1104461E-1,1.3361575E-2,-5.697365E-2,2.669037E-2,-1.5546444E-2,2.2720648E-2,-2.2818273E-2,-9.4298154E-2,8.499539E-3,-2.1190915E-2,9.293452E-3,-8.915927E-2,6.8394938E-3,-5.1766347E-2,1.873109E-2,2.2738628E-2,-1.9966438E-2,-4.6625175E-3,2.1418856E-2,1.27717285E-5,-2.8603438E-2,-4.3360196E-2,1.2272092E-2,-9.13352E-2,8.83497E-3,-4.3216527E-2,2.0791892E-2,-5.07674E-3,3.128481E-2,2.0703804E-2,-3.1268798E-2,1.8808255E-2,-5.6406774E-2,2.4366029E-2,-1.9034058E-2,-1.6217181E-2,3.0374408E-2,3.253386E-2,1.1274473E-2,8.907488E-3,-1.2382197E-2,3.246966E-2,-3.4991724E-3,-2.3344032E-2,2.5056189E-2],"categories":[],"categories_nodes":[],"categories_segments":[],"categories_sizes":[],"default_left":[0,0,0,0,0,0,0,0,0,0,0,0,0,0,0,0,0,0,0,0,0,0,0,0,0,0,0,0,0,0,0,0,0,0,0,0,0,0,0,0,0,0,0,0,0,0,0,0,0,0,0,0,0,0,0,0,0,0,0,0,0,0,0,0,0,0,0,0,0,0,0,0,0,0,0,0,0,0,0,0,0,0,0,0,0,0,0,0,0,0,0,0,0,0,0,0,0,0,0,0,0,0,0,0,0,0,0,0,0,0,0],"id":6,"left_children":[1,3,5,7,9,11,13,15,17,19,21,23,25,27,29,31,33,35,37,39,41,43,45,47,49,51,53,55,57,-1,-1,59,61,63,65,67,69,71,73,75,77,79,81,83,85,87,89,-1,-1,91,93,95,97,99,101,103,105,107,109,-1,-1,-1,-1,-1,-1,-1,-1,-1,-1,-1,-1,-1,-1,-1,-1,-1,-1,-1,-1,-1,-1,-1,-1,-1,-1,-1,-1,-1,-1,-1,-1,-1,-1,-1,-1,-1,-1,-1,-1,-1,-1,-1,-1,-1,-1,-1,-1,-1,-1,-1,-1],"loss_changes":[1.3751112E3,7.4055554E2,7.886316E1,5.5248206E2,2.697336E2,8.5268326E1,5.4021606E0,2.6466174E2,1.5958978E2,6.825653E1,2.7705502E2,9.37999E0,1.712488E2,4.056946E0,5.6651125E0,2.4401455E1,2.4763757E2,3.5345284E1,1.6266661E2,7.201412E1,4.0101517E1,2.328483E2,1.9321155E2,7.318299E0,7.4394226E0,1.15014496E2,1.9255585E1,3.4815674E0,1.6484024E1,0E0,0E0,5.3427286E0,2.0452435E1,1.0872366E2,1.2316394E2,2.1159714E1,1.5783894E1,6.2455368E1,5.1508698E1,3.2134186E1,2.099028E1,3.624827E1,3.5807785E1,9.9747665E1,1.2335367E2,3.5973392E1,1.5468524E2,0E0,0E0,1.3860042E1,2.8569183E0,3.1979782E1,8.656261E1,2.574527E1,1.4314377E1,3.0064697E0,1.1516922E0,4.815956E0,3.0677977E1,0E0,0E0,0E0,0E0,0E0,0E0,0E0,0E0,0E0,0E0,0E0,0E0,0E0,0E0,0E0,0E0,0E0,0E0,0E0,0E0,0E0,0E0,0E0,0E0,0E0,0E0,0E0,0E0,0E0,0E0,0E0,0E0,0E0,0E0,0E0,0E0,0E0,0E0,0E0,0E0,0E0,0E0,0E0,0E0,0E0,0E0,0E0,0E0,0E0,0E0,0E0,0E0],"parents":[2147483647,0,0,1,1,2,2,3,3,4,4,5,5,6,6,7,7,8,8,9,9,10,10,11,11,12,12,13,13,14,14,15,15,16,16,17,17,18,18,19,19,20,20,21,21,22,22,23,23,24,24,25,25,26,26,27,27,28,28,31,31,32,32,33,33,34,34,35,35,36,36,37,37,38,38,39,39,40,40,41,41,42,42,43,43,44,44,45,45,46,46,49,49,50,50,51,51,52,52,53,53,54,54,55,55,56,56,57,57,58,58],"right_children":[2,4,6,8,10,12,14,16,18,20,22,24,26,28,30,32,34,36,38,40,42,44,46,48,50,52,54,56,58,-1,-1,60,62,64,66,68,70,72,74,76,78,80,82,84,86,88,90,-1,-1,92,94,96,98,100,102,104,106,108,110,-1,-1,-1,-1,-1,-1,-1,-1,-1,-1,-1,-1,-1,-1,-1,-1,-1,-1,-1,-1,-1,-1,-1,-1,-1,-1,-1,-1,-1,-1,-1,-1,-1,-1,-1,-1,-1,-1,-1,-1,-1,-1,-1,-1,-1,-1,-1,-1,-1,-1,-1,-1],"split_conditions":[2.2017391E-1,-6.1835194E-1,7.4828506E-1,4.9316055E-1,-3.417175E-1,-3.744397E-1,3.943784E0,-5.733491E-1,-7.056718E-1,-1.0705223E0,8.653747E-1,-1.3519056E0,-2.7970952E-1,-9.146665E-2,1.4171249E0,-8.304614E-1,3.5362816E-1,3.29442E-1,1.0232915E0,9.501359E-1,-1.587663E0,3.544229E-1,-7.2265834E-1,2.4759945E-1,-2.1820552E0,-4.8343304E-1,1.085764E-1,2.0075412E0,-2.6181057E-1,1.7191755E-2,-2.4380146E-2,1.3317347E0,2.4900723E-1,-8.2579964E-1,-2.7750883E-1,7.413296E-1,1.9314632E0,-4.8343304E-1,3.1309178E-1,1.792022E-1,1.2455448E0,-6.512729E-1,1.7587844E0,5.1874113E-1,-5.023003E-1,-1.3742155E-1,5.925073E-1,1.6165854E-2,-3.1244993E-2,3.30843E-1,-1.2508519E0,1.8265319E0,-4.3258488E-1,-5.127711E-1,-1.1371464E0,3.5997527E0,-7.542946E-1,5.1897246E-1,6.8112755E-1,2.6449692E-2,-1.2481512E-2,2.0455973E-2,-4.0016457E-2,2.905556E-3,-5.9937004E-2,-1.0975408E-2,-1.1104461E-1,1.3361575E-2,-5.697365E-2,2.669037E-2,-1.5546444E-2,2.2720648E-2,-2.2818273E-2,-9.4298154E-2,8.499539E-3,-2.1190915E-2,9.293452E-3,-8.915927E-2,6.8394938E-3,-5.1766347E-2,1.873109E-2,2.2738628E-2,-1.9966438E-2,-4.6625175E-3,2.1418856E-2,1.27717285E-5,-2.8603438E-2,-4.3360196E-2,1.2272092E-2,-9.13352E-2,8.83497E-3,-4.3216527E-2,2.0791892E-2,-5.07674E-3,3.128481E-2,2.0703804E-2,-3.1268798E-2,1.8808255E-2,-5.6406774E-2,2.4366029E-2,-1.9034058E-2,-1.6217181E-2,3.0374408E-2,3.253386E-2,1.1274473E-2,8.907488E-3,-1.2382197E-2,3.246966E-2,-3.4991724E-3,-2.3344032E-2,2.5056189E-2],"split_indices":[225,33,225,184,281,498,295,214,505,435,3,492,4,18,346,214,423,310,3,542,96,228,267,173,5,214,4,213,491,0,0,19,423,491,165,18,3,214,223,25,268,41,101,4,57,73,426,0,0,527,216,101,421,214,393,304,436,484,440,0,0,0,0,0,0,0,0,0,0,0,0,0,0,0,0,0,0,0,0,0,0,0,0,0,0,0,0,0,0,0,0,0,0,0,0,0,0,0,0,0,0,0,0,0,0,0,0,0,0,0,0],"split_type":[0,0,0,0,0,0,0,0,0,0,0,0,0,0,0,0,0,0,0,0,0,0,0,0,0,0,0,0,0,0,0,0,0,0,0,0,0,0,0,0,0,0,0,0,0,0,0,0,0,0,0,0,0,0,0,0,0,0,0,0,0,0,0,0,0,0,0,0,0,0,0,0,0,0,0,0,0,0,0,0,0,0,0,0,0,0,0,0,0,0,0,0,0,0,0,0,0,0,0,0,0,0,0,0,0,0,0,0,0,0,0],"sum_hessian":[4.09104E3,2.6565366E3,1.4345034E3,6.687962E2,1.9877405E3,6.164906E2,8.180128E2,3.5647766E2,3.1231854E2,6.460772E2,1.3416633E3,2.5637784E2,3.6011276E2,8.126021E2,5.4106526E0,4.2491344E1,3.1398633E2,1.1404551E2,1.9827303E2,1.8284874E2,4.6322845E2,1.190287E3,1.5137625E2,5.3257804E0,2.5105206E2,1.5115471E2,2.0895804E2,6.652262E2,1.4737596E2,3.8037221E0,1.6069306E0,2.536574E1,1.7125605E1,1.5126541E2,1.6272092E2,1.0800809E1,1.03244705E2,1.6061206E2,3.7660965E1,1.7327565E2,9.573091E0,2.1319702E1,4.4190875E2,5.5129083E2,6.389962E2,5.1863457E1,9.9512794E1,3.3549826E0,1.9707977E0,7.049217E0,2.4400285E2,6.655185E1,8.460286E1,4.5496964E1,1.6346107E2,6.628879E2,2.33832E0,9.990908E1,4.7466877E1,2.3749285E1,1.6164548E0,5.2655115E0,1.1860092E1,3.2844112E1,1.18421295E2,1.3588313E1,1.491326E2,5.1363716E0,5.6644373E0,9.645129E1,6.793416E0,3.3377926E1,1.2723413E2,3.3033394E1,4.6275725E0,3.9467705E1,1.3380794E2,7.5166965E0,2.0563943E0,1.0962168E1,1.0357534E1,4.2515405E2,1.6754711E1,2.8000668E2,2.7128415E2,2.1497551E2,4.240207E2,1.0966255E1,4.08972E1,8.26282E1,1.6884598E1,1.1076195E0,5.9415975E0,1.0912721E0,2.4291158E2,5.6161373E1,1.039048E1,1.6248095E1,6.835477E1,2.5910044E1,1.9586918E1,4.3136344E0,1.5914745E2,6.5143207E2,1.1455805E1,1.3383036E0,1.0000165E0,9.696274E1,2.9463475E0,1.5696497E1,3.177038E1],"tree_param":{"num_deleted":"0","num_feature":"630","num_nodes":"111","size_leaf_vector":"1"}},{"base_weights":[-6.857492E-3,-4.606955E-1,7.011027E-1,-1.0830399E0,-6.2730424E-2,3.2817E-1,9.3494046E-1,-5.79475E-1,-2.3525355E0,3.2655203E-1,-3.7762266E-1,9.384456E-1,1.1827409E-2,5.6550723E-1,9.875556E-1,4.1788563E-1,-9.602598E-1,-2.6087608E0,2.622185E-1,-1.3990425E0,4.2002028E-1,5.206242E-2,-1.0057067E0,9.7217023E-1,-1.4402759E-1,-7.350681E-1,7.5088257E-1,8.314183E-1,-4.942494E-1,-2.5514436E-1,9.930014E-1,8.348428E-1,-8.55447E-2,-3.7576035E-1,-2.1262162E0,-6.398001E-1,-2.9164321E0,-6.712122E-1,8.0222493E-1,-2.919264E0,-2.0829765E-1,-2.628093E-2,6.171772E-1,3.9608723E-1,-6.5645313E-1,-1.7139641E0,-6.255459E-1,-1.5334336E-2,1.0113773E0,4.856788E-1,-3.2807704E-2,5.0548136E-1,-1.3475897E0,2.0562364E-1,8.914708E-1,-1.0919239E-1,8.945404E-1,6.400567E-1,-1.7054737E0,-2.531735E-2,1.172895E-2,1.0397445E0,8.109107E-1,-2.0013662E-2,2.8300798E-2,8.176457E-3,-5.080459E-2,1.49461115E-2,-2.2309754E-2,-1.46983955E-2,-8.309873E-2,1.0519095E-2,-3.755862E-2,-5.339305E-2,-1.0439535E-1,1.3194586E-2,-4.1211225E-2,-4.472523E-3,2.7473517E-2,-4.431344E-3,-1.2119876E-1,-2.9600672E-2,1.6980227E-2,6.9298884E-3,-6.2426943E-2,-2.6439367E-2,2.052149E-2,2.0200485E-2,-1.8904029E-3,-4.170585E-2,1.44162895E-2,-8.250966E-2,-3.0381976E-2,-3.999461E-3,-3.0882426E-2,1.54750645E-2,-3.1016782E-2,-5.611597E-3,3.146619E-2,6.306416E-4,1.6611436E-2,-1.9629145E-2,2.4111507E-2,-6.13148E-2,-1.1116893E-3,2.4209967E-2,-1.1899746E-2,-7.3812855E-3,2.8460704E-2,1.8473195E-2,-3.390674E-2,3.0651277E-2,1.175875E-2,-9.990934E-3,2.5798846E-2,-7.548363E-2,1.1947946E-2,6.1193677E-3,3.221767E-2,-3.1224766E-3,2.9064724E-2],"categories":[],"categories_nodes":[],"categories_segments":[],"categories_sizes":[],"default_left":[0,0,0,0,0,0,0,0,0,0,0,0,0,0,0,0,0,0,0,0,0,0,0,0,0,0,0,0,0,0,0,0,0,0,0,0,0,0,0,0,0,0,0,0,0,0,0,0,0,0,0,0,0,0,0,0,0,0,0,0,0,0,0,0,0,0,0,0,0,0,0,0,0,0,0,0,0,0,0,0,0,0,0,0,0,0,0,0,0,0,0,0,0,0,0,0,0,0,0,0,0,0,0,0,0,0,0,0,0,0,0,0,0,0,0,0,0,0,0,0,0],"id":7,"left_children":[1,3,5,7,9,11,13,15,17,19,21,23,25,27,29,31,33,35,37,39,41,43,45,47,49,51,53,55,57,59,61,63,65,67,69,71,73,75,77,79,81,83,85,87,89,91,93,95,97,99,-1,101,103,105,107,109,111,113,115,-1,-1,117,119,-1,-1,-1,-1,-1,-1,-1,-1,-1,-1,-1,-1,-1,-1,-1,-1,-1,-1,-1,-1,-1,-1,-1,-1,-1,-1,-1,-1,-1,-1,-1,-1,-1,-1,-1,-1,-1,-1,-1,-1,-1,-1,-1,-1,-1,-1,-1,-1,-1,-1,-1,-1,-1,-1,-1,-1,-1,-1],"loss_changes":[1.319615E3,6.1959186E2,1.3876703E2,6.188147E2,1.8806824E2,1.2042602E2,1.7047852E1,2.6873712E2,1.8743347E2,1.1288039E2,2.2900629E2,8.299271E0,2.3098915E2,3.854784E1,6.739746E0,4.1623398E1,3.4484955E2,1.4551819E2,1.6110712E1,6.311445E1,5.760739E1,1.24527985E2,8.8789734E1,8.078842E0,7.5213065E0,1.606991E2,1.5435509E1,6.684616E0,4.3451477E1,3.5685184E0,4.1258545E0,1.56017685E1,5.241194E1,1.0451982E2,1.5470142E2,2.3564705E1,9.896875E1,1.1117188E1,2.1261435E0,4.1692627E1,1.5815737E1,1.04090454E2,3.470343E1,4.0911938E1,1.3323608E2,7.310574E1,4.2457016E1,7.8033595E0,2.9782867E0,1.6138124E-1,0E0,2.4463507E1,1.1788881E2,1.757851E1,6.8339233E0,9.466068E0,3.7214127E0,4.3349185E0,2.6701519E1,0E0,0E0,2.3735352E0,2.3410141E1,0E0,0E0,0E0,0E0,0E0,0E0,0E0,0E0,0E0,0E0,0E0,0E0,0E0,0E0,0E0,0E0,0E0,0E0,0E0,0E0,0E0,0E0,0E0,0E0,0E0,0E0,0E0,0E0,0E0,0E0,0E0,0E0,0E0,0E0,0E0,0E0,0E0,0E0,0E0,0E0,0E0,0E0,0E0,0E0,0E0,0E0,0E0,0E0,0E0,0E0,0E0,0E0,0E0,0E0,0E0,0E0,0E0,0E0],"parents":[2147483647,0,0,1,1,2,2,3,3,4,4,5,5,6,6,7,7,8,8,9,9,10,10,11,11,12,12,13,13,14,14,15,15,16,16,17,17,18,18,19,19,20,20,21,21,22,22,23,23,24,24,25,25,26,26,27,27,28,28,29,29,30,30,31,31,32,32,33,33,34,34,35,35,36,36,37,37,38,38,39,39,40,40,41,41,42,42,43,43,44,44,45,45,46,46,47,47,48,48,49,49,51,51,52,52,53,53,54,54,55,55,56,56,57,57,58,58,61,61,62,62],"right_children":[2,4,6,8,10,12,14,16,18,20,22,24,26,28,30,32,34,36,38,40,42,44,46,48,50,52,54,56,58,60,62,64,66,68,70,72,74,76,78,80,82,84,86,88,90,92,94,96,98,100,-1,102,104,106,108,110,112,114,116,-1,-1,118,120,-1,-1,-1,-1,-1,-1,-1,-1,-1,-1,-1,-1,-1,-1,-1,-1,-1,-1,-1,-1,-1,-1,-1,-1,-1,-1,-1,-1,-1,-1,-1,-1,-1,-1,-1,-1,-1,-1,-1,-1,-1,-1,-1,-1,-1,-1,-1,-1,-1,-1,-1,-1,-1,-1,-1,-1,-1,-1],"split_conditions":[8.197356E-2,-2.2359581E-1,5.693548E-1,-1.08888224E-1,-1.3224643E-1,-5.4824E-1,-8.22064E-1,-7.23312E-1,4.9771073E-1,-1.7770371E0,5.837522E-1,1.5667846E0,-1.598325E-1,5.251487E-1,-2.749565E0,-7.500352E-1,8.0310035E-1,-7.8927535E-1,7.347867E-1,-1.7982884E-1,-2.4917454E-1,-4.9864832E-2,-1.2890667E-1,-1.0418981E0,7.8689724E-1,-5.733491E-1,-5.242127E-2,-2.349628E0,-5.5076385E-1,-6.919568E-1,4.2931625E-1,2.9046988E-1,1.203944E0,-4.3213546E-1,-8.7293637E-1,-2.1275678E-1,-3.343468E-1,3.0178985E-1,-9.202325E-1,-6.6090244E-1,-5.018974E-2,7.470106E-1,-1.2184529E0,2.6919806E-1,2.9857358E-1,1.3457634E-1,-1.8415861E-1,5.988604E-1,-1.2508519E0,-1.0819112E0,-3.2807704E-2,-9.255663E-1,1.1334658E-1,3.422977E-1,-4.1878197E-1,-6.533925E-1,-3.3407304E-1,5.222312E-1,3.088088E-1,-2.531735E-2,1.172895E-2,-2.1820552E0,3.9886212E-1,-2.0013662E-2,2.8300798E-2,8.176457E-3,-5.080459E-2,1.49461115E-2,-2.2309754E-2,-1.46983955E-2,-8.309873E-2,1.0519095E-2,-3.755862E-2,-5.339305E-2,-1.0439535E-1,1.3194586E-2,-4.1211225E-2,-4.472523E-3,2.7473517E-2,-4.431344E-3,-1.2119876E-1,-2.9600672E-2,1.6980227E-2,6.9298884E-3,-6.2426943E-2,-2.6439367E-2,2.052149E-2,2.0200485E-2,-1.8904029E-3,-4.170585E-2,1.44162895E-2,-8.250966E-2,-3.0381976E-2,-3.999461E-3,-3.0882426E-2,1.54750645E-2,-3.1016782E-2,-5.611597E-3,3.146619E-2,6.306416E-4,1.6611436E-2,-1.9629145E-2,2.4111507E-2,-6.13148E-2,-1.1116893E-3,2.4209967E-2,-1.1899746E-2,-7.3812855E-3,2.8460704E-2,1.8473195E-2,-3.390674E-2,3.0651277E-2,1.175875E-2,-9.990934E-3,2.5798846E-2,-7.548363E-2,1.1947946E-2,6.1193677E-3,3.221767E-2,-3.1224766E-3,2.9064724E-2],"split_indices":[225,33,225,311,64,498,492,304,426,26,228,469,4,6,422,505,3,269,5,156,40,3,135,492,546,214,398,72,431,604,484,310,3,23,295,231,423,479,530,38,52,187,47,228,426,40,283,533,216,387,0,520,33,498,391,256,228,440,485,0,0,5,230,0,0,0,0,0,0,0,0,0,0,0,0,0,0,0,0,0,0,0,0,0,0,0,0,0,0,0,0,0,0,0,0,0,0,0,0,0,0,0,0,0,0,0,0,0,0,0,0,0,0,0,0,0,0,0,0,0,0],"split_type":[0,0,0,0,0,0,0,0,0,0,0,0,0,0,0,0,0,0,0,0,0,0,0,0,0,0,0,0,0,0,0,0,0,0,0,0,0,0,0,0,0,0,0,0,0,0,0,0,0,0,0,0,0,0,0,0,0,0,0,0,0,0,0,0,0,0,0,0,0,0,0,0,0,0,0,0,0,0,0,0,0,0,0,0,0,0,0,0,0,0,0,0,0,0,0,0,0,0,0,0,0,0,0,0,0,0,0,0,0,0,0,0,0,0,0,0,0,0,0,0,0],"sum_hessian":[4.099686E3,2.4990032E3,1.600683E3,9.722237E2,1.5267795E3,6.2031793E2,9.80365E2,6.999754E2,2.7224832E2,6.8267474E2,8.441048E2,2.0927664E2,4.110413E2,1.2766477E2,8.5270026E2,1.9330096E2,5.066744E2,2.4796071E2,2.4287605E1,3.241196E1,6.5026276E2,5.0322906E2,3.4087573E2,2.0332515E2,5.9514985E0,2.044425E2,2.065988E2,1.0270011E2,2.4964666E1,2.9738111E0,8.4972644E2,1.0440123E2,8.8899734E1,3.4076E2,1.6591441E2,3.505655E1,2.1290416E2,8.567175E0,1.572043E1,1.1868935E1,2.0543024E1,2.0021848E2,4.5004428E2,3.3985413E2,1.6337494E2,1.14509125E2,2.2636661E2,7.8452663E0,1.9547989E2,4.570937E0,1.3805614E0,6.7788574E1,1.3665393E2,4.423036E1,1.6236844E2,6.282771E0,9.6417336E1,1.3792724E1,1.1171944E1,1.0040121E0,1.969799E0,6.622273E2,1.8749915E2,4.2136445E0,1.00187584E2,7.511446E1,1.3785272E1,9.770836E1,2.4305164E2,4.437094E1,1.2154347E2,1.356994E1,2.148661E1,6.552391E1,1.4738023E2,3.7287233E0,4.8384514E0,1.1475334E0,1.4572897E1,4.3086915E0,7.560243E0,9.82955E0,1.0713475E1,1.807979E2,1.9420574E1,1.2405486E1,4.376388E2,2.1586519E2,1.2398895E2,1.0039833E2,6.2976604E1,4.5018974E1,6.949015E1,9.986577E1,1.2650085E2,6.3529797E0,1.4922864E0,1.0246854E0,1.944552E2,1.0084356E0,3.5625014E0,1.2279064E1,5.550951E1,9.045884E1,4.6195087E1,2.1729273E1,2.2501085E1,3.8003337E0,1.585681E2,4.5148406E0,1.7679309E0,7.7765015E1,1.865232E1,1.9293842E0,1.1863339E1,7.7793036E0,3.3926396E0,5.2990813E0,6.569282E2,2.3830061E1,1.6366908E2],"tree_param":{"num_deleted":"0","num_feature":"630","num_nodes":"121","size_leaf_vector":"1"}},{"base_weights":[-8.240582E-3,-4.1417283E-1,7.578144E-1,-1.1559075E0,-1.026676E-1,4.7525996E-1,9.85292E-1,-2.0752754E0,-4.6792167E-1,4.0710887E-1,-3.372829E-1,6.0931945E-1,-6.3581127E-1,1.050746E0,8.027021E-1,-2.389086E0,-1.0215835E-1,5.444372E-1,-9.531946E-1,-4.7823124E-2,6.4031154E-1,-6.798603E-1,2.5509727E-1,9.1240174E-1,2.7008948E-1,-1.8906689E0,7.8368026E-1,7.680395E-2,1.0541353E0,-7.0012915E-1,9.212135E-1,-3.0499077E-1,-2.6361682E0,5.8568054E-1,-8.413652E-1,-7.593836E-1,7.9673606E-1,-4.4122797E-1,-2.3906286E0,2.3014279E-1,-6.873162E-1,-1.8947563E-1,7.242331E-1,3.314199E-2,-9.335354E-1,-5.4165024E-2,8.274848E-1,1.0291785E0,5.673261E-1,-3.9053124E-1,7.9065645E-1,-3.0824919E0,-9.587167E-3,8.8499796E-1,-1.1635713E-2,8.474817E-3,-5.89545E-3,1.0558298E0,3.6461786E-3,6.3190997E-1,-1.7748096E0,1.0026721E0,2.2166632E-1,2.013416E-2,-3.494723E-2,-9.434906E-2,-4.5094177E-2,-1.4149467E-2,2.4493678E-2,-4.272945E-2,2.0841789E-2,1.1338422E-2,-5.7601348E-2,2.7811937E-2,-1.0379682E-2,1.9597212E-2,-2.3121739E-2,9.158378E-3,-8.2271054E-2,2.8156785E-2,1.2179292E-4,-5.6971867E-2,-1.1919925E-3,1.6187131E-2,-5.1498745E-2,-9.846604E-3,2.3425793E-2,1.2392754E-2,-1.1638639E-2,-1.9348739E-2,-5.5915687E-2,9.334131E-3,-3.726946E-2,2.6936958E-2,-1.2508851E-2,3.198839E-2,-4.319944E-3,-8.766982E-3,2.463935E-2,2.0251725E-2,-3.055477E-2,-9.6772965E-3,2.6343662E-2,-1.0842147E-1,1.1031772E-3,-2.9421708E-2,1.824942E-2,-7.1153287E-3,2.9799612E-2,3.259225E-2,4.2371377E-3,2.1145131E-2,5.960169E-4,3.7231056E-3,-8.361991E-2,-9.118656E-3,3.1381324E-2,2.0367142E-2,-2.7116612E-2],"categories":[],"categories_nodes":[],"categories_segments":[],"categories_sizes":[],"default_left":[0,0,0,0,0,0,0,0,0,0,0,0,0,0,0,0,0,0,0,0,0,0,0,0,0,0,0,0,0,0,0,0,0,0,0,0,0,0,0,0,0,0,0,0,0,0,0,0,0,0,0,0,0,0,0,0,0,0,0,0,0,0,0,0,0,0,0,0,0,0,0,0,0,0,0,0,0,0,0,0,0,0,0,0,0,0,0,0,0,0,0,0,0,0,0,0,0,0,0,0,0,0,0,0,0,0,0,0,0,0,0,0,0,0,0,0,0,0,0],"id":8,"left_children":[1,3,5,7,9,11,13,15,17,19,21,23,25,27,29,31,33,35,37,39,41,43,45,47,49,51,53,55,57,59,61,63,65,67,69,71,73,75,77,79,81,83,85,87,89,91,93,95,97,99,101,103,105,107,-1,-1,-1,109,-1,111,113,115,117,-1,-1,-1,-1,-1,-1,-1,-1,-1,-1,-1,-1,-1,-1,-1,-1,-1,-1,-1,-1,-1,-1,-1,-1,-1,-1,-1,-1,-1,-1,-1,-1,-1,-1,-1,-1,-1,-1,-1,-1,-1,-1,-1,-1,-1,-1,-1,-1,-1,-1,-1,-1,-1,-1,-1,-1],"loss_changes":[1.2736682E3,6.1812054E2,8.943854E1,4.9696973E2,2.2648839E2,9.675107E1,6.212036E0,2.0815833E2,2.2666888E2,6.3472664E1,2.636441E2,5.798268E1,1.3145215E2,1.5549927E0,4.1970703E1,1.469336E2,2.7360205E1,5.1781746E1,2.246398E2,3.717596E1,2.8023376E1,1.4881921E2,8.470478E1,9.954697E0,9.593001E1,8.645511E1,5.4541206E0,5.124149E-1,4.208374E-1,3.043108E1,1.0997223E1,3.05998E1,1.1293628E2,7.51377E0,2.4765749E1,3.5470848E1,1.6462387E1,7.951001E1,6.3454407E1,2.2588839E1,4.740086E1,4.4790062E1,1.4362686E1,3.380463E1,1.5907983E2,1.3065903E2,1.094738E1,2.7991943E0,1.7533278E1,8.04429E1,1.2003723E1,3.257045E1,1.2734248E1,3.9434967E0,0E0,0E0,0E0,3.2476807E-1,0E0,3.0956078E-1,2.1030483E1,4.8567505E0,1.493719E1,0E0,0E0,0E0,0E0,0E0,0E0,0E0,0E0,0E0,0E0,0E0,0E0,0E0,0E0,0E0,0E0,0E0,0E0,0E0,0E0,0E0,0E0,0E0,0E0,0E0,0E0,0E0,0E0,0E0,0E0,0E0,0E0,0E0,0E0,0E0,0E0,0E0,0E0,0E0,0E0,0E0,0E0,0E0,0E0,0E0,0E0,0E0,0E0,0E0,0E0,0E0,0E0,0E0,0E0,0E0,0E0],"parents":[2147483647,0,0,1,1,2,2,3,3,4,4,5,5,6,6,7,7,8,8,9,9,10,10,11,11,12,12,13,13,14,14,15,15,16,16,17,17,18,18,19,19,20,20,21,21,22,22,23,23,24,24,25,25,26,26,27,27,28,28,29,29,30,30,31,31,32,32,33,33,34,34,35,35,36,36,37,37,38,38,39,39,40,40,41,41,42,42,43,43,44,44,45,45,46,46,47,47,48,48,49,49,50,50,51,51,52,52,53,53,57,57,59,59,60,60,61,61,62,62],"right_children":[2,4,6,8,10,12,14,16,18,20,22,24,26,28,30,32,34,36,38,40,42,44,46,48,50,52,54,56,58,60,62,64,66,68,70,72,74,76,78,80,82,84,86,88,90,92,94,96,98,100,102,104,106,108,-1,-1,-1,110,-1,112,114,116,118,-1,-1,-1,-1,-1,-1,-1,-1,-1,-1,-1,-1,-1,-1,-1,-1,-1,-1,-1,-1,-1,-1,-1,-1,-1,-1,-1,-1,-1,-1,-1,-1,-1,-1,-1,-1,-1,-1,-1,-1,-1,-1,-1,-1,-1,-1,-1,-1,-1,-1,-1,-1,-1,-1,-1,-1],"split_conditions":[1.96285E-1,-4.952922E-1,7.4828506E-1,3.6058426E-1,-5.697126E-1,1.9604559E0,2.7079466E-1,2.8214142E-1,-8.037712E-1,-1.0309795E0,7.761163E-2,-1.4426781E-1,-8.763637E-2,-2.4864283E0,-3.8778687E-1,-6.1096704E-1,-7.271659E-1,-1.3826376E0,1.0097489E0,-8.841109E-2,-1.0021713E0,-4.6635187E-1,3.1396317E-1,-4.015543E-2,3.7357876E-1,7.748596E-2,3.757959E-1,8.027369E-2,1.9677569E0,-2.83885E-1,-5.469157E-1,-1.1903996E-1,4.5220652E-1,-7.517352E-1,1.9237284E-1,-4.6728244E-1,-4.3288636E-1,-4.9806842E-1,-1.3198549E0,-7.3202896E-1,7.832448E-1,-7.162309E-2,-1.2184529E0,6.784818E-1,3.099551E-1,-3.686851E-1,1.6001928E0,2.3319993E0,-1.14861615E-1,-2.4665241E-1,-4.7444645E-1,5.295958E-1,5.612418E-1,-2.2071102E0,-1.1635713E-2,8.474817E-3,-5.89545E-3,1.7643949E0,3.6461786E-3,4.8181835E-1,3.774498E-1,-5.900665E-1,4.1055828E-1,2.013416E-2,-3.494723E-2,-9.434906E-2,-4.5094177E-2,-1.4149467E-2,2.4493678E-2,-4.272945E-2,2.0841789E-2,1.1338422E-2,-5.7601348E-2,2.7811937E-2,-1.0379682E-2,1.9597212E-2,-2.3121739E-2,9.158378E-3,-8.2271054E-2,2.8156785E-2,1.2179292E-4,-5.6971867E-2,-1.1919925E-3,1.6187131E-2,-5.1498745E-2,-9.846604E-3,2.3425793E-2,1.2392754E-2,-1.1638639E-2,-1.9348739E-2,-5.5915687E-2,9.334131E-3,-3.726946E-2,2.6936958E-2,-1.2508851E-2,3.198839E-2,-4.319944E-3,-8.766982E-3,2.463935E-2,2.0251725E-2,-3.055477E-2,-9.6772965E-3,2.6343662E-2,-1.0842147E-1,1.1031772E-3,-2.9421708E-2,1.824942E-2,-7.1153287E-3,2.9799612E-2,3.259225E-2,4.2371377E-3,2.1145131E-2,5.960169E-4,3.7231056E-3,-8.361991E-2,-9.118656E-3,3.1381324E-2,2.0367142E-2,-2.7116612E-2],"split_indices":[225,33,225,310,274,101,491,426,295,435,244,73,4,422,391,165,431,48,3,145,96,283,426,505,230,377,597,626,286,214,228,526,422,628,429,80,106,214,337,311,429,211,47,228,61,423,584,311,230,484,20,214,393,44,0,0,0,100,0,369,1,426,3,0,0,0,0,0,0,0,0,0,0,0,0,0,0,0,0,0,0,0,0,0,0,0,0,0,0,0,0,0,0,0,0,0,0,0,0,0,0,0,0,0,0,0,0,0,0,0,0,0,0,0,0,0,0,0,0],"split_type":[0,0,0,0,0,0,0,0,0,0,0,0,0,0,0,0,0,0,0,0,0,0,0,0,0,0,0,0,0,0,0,0,0,0,0,0,0,0,0,0,0,0,0,0,0,0,0,0,0,0,0,0,0,0,0,0,0,0,0,0,0,0,0,0,0,0,0,0,0,0,0,0,0,0,0,0,0,0,0,0,0,0,0,0,0,0,0,0,0,0,0,0,0,0,0,0,0,0,0,0,0,0,0,0,0,0,0,0,0,0,0,0,0,0,0,0,0,0,0],"sum_hessian":[4.0883896E3,2.673444E3,1.4149457E3,7.8771576E2,1.8857283E3,6.361974E2,7.787483E2,3.339558E2,4.5375992E2,5.9347144E2,1.2922568E3,5.6919934E2,6.699807E1,5.602451E2,2.1850319E2,2.8745343E2,4.6502384E1,1.4688017E2,3.0687976E2,2.0211357E2,3.9135788E2,8.1842035E2,4.738365E2,2.972971E2,2.7190225E2,3.490969E1,3.2088383E1,2.2529771E0,5.579921E2,1.4637177E1,2.0386601E2,3.1348234E1,2.561052E2,2.4483398E1,2.2018986E1,2.260171E1,1.2427846E2,2.2986269E2,7.701707E1,1.4252773E2,5.958584E1,3.5510487E1,3.558474E2,2.156102E2,6.028102E2,3.0980002E2,1.6403648E2,2.1662016E2,8.067692E1,1.2023511E2,1.5166714E2,1.9917768E1,1.4991924E1,3.0329357E1,1.7590241E0,1.2524134E0,1.0005637E0,5.565029E2,1.4892312E0,7.21621E0,7.4209676E0,1.8115593E2,2.2710077E1,1.490131E1,1.6446926E1,1.8358379E2,7.252141E1,3.3381329E0,2.1145266E1,1.6438948E1,5.580037E0,1.2439235E1,1.0162476E1,1.1437635E2,9.902109E0,5.0364483E1,1.7949821E2,7.2138467E0,6.9803215E1,3.2630867E1,1.0989686E2,1.8892084E1,4.0693752E1,2.5567348E1,9.943139E0,1.0841769E1,3.450056E2,1.1363464E2,1.01975555E2,4.522041E2,1.5060606E2,2.3874109E2,7.105892E1,1.5911761E2,4.9188704E0,2.154297E2,1.190453E0,1.709454E1,6.3582382E1,4.3695457E1,7.653965E1,7.522413E0,1.4414473E2,1.7061436E1,2.8563325E0,4.989226E0,1.0002699E1,1.6081334E0,2.8721224E1,5.549119E2,1.5909618E0,6.2123795E0,1.0038303E0,3.5255897E0,3.8953776E0,1.3493693E0,1.7980656E2,1.7301102E1,5.408976E0],"tree_param":{"num_deleted":"0","num_feature":"630","num_nodes":"119","size_leaf_vector":"1"}},{"base_weights":[-9.147199E-4,8.421534E-1,-3.4607437E-1,9.9555665E-1,5.78279E-1,6.786125E-1,-6.1614776E-1,1.0046543E0,-2.592699E-2,8.975861E-1,1.702609E-1,-2.2070953E-1,9.118132E-1,-3.1387568E-1,-1.7795552E0,1.0286596E0,3.934403E-1,-4.3732548E-1,9.232123E-1,7.600772E-1,-6.4096266E-1,5.7231736E-1,-1.2802061E0,1.0060071E0,3.640192E-1,-1.9372858E-1,-1.5349333E0,-9.084684E-2,-2.3089056E0,4.6842344E-2,1.0325391E0,-1.2118716E0,8.4814566E-1,-3.754814E-2,1.3331751E-2,9.5260805E-1,-3.2305312E-1,8.898364E-1,-3.0194858E-1,3.196612E-1,-1.5342557E0,-3.8671905E-1,8.5490125E-1,-2.0452237E0,-3.8694486E-1,1.0128926E0,-6.2559033E-3,-4.9707478E-1,8.354021E-1,1.1766051E-1,-5.716977E-1,-2.5232775E0,-6.6860247E-1,3.1657997E-1,-2.0174732E0,-2.4961646E0,1.6066691E-1,1.1704112E-2,-1.2059948E-2,6.817572E-3,3.1940613E-2,-5.8718454E-2,1.2132892E-2,-7.865159E-3,2.908289E-2,3.869529E-4,3.0498309E-2,1.5788058E-2,-3.813042E-2,-1.8623674E-2,2.8531274E-2,1.58572E-2,-3.402772E-2,-1.8996013E-2,2.0542318E-2,-8.07986E-2,4.159508E-3,2.0535473E-2,-5.275253E-2,-1.3701734E-2,2.8734522E-2,-8.102094E-2,5.3164186E-3,-7.0083335E-2,4.922813E-3,3.1428263E-2,-2.0607817E-3,1.9601244E-2,-4.8440594E-2,2.734119E-2,-1.0236087E-2,-3.7502071E-3,1.5880844E-2,4.517585E-3,-2.4688E-2,-9.0873204E-2,-3.6366975E-3,-6.787354E-2,-3.4686276E-3,1.998228E-2,-2.5125718E-2,-7.3201604E-2,-9.5825014E-4,-2.1732484E-3,-8.246733E-2,1.8366499E-2,-2.8948814E-2],"categories":[],"categories_nodes":[],"categories_segments":[],"categories_sizes":[],"default_left":[0,0,0,0,0,0,0,0,0,0,0,0,0,0,0,0,0,0,0,0,0,0,0,0,0,0,0,0,0,0,0,0,0,0,0,0,0,0,0,0,0,0,0,0,0,0,0,0,0,0,0,0,0,0,0,0,0,0,0,0,0,0,0,0,0,0,0,0,0,0,0,0,0,0,0,0,0,0,0,0,0,0,0,0,0,0,0,0,0,0,0,0,0,0,0,0,0,0,0,0,0,0,0,0,0,0,0],"id":9,"left_children":[1,3,5,7,9,11,13,15,-1,17,19,21,23,25,27,29,31,33,35,37,39,41,43,45,47,49,51,53,55,57,59,61,63,-1,-1,65,67,69,71,73,75,77,79,81,83,85,-1,87,89,91,93,95,97,99,101,103,105,-1,-1,-1,-1,-1,-1,-1,-1,-1,-1,-1,-1,-1,-1,-1,-1,-1,-1,-1,-1,-1,-1,-1,-1,-1,-1,-1,-1,-1,-1,-1,-1,-1,-1,-1,-1,-1,-1,-1,-1,-1,-1,-1,-1,-1,-1,-1,-1,-1,-1],"loss_changes":[1.1898198E3,4.593396E1,8.04402E2,1.5601379E1,5.7469437E1,1.2803085E2,8.060109E2,9.40625E0,0E0,1.0020096E1,9.758455E1,1.1022704E2,2.3538544E1,2.6714166E2,4.2212744E2,2.5324097E0,2.872465E1,6.853999E0,1.0140991E1,1.7206665E1,7.58627E1,2.1754751E1,3.5265495E1,4.178009E0,3.2650505E1,1.9668097E2,1.3351273E2,9.404128E1,1.6800256E2,1.5285835E0,1.355957E0,1.28750305E1,3.9302444E0,0E0,0E0,8.318893E0,8.788472E0,7.7521667E0,1.2307845E1,1.6018147E1,8.363993E1,3.1844534E1,7.5449257E0,3.9563126E1,3.2696735E1,3.281433E0,0E0,3.955518E1,4.171768E0,8.761392E1,1.24740524E2,7.533078E1,7.757033E1,3.9360363E1,1.455529E1,1.4522607E2,1.5892558E1,0E0,0E0,0E0,0E0,0E0,0E0,0E0,0E0,0E0,0E0,0E0,0E0,0E0,0E0,0E0,0E0,0E0,0E0,0E0,0E0,0E0,0E0,0E0,0E0,0E0,0E0,0E0,0E0,0E0,0E0,0E0,0E0,0E0,0E0,0E0,0E0,0E0,0E0,0E0,0E0,0E0,0E0,0E0,0E0,0E0,0E0,0E0,0E0,0E0,0E0],"parents":[2147483647,0,0,1,1,2,2,3,3,4,4,5,5,6,6,7,7,9,9,10,10,11,11,12,12,13,13,14,14,15,15,16,16,17,17,18,18,19,19,20,20,21,21,22,22,23,23,24,24,25,25,26,26,27,27,28,28,29,29,30,30,31,31,32,32,35,35,36,36,37,37,38,38,39,39,40,40,41,41,42,42,43,43,44,44,45,45,47,47,48,48,49,49,50,50,51,51,52,52,53,53,54,54,55,55,56,56],"right_children":[2,4,6,8,10,12,14,16,-1,18,20,22,24,26,28,30,32,34,36,38,40,42,44,46,48,50,52,54,56,58,60,62,64,-1,-1,66,68,70,72,74,76,78,80,82,84,86,-1,88,90,92,94,96,98,100,102,104,106,-1,-1,-1,-1,-1,-1,-1,-1,-1,-1,-1,-1,-1,-1,-1,-1,-1,-1,-1,-1,-1,-1,-1,-1,-1,-1,-1,-1,-1,-1,-1,-1,-1,-1,-1,-1,-1,-1,-1,-1,-1,-1,-1,-1,-1,-1,-1,-1,-1,-1],"split_conditions":[-2.8167495E-1,-5.127711E-1,-8.2579964E-1,1.6358705E0,-2.9375413E-1,-1.3719264E0,8.529562E-1,1.8101833E0,-2.592699E-2,-1.985359E0,2.1417177E-1,-1.322528E0,-5.327071E-1,1.6035864E0,-9.351445E-1,-2.9506075E0,4.555153E-1,-1.3995042E0,7.6969737E-1,5.9370774E-1,1.8336037E-2,-5.3722125E-1,3.696551E-1,1.7962414E0,-6.856323E-1,8.5088074E-2,9.596946E-2,5.3496194E-1,5.925073E-1,1.914695E-1,-3.584388E0,1.175618E0,1.642477E-1,-3.754814E-2,1.3331751E-2,-2.6506904E-1,2.0713614E-1,-2.2049437E0,2.9315352E-1,-1.0130782E0,6.336722E-1,-3.4713078E-1,-1.7753578E0,1.1484609E0,2.2170289E-1,1.5564339E0,-6.2559033E-3,-2.652643E-1,1.6767917E0,-2.296195E-1,-2.9792595E-1,1.7719979E0,-1.8986495E-1,-2.4856228E-1,5.8481514E-1,-1.3676567E0,-5.446284E-1,1.1704112E-2,-1.2059948E-2,6.817572E-3,3.1940613E-2,-5.8718454E-2,1.2132892E-2,-7.865159E-3,2.908289E-2,3.869529E-4,3.0498309E-2,1.5788058E-2,-3.813042E-2,-1.8623674E-2,2.8531274E-2,1.58572E-2,-3.402772E-2,-1.8996013E-2,2.0542318E-2,-8.07986E-2,4.159508E-3,2.0535473E-2,-5.275253E-2,-1.3701734E-2,2.8734522E-2,-8.102094E-2,5.3164186E-3,-7.0083335E-2,4.922813E-3,3.1428263E-2,-2.0607817E-3,1.9601244E-2,-4.8440594E-2,2.734119E-2,-1.0236087E-2,-3.7502071E-3,1.5880844E-2,4.517585E-3,-2.4688E-2,-9.0873204E-2,-3.6366975E-3,-6.787354E-2,-3.4686276E-3,1.998228E-2,-2.5125718E-2,-7.3201604E-2,-9.5825014E-4,-2.1732484E-3,-8.246733E-2,1.8366499E-2,-2.8948814E-2],"split_indices":[228,214,491,3,403,440,3,297,0,44,484,491,498,101,267,497,552,95,3,498,3,47,40,509,440,283,33,61,426,417,303,244,587,0,0,412,468,280,143,39,373,80,31,611,67,495,0,211,3,440,64,323,40,29,310,23,214,0,0,0,0,0,0,0,0,0,0,0,0,0,0,0,0,0,0,0,0,0,0,0,0,0,0,0,0,0,0,0,0,0,0,0,0,0,0,0,0,0,0,0,0,0,0,0,0,0,0],"split_type":[0,0,0,0,0,0,0,0,0,0,0,0,0,0,0,0,0,0,0,0,0,0,0,0,0,0,0,0,0,0,0,0,0,0,0,0,0,0,0,0,0,0,0,0,0,0,0,0,0,0,0,0,0,0,0,0,0,0,0,0,0,0,0,0,0,0,0,0,0,0,0,0,0,0,0,0,0,0,0,0,0,0,0,0,0,0,0,0,0,0,0,0,0,0,0,0,0,0,0,0,0,0,0,0,0,0,0],"sum_hessian":[4.081409E3,1.1840225E3,2.8973865E3,7.422234E2,4.4179907E2,6.031895E2,2.2941968E3,7.402407E2,1.9826392E0,2.4533768E2,1.9646141E2,1.2424037E2,4.7894913E2,1.8247999E3,4.6939697E2,7.098199E2,3.0420824E1,3.494347E0,2.4184332E2,1.1389354E2,8.256787E1,7.202829E1,5.221208E1,4.0602014E2,7.2928986E1,1.6652491E3,1.5955075E2,1.13063644E2,3.5633334E2,2.9902053E0,7.068297E2,5.3485055E0,2.5072317E1,1.0616263E0,2.4327207E0,2.3712872E2,4.714596E0,1.0203366E2,1.1859874E1,4.0929497E1,4.163837E1,1.6077536E1,5.5950756E1,2.5544489E1,2.666759E1,4.0432373E2,1.6963913E0,2.572401E1,4.720498E1,9.144346E2,7.508146E2,7.120988E1,8.834087E1,9.5884254E1,1.7179394E1,3.3118317E2,2.5150171E1,1.9872171E0,1.0029882E0,4.3602724E0,7.024694E2,3.254131E0,2.0943744E0,1.4986486E0,2.357367E1,9.167029E0,2.279617E2,3.312596E0,1.4019997E0,1.0136404E0,1.0102002E2,6.533327E0,5.3265467E0,1.0283091E1,3.0646408E1,2.393334E1,1.770503E1,9.983165E0,6.094371E0,2.153935E0,5.379682E1,1.9679792E1,5.8646975E0,3.3594143E0,2.3308174E1,4.019804E2,2.3433242E0,1.3256435E1,1.2467574E1,4.6059536E1,1.1454419E0,5.7243097E2,3.4200357E2,1.8203708E2,5.687775E2,5.9796654E1,1.1413223E1,2.0581228E1,6.775964E1,7.5377625E1,2.0506628E1,1.394017E1,3.2392247E0,2.3196142E1,3.0798703E2,1.9241163E1,5.9090066E0],"tree_param":{"num_deleted":"0","num_feature":"630","num_nodes":"107","size_leaf_vector":"1"}},{"base_weights":[1.5383249E-3,-3.6666486E-1,7.5431436E-1,-1.1130583E0,-9.340895E-2,9.7085106E-1,4.665037E-1,-2.251075E-1,-1.730102E0,4.410159E-1,-2.944647E-1,1.0434879E0,7.850795E-1,-2.0312326E-1,8.218419E-1,7.25391E-1,-6.7481446E-1,-1.9398478E0,3.3301803E-1,-4.7298598E-1,5.6119037E-1,-1.026778E0,-6.620681E-2,1.4166713E-3,1.0452359E0,8.8022196E-1,-5.731374E-1,5.788931E-1,-9.4285303E-1,9.5017004E-1,2.7000022E-1,-4.20802E-1,9.0728366E-1,-1.9739142E-2,-1.7742175E0,-1.1480255E0,-2.6021175E0,-9.4994533E-1,6.770496E-1,7.22105E-1,-1.2629163E0,5.3854723E-2,7.4801284E-1,-1.6882048E0,-1.375968E-1,-2.2991379E-1,6.644707E-1,1.6249401E-3,1.0470226E0,1.042656E0,5.386355E-1,5.128783E-1,-1.4445066E0,-4.597672E-1,8.7399256E-1,1.4333838E-1,-1.656967E0,-1.7556436E-2,9.626293E-1,6.2034225E-1,-5.0764567E-1,1.522514E-2,-4.643845E-2,-1.1934171E-2,2.8947517E-2,-1.49497995E-2,1.3469326E-2,1.6656948E-2,-6.405885E-2,-6.2397763E-2,-1.9515907E-2,-3.7086178E-2,-8.9758724E-2,-4.8000775E-2,1.3587885E-2,-2.0444851E-2,2.5463553E-2,-1.7384097E-2,2.7179552E-2,-6.3733086E-2,1.0501857E-2,5.8377795E-3,-5.5262867E-2,-1.3331056E-2,2.471522E-2,-1.3588772E-2,-7.301706E-2,8.693169E-3,-3.0379612E-2,1.0339137E-2,-1.640913E-2,2.7709406E-2,4.0778033E-3,1.5962817E-3,3.232361E-2,2.3494442E-3,3.2338362E-2,2.8144302E-2,3.8188663E-3,-5.7270154E-3,2.0420352E-2,1.0269362E-2,-5.887386E-2,1.8202277E-2,-5.148962E-2,1.6296182E-3,2.9212823E-2,-1.9930145E-2,2.0284573E-2,1.1163234E-2,-7.116937E-2,3.0527173E-2,9.112065E-3,2.281714E-2,-1.4712749E-2,1.8301222E-2,-5.0822478E-2],"categories":[],"categories_nodes":[],"categories_segments":[],"categories_sizes":[],"default_left":[0,0,0,0,0,0,0,0,0,0,0,0,0,0,0,0,0,0,0,0,0,0,0,0,0,0,0,0,0,0,0,0,0,0,0,0,0,0,0,0,0,0,0,0,0,0,0,0,0,0,0,0,0,0,0,0,0,0,0,0,0,0,0,0,0,0,0,0,0,0,0,0,0,0,0,0,0,0,0,0,0,0,0,0,0,0,0,0,0,0,0,0,0,0,0,0,0,0,0,0,0,0,0,0,0,0,0,0,0,0,0,0,0,0,0,0,0],"id":10,"left_children":[1,3,5,7,9,11,13,15,17,19,21,23,25,27,29,31,33,35,37,39,41,43,45,-1,47,49,51,53,55,57,59,61,63,65,67,69,71,73,75,77,79,81,83,85,87,89,91,-1,93,95,97,99,101,103,105,107,109,-1,111,113,115,-1,-1,-1,-1,-1,-1,-1,-1,-1,-1,-1,-1,-1,-1,-1,-1,-1,-1,-1,-1,-1,-1,-1,-1,-1,-1,-1,-1,-1,-1,-1,-1,-1,-1,-1,-1,-1,-1,-1,-1,-1,-1,-1,-1,-1,-1,-1,-1,-1,-1,-1,-1,-1,-1,-1,-1],"loss_changes":[1.1288749E3,5.5743286E2,8.168396E1,3.9994647E2,2.1603673E2,7.2057495E0,1.3899011E2,1.320319E2,1.8920898E2,6.138421E1,2.4378067E2,7.486572E-1,3.1417145E1,1.2036659E2,2.5998077E1,2.2189335E1,1.5018047E2,1.9466846E2,2.1364265E1,6.5603966E1,4.606996E1,2.0300946E2,1.3417575E2,0E0,7.359009E-1,9.84404E0,1.9039543E1,3.267641E1,8.353039E1,7.8565674E0,2.2149288E1,1.8836355E1,4.9604187E0,2.9385353E1,5.9036713E1,7.887544E1,7.8444214E1,1.1538376E1,9.247911E0,7.7218437E0,5.5595535E1,3.511789E1,2.3960587E1,1.6467505E2,5.5106377E1,1.5721521E2,2.5198013E1,0E0,7.380371E-1,6.055298E-1,1.1538105E1,1.546819E0,1.1083664E1,3.5384117E1,4.692486E0,2.0155405E1,8.816789E1,0E0,4.602478E0,8.527082E0,3.6267548E1,0E0,0E0,0E0,0E0,0E0,0E0,0E0,0E0,0E0,0E0,0E0,0E0,0E0,0E0,0E0,0E0,0E0,0E0,0E0,0E0,0E0,0E0,0E0,0E0,0E0,0E0,0E0,0E0,0E0,0E0,0E0,0E0,0E0,0E0,0E0,0E0,0E0,0E0,0E0,0E0,0E0,0E0,0E0,0E0,0E0,0E0,0E0,0E0,0E0,0E0,0E0,0E0,0E0,0E0,0E0,0E0],"parents":[2147483647,0,0,1,1,2,2,3,3,4,4,5,5,6,6,7,7,8,8,9,9,10,10,11,11,12,12,13,13,14,14,15,15,16,16,17,17,18,18,19,19,20,20,21,21,22,22,24,24,25,25,26,26,27,27,28,28,29,29,30,30,31,31,32,32,33,33,34,34,35,35,36,36,37,37,38,38,39,39,40,40,41,41,42,42,43,43,44,44,45,45,46,46,48,48,49,49,50,50,51,51,52,52,53,53,54,54,55,55,56,56,58,58,59,59,60,60],"right_children":[2,4,6,8,10,12,14,16,18,20,22,24,26,28,30,32,34,36,38,40,42,44,46,-1,48,50,52,54,56,58,60,62,64,66,68,70,72,74,76,78,80,82,84,86,88,90,92,-1,94,96,98,100,102,104,106,108,110,-1,112,114,116,-1,-1,-1,-1,-1,-1,-1,-1,-1,-1,-1,-1,-1,-1,-1,-1,-1,-1,-1,-1,-1,-1,-1,-1,-1,-1,-1,-1,-1,-1,-1,-1,-1,-1,-1,-1,-1,-1,-1,-1,-1,-1,-1,-1,-1,-1,-1,-1,-1,-1,-1,-1,-1,-1,-1,-1],"split_conditions":[2.2017391E-1,-6.0665524E-1,-1.5169182E-1,-7.4077964E-1,-4.452265E-1,-6.7737855E-2,4.2599735E-1,-7.792453E-1,5.925073E-1,-9.5986396E-1,-6.029956E-1,-6.516579E-1,9.257996E-1,-6.6729926E-2,-5.469157E-1,-1.6680827E0,3.489966E-1,2.4900723E-1,-4.2483935E-1,-9.7729427E-1,-1.097173E0,4.826077E-1,3.1396317E-1,1.4166713E-3,-2.9105926E0,-2.8303254E-1,1.6417836E-1,-6.0038686E-1,1.9805495E-1,-1.0460246E0,4.4673857E-1,-1.195625E0,-1.4690573E0,-3.5005566E-1,-4.921251E-1,-4.3362927E-1,-7.444647E-1,1.2533977E0,-9.202325E-1,-1.1999447E0,-1.8754189E-1,1.0304004E0,-1.152247E0,-7.2265834E-1,-6.0818934E-1,-1.1191415E0,3.4014675E-1,1.6249401E-3,-1.2508519E0,-2.3896332E0,-4.6635047E-1,-7.38368E-1,-7.1554404E-1,-2.2669187E-1,-1.1199845E0,-7.002734E-2,-6.639693E-1,-1.7556436E-2,7.6972663E-1,1.6400461E0,-4.0692527E-2,1.522514E-2,-4.643845E-2,-1.1934171E-2,2.8947517E-2,-1.49497995E-2,1.3469326E-2,1.6656948E-2,-6.405885E-2,-6.2397763E-2,-1.9515907E-2,-3.7086178E-2,-8.9758724E-2,-4.8000775E-2,1.3587885E-2,-2.0444851E-2,2.5463553E-2,-1.7384097E-2,2.7179552E-2,-6.3733086E-2,1.0501857E-2,5.8377795E-3,-5.5262867E-2,-1.3331056E-2,2.471522E-2,-1.3588772E-2,-7.301706E-2,8.693169E-3,-3.0379612E-2,1.0339137E-2,-1.640913E-2,2.7709406E-2,4.0778033E-3,1.5962817E-3,3.232361E-2,2.3494442E-3,3.2338362E-2,2.8144302E-2,3.8188663E-3,-5.7270154E-3,2.0420352E-2,1.0269362E-2,-5.887386E-2,1.8202277E-2,-5.148962E-2,1.6296182E-3,2.9212823E-2,-1.9930145E-2,2.0284573E-2,1.1163234E-2,-7.116937E-2,3.0527173E-2,9.112065E-3,2.281714E-2,-1.4712749E-2,1.8301222E-2,-5.0822478E-2],"split_indices":[225,33,73,325,281,505,230,491,426,68,41,15,3,484,228,461,180,423,467,38,435,184,426,0,448,403,389,40,3,251,3,526,576,440,424,47,267,426,530,15,225,542,47,267,402,3,3,0,216,58,214,80,491,500,47,377,214,0,172,469,531,0,0,0,0,0,0,0,0,0,0,0,0,0,0,0,0,0,0,0,0,0,0,0,0,0,0,0,0,0,0,0,0,0,0,0,0,0,0,0,0,0,0,0,0,0,0,0,0,0,0,0,0,0,0,0,0],"split_type":[0,0,0,0,0,0,0,0,0,0,0,0,0,0,0,0,0,0,0,0,0,0,0,0,0,0,0,0,0,0,0,0,0,0,0,0,0,0,0,0,0,0,0,0,0,0,0,0,0,0,0,0,0,0,0,0,0,0,0,0,0,0,0,0,0,0,0,0,0,0,0,0,0,0,0,0,0,0,0,0,0,0,0,0,0,0,0,0,0,0,0,0,0,0,0,0,0,0,0,0,0,0,0,0,0,0,0,0,0,0,0,0,0,0,0,0,0],"sum_hessian":[4.0653748E3,2.7313118E3,1.3340631E3,7.2890344E2,2.0024083E3,7.562607E2,5.778024E2,3.00928E2,4.2797543E2,5.461734E2,1.4562349E3,5.313457E2,2.2491501E2,2.0085994E2,3.7694247E2,9.591533E1,2.050127E2,3.8868442E2,3.9291035E1,6.2196056E1,4.8397736E2,3.4295135E2,1.1132834E3,1.1121317E0,5.302336E2,2.1141513E2,1.3499871E1,9.802768E1,1.0283225E2,3.0364374E2,7.329874E1,1.2464908E1,8.3450424E1,1.3083601E2,7.417668E1,1.816497E2,2.070347E2,6.9231834E0,3.236785E1,2.4874626E1,3.732143E1,1.3154965E2,3.524277E2,1.947469E2,1.4820445E2,9.1159283E2,2.0169067E2,1.161683E0,5.290719E2,1.3810979E2,7.330534E1,6.686376E0,6.8134947E0,2.1226841E1,7.680084E1,4.196285E1,6.0869408E1,1.1163377E0,3.025274E2,5.1055115E1,2.2243622E1,7.860546E0,4.604361E0,1.0140446E0,8.243638E1,6.470295E1,6.613306E1,8.28203E0,6.589465E1,6.3177853E1,1.18471855E2,4.0876835E1,1.6615787E2,4.511799E0,2.4113846E0,1.9569649E0,3.0410885E1,1.7078234E0,2.3166803E1,2.413512E1,1.3186312E1,1.2565892E2,5.890732E0,1.4251914E1,3.3817578E2,7.09376E1,1.23809296E2,1.0079808E2,4.7406376E1,3.175955E2,5.939973E2,1.3819492E2,6.349575E1,1.1512108E0,5.2792065E2,1.2623938E0,1.368474E2,3.6167675E1,3.7137672E1,1.0153626E0,5.671014E0,1.6313184E0,5.182176E0,1.238216E1,8.844681E0,6.871111E0,6.992973E1,1.617764E1,2.5785208E1,1.5262789E1,4.560662E1,2.886504E2,1.387701E1,4.7116966E1,3.9381468E0,1.2223071E1,1.002055E1],"tree_param":{"num_deleted":"0","num_feature":"630","num_nodes":"117","size_leaf_vector":"1"}},{"base_weights":[-6.254987E-4,7.5458884E-1,-3.5462785E-1,9.7536486E-1,4.3925533E-1,7.443085E-1,-5.7902163E-1,-1.2167467E-2,9.9562514E-1,6.955801E-1,-4.6258536E-1,-1.7076574E-1,9.372675E-1,-1.2598367E0,-1.669453E-1,-1.7928296E0,7.710511E-1,1.0007265E0,-1.1146901E-2,9.691561E-1,4.1566867E-1,7.847077E-1,-1.4198116E0,7.0547605E-1,-1.0406215E0,9.989226E-1,3.8763434E-1,-4.9266744E-1,-1.8443602E0,3.4171182E-1,-4.063748E-1,-6.820569E-2,1.8006951E-3,2.5178086E-2,5.856778E-4,1.0044694E0,-4.275546E-3,4.6835408E-2,9.902932E-1,7.453692E-1,-5.3840625E-1,-2.1890414E-1,9.4552875E-1,-2.359429E0,1.3674042E-1,8.854738E-1,-6.397486E-1,-1.894212E0,-8.702695E-2,-1.3648781E-1,1.0148356E0,-3.4713134E-1,8.000086E-1,-3.181509E-1,-2.3358223E0,-2.168999E0,-5.602668E-1,-3.4875087E-3,6.1658484E-1,-2.0055907E0,-2.9704836E-1,3.103475E-2,-4.5451685E-3,-2.4497503E-2,1.7106477E-2,3.0941239E-2,-5.4765195E-3,1.3569887E-2,3.110179E-2,-3.494559E-2,1.4495127E-2,1.8755311E-2,-3.8456988E-2,3.0941091E-2,-7.3983786E-3,-9.9256635E-3,-9.047484E-2,-3.4159135E-2,1.8599099E-2,3.0043602E-2,-5.630635E-3,-4.173088E-2,1.2517544E-2,8.7434165E-3,-7.2568394E-2,1.9604957E-2,-3.4605443E-2,1.5545121E-2,-2.834172E-2,3.1833485E-2,9.373145E-3,1.9136766E-2,-3.304712E-2,2.7505735E-2,-1.2213724E-2,8.2422495E-3,-2.1613898E-2,-8.563377E-2,5.4739406E-3,-3.603245E-2,-8.081354E-2,2.0846395E-2,-3.6355708E-2,3.9933617E-3,-3.3786383E-2,-2.5657576E-2,2.1618776E-2,-9.224349E-2,-6.5361406E-3,-1.3935257E-2,1.994697E-2],"categories":[],"categories_nodes":[],"categories_segments":[],"categories_sizes":[],"default_left":[0,0,0,0,0,0,0,0,0,0,0,0,0,0,0,0,0,0,0,0,0,0,0,0,0,0,0,0,0,0,0,0,0,0,0,0,0,0,0,0,0,0,0,0,0,0,0,0,0,0,0,0,0,0,0,0,0,0,0,0,0,0,0,0,0,0,0,0,0,0,0,0,0,0,0,0,0,0,0,0,0,0,0,0,0,0,0,0,0,0,0,0,0,0,0,0,0,0,0,0,0,0,0,0,0,0,0,0,0,0,0],"id":11,"left_children":[1,3,5,7,9,11,13,15,17,19,21,23,25,27,29,31,33,35,-1,37,39,41,43,45,47,49,51,53,55,57,59,-1,-1,-1,-1,61,-1,63,65,67,69,71,73,75,77,79,81,83,85,87,89,91,93,95,97,99,101,103,105,107,109,-1,-1,-1,-1,-1,-1,-1,-1,-1,-1,-1,-1,-1,-1,-1,-1,-1,-1,-1,-1,-1,-1,-1,-1,-1,-1,-1,-1,-1,-1,-1,-1,-1,-1,-1,-1,-1,-1,-1,-1,-1,-1,-1,-1,-1,-1,-1,-1,-1,-1],"loss_changes":[1.0863629E3,8.8686584E1,6.838372E2,1.5250977E1,1.2621201E2,8.371954E1,6.443599E2,3.1539024E1,6.501343E0,3.0859985E1,1.496978E2,6.759845E1,1.175E1,3.851781E2,1.7550171E2,5.8608494E0,4.8121357E-1,3.6894531E0,0E0,3.9342804E0,6.9243286E1,9.701309E0,1.0403027E2,1.2904284E1,3.5366737E1,6.8012085E0,1.4771187E1,1.193864E2,1.9992224E2,4.3836258E1,1.6888199E2,0E0,0E0,0E0,0E0,2.703186E0,0E0,5.325192E0,3.952942E0,1.1350975E1,3.6500866E1,1.18866825E1,4.2494774E0,4.8180466E1,1.9894337E1,4.569092E0,7.5848145E0,2.5701881E1,2.1210424E1,5.773926E0,3.236023E0,1.5727451E1,4.6523647E0,7.9502426E1,3.7744507E1,1.6539014E2,8.260228E1,3.0838196E1,3.3796074E1,1.0738266E2,1.3588995E2,0E0,0E0,0E0,0E0,0E0,0E0,0E0,0E0,0E0,0E0,0E0,0E0,0E0,0E0,0E0,0E0,0E0,0E0,0E0,0E0,0E0,0E0,0E0,0E0,0E0,0E0,0E0,0E0,0E0,0E0,0E0,0E0,0E0,0E0,0E0,0E0,0E0,0E0,0E0,0E0,0E0,0E0,0E0,0E0,0E0,0E0,0E0,0E0,0E0,0E0],"parents":[2147483647,0,0,1,1,2,2,3,3,4,4,5,5,6,6,7,7,8,8,9,9,10,10,11,11,12,12,13,13,14,14,15,15,16,16,17,17,19,19,20,20,21,21,22,22,23,23,24,24,25,25,26,26,27,27,28,28,29,29,30,30,35,35,37,37,38,38,39,39,40,40,41,41,42,42,43,43,44,44,45,45,46,46,47,47,48,48,49,49,50,50,51,51,52,52,53,53,54,54,55,55,56,56,57,57,58,58,59,59,60,60],"right_children":[2,4,6,8,10,12,14,16,18,20,22,24,26,28,30,32,34,36,-1,38,40,42,44,46,48,50,52,54,56,58,60,-1,-1,-1,-1,62,-1,64,66,68,70,72,74,76,78,80,82,84,86,88,90,92,94,96,98,100,102,104,106,108,110,-1,-1,-1,-1,-1,-1,-1,-1,-1,-1,-1,-1,-1,-1,-1,-1,-1,-1,-1,-1,-1,-1,-1,-1,-1,-1,-1,-1,-1,-1,-1,-1,-1,-1,-1,-1,-1,-1,-1,-1,-1,-1,-1,-1,-1,-1,-1,-1,-1,-1],"split_conditions":[-1.6198136E-1,-5.127711E-1,-1.0007956E0,-3.1281745E0,6.9912356E-1,-1.4880178E0,-2.9744598E-1,4.6049967E-1,1.6358705E0,1.520007E-1,-1.7852451E-1,-1.466335E0,-5.0508446E-1,6.1137307E-2,-5.2494854E-1,6.194436E-1,2.6028447E0,3.9170957E0,-1.1146901E-2,-2.160648E0,6.747192E-2,2.0488788E-1,7.5957286E-1,4.4014782E-1,3.469864E-1,-1.4363102E0,-4.1653106E-1,3.7361178E-1,4.191344E-1,-8.6258787E-1,-1.1328257E0,-6.820569E-2,1.8006951E-3,2.5178086E-2,5.856778E-4,1.8327544E0,-4.275546E-3,-1.1272698E-1,9.7985464E-1,8.47423E-1,5.029097E-1,7.5404614E-1,1.3245921E0,-8.0744267E-1,1.7658038E-1,4.1481194E-1,-5.757868E-1,1.3165389E0,-8.0736154E-1,-4.791635E-1,1.3227241E0,-7.84777E-1,2.371822E0,-5.0582165E-1,8.2479864E-1,-2.5492543E-1,-1.4888576E-1,5.486631E-1,-9.328493E-1,4.326237E-1,7.096748E-1,3.103475E-2,-4.5451685E-3,-2.4497503E-2,1.7106477E-2,3.0941239E-2,-5.4765195E-3,1.3569887E-2,3.110179E-2,-3.494559E-2,1.4495127E-2,1.8755311E-2,-3.8456988E-2,3.0941091E-2,-7.3983786E-3,-9.9256635E-3,-9.047484E-2,-3.4159135E-2,1.8599099E-2,3.0043602E-2,-5.630635E-3,-4.173088E-2,1.2517544E-2,8.7434165E-3,-7.2568394E-2,1.9604957E-2,-3.4605443E-2,1.5545121E-2,-2.834172E-2,3.1833485E-2,9.373145E-3,1.9136766E-2,-3.304712E-2,2.7505735E-2,-1.2213724E-2,8.2422495E-3,-2.1613898E-2,-8.563377E-2,5.4739406E-3,-3.603245E-2,-8.081354E-2,2.0846395E-2,-3.6355708E-2,3.9933617E-3,-3.3786383E-2,-2.5657576E-2,2.1618776E-2,-9.224349E-2,-6.5361406E-3,-1.3935257E-2,1.994697E-2],"split_indices":[228,214,491,506,423,440,33,328,3,281,491,498,498,187,274,545,584,514,0,299,3,508,440,493,40,225,225,108,215,435,41,0,0,0,0,172,0,4,18,4,225,1,348,221,237,481,227,228,64,514,423,309,206,472,17,186,214,61,40,618,425,0,0,0,0,0,0,0,0,0,0,0,0,0,0,0,0,0,0,0,0,0,0,0,0,0,0,0,0,0,0,0,0,0,0,0,0,0,0,0,0,0,0,0,0,0,0,0,0,0,0],"split_type":[0,0,0,0,0,0,0,0,0,0,0,0,0,0,0,0,0,0,0,0,0,0,0,0,0,0,0,0,0,0,0,0,0,0,0,0,0,0,0,0,0,0,0,0,0,0,0,0,0,0,0,0,0,0,0,0,0,0,0,0,0,0,0,0,0,0,0,0,0,0,0,0,0,0,0,0,0,0,0,0,0,0,0,0,0,0,0,0,0,0,0,0,0,0,0,0,0,0,0,0,0,0,0,0,0,0,0,0,0,0,0],"sum_hessian":[4.056069E3,1.2931345E3,2.7629346E3,7.560293E2,5.3710516E2,4.6704218E2,2.2958923E3,1.5223239E1,7.408061E2,4.1889868E2,1.1820648E2,8.140261E1,3.8563956E2,8.627869E2,1.4331056E3,3.1916914E0,1.2031548E1,7.3900726E2,1.7987971E0,2.0721706E2,2.1168163E2,5.1614357E1,6.6592125E1,4.089854E1,4.050407E1,3.4400784E2,4.1631718E1,3.7606256E2,4.8672433E2,4.581592E2,9.7494635E2,2.0127058E0,1.1789857E0,1.1030735E1,1.000813E0,7.370306E2,1.9767323E0,4.9156E0,2.0230145E2,1.5792474E2,5.3756878E1,6.938727E0,4.4675632E1,4.033422E1,2.62579E1,3.7193825E1,3.7047176E0,1.9438728E1,2.106534E1,4.3613873E0,3.3964645E2,1.5171974E1,2.6459743E1,3.475121E2,2.8550467E1,3.864603E2,1.0026406E2,2.0471304E2,2.5344618E2,5.826429E1,9.16682E2,7.358945E2,1.1360965E0,1.0587596E0,3.8568406E0,2.0048273E2,1.8187286E0,7.783469E1,8.009006E1,3.351654E1,2.024034E1,4.6829515E0,2.2557755E0,4.312377E1,1.551858E0,1.0169588E1,3.0164635E1,5.7656527E0,2.0492249E1,3.4626663E1,2.5671608E0,1.5550208E0,2.1496968E0,3.6386833E0,1.5800045E1,1.3244786E1,7.8205543E0,3.120785E0,1.2406024E0,3.295785E2,1.0067977E1,6.7227707E0,8.4492035E0,2.5440102E1,1.0196424E0,1.37885E2,2.0962709E2,2.3943659E1,4.6068068E0,1.2467406E2,2.6178622E2,3.3341595E1,6.692246E1,1.8540277E2,1.931027E1,1.2212408E1,2.4123376E2,3.597408E1,2.2290213E1,7.890144E2,1.2766762E2],"tree_param":{"num_deleted":"0","num_feature":"630","num_nodes":"111","size_leaf_vector":"1"}},{"base_weights":[1.9170955E-4,7.2497976E-1,-3.5389912E-1,9.635211E-1,4.033375E-1,4.3715382E-1,-6.6436046E-1,-9.823854E-2,9.860357E-1,6.550616E-1,-4.764396E-1,-4.6925715E-1,6.5732765E-1,-3.6848333E-1,-1.5391818E0,-1.8722881E0,7.6613444E-1,9.910604E-1,-1.1738952E-2,3.644746E-1,9.603382E-1,7.0086473E-1,-1.2824427E0,4.1978496E-1,-1.1501577E0,9.2107224E-1,2.917811E-1,-5.1523983E-1,5.61306E-1,-3.8528404E-1,-2.044661E0,-7.420483E-2,3.3852311E-3,2.503231E-2,6.202489E-4,2.6262733E-1,1.0014786E0,8.839113E-1,-1.182112E-1,4.8101436E-2,9.766083E-1,-3.3677152E-1,8.8333344E-1,-2.4581497E0,-2.255627E-1,8.283936E-1,-3.983465E-1,-1.9600718E0,2.0192038E-1,9.408408E-1,-3.6295822E-1,-7.008037E-2,7.2626483E-1,-8.545085E-3,-7.726646E-1,-3.425992E-2,7.485195E-1,-1.6589724E0,-3.614771E-2,-2.2828395E0,2.7815798E-1,-2.722675E-2,2.3846872E-2,3.148515E-2,2.0193506E-2,-9.619723E-3,2.822016E-2,-3.2328054E-2,1.0975823E-2,1.5009183E-2,-1.886671E-2,3.0364972E-2,-4.4335998E-3,1.1948829E-2,-3.3449546E-2,2.9020019E-2,-1.1795418E-2,-9.627994E-2,2.7858323E-4,-4.4849508E-2,8.786796E-3,3.003261E-2,9.023567E-4,-3.571729E-2,1.2068854E-2,-1.68155E-2,-8.8929415E-2,-2.0421525E-2,1.9122265E-2,3.050781E-2,1.34409815E-2,-3.0984646E-2,1.03831235E-2,-3.1912163E-2,7.884186E-3,2.4548778E-2,-6.498051E-3,-1.2643746E-2,1.4607518E-2,-2.9965624E-2,9.468031E-3,-4.195918E-2,6.8225497E-3,2.6162298E-2,1.2108611E-3,-6.693213E-2,3.946835E-3,-4.3569837E-2,6.1697327E-3,-1.107219E-2,-7.780441E-2,2.2462076E-2,-2.160808E-2],"categories":[],"categories_nodes":[],"categories_segments":[],"categories_sizes":[],"default_left":[0,0,0,0,0,0,0,0,0,0,0,0,0,0,0,0,0,0,0,0,0,0,0,0,0,0,0,0,0,0,0,0,0,0,0,0,0,0,0,0,0,0,0,0,0,0,0,0,0,0,0,0,0,0,0,0,0,0,0,0,0,0,0,0,0,0,0,0,0,0,0,0,0,0,0,0,0,0,0,0,0,0,0,0,0,0,0,0,0,0,0,0,0,0,0,0,0,0,0,0,0,0,0,0,0,0,0,0,0,0,0,0,0],"id":12,"left_children":[1,3,5,7,9,11,13,15,17,19,21,23,25,27,29,31,33,35,-1,37,39,41,43,45,47,49,51,53,55,57,59,-1,-1,-1,-1,61,63,65,67,69,71,73,75,77,79,81,83,85,87,89,91,93,95,97,99,101,103,105,107,109,111,-1,-1,-1,-1,-1,-1,-1,-1,-1,-1,-1,-1,-1,-1,-1,-1,-1,-1,-1,-1,-1,-1,-1,-1,-1,-1,-1,-1,-1,-1,-1,-1,-1,-1,-1,-1,-1,-1,-1,-1,-1,-1,-1,-1,-1,-1,-1,-1,-1,-1,-1,-1],"loss_changes":[1.0413168E3,1.00723816E2,6.705115E2,1.857843E1,1.2815704E2,1.5491208E2,5.0495514E2,3.4754288E1,6.5306396E0,3.8386932E1,1.26429665E2,9.425734E1,5.8912415E1,2.0149179E2,2.8516492E2,8.811598E0,4.6887302E-1,4.6691895E0,0E0,5.936911E1,3.0249176E0,1.154154E1,9.524211E1,2.4279636E1,9.728711E1,1.0389618E1,4.199861E1,1.6568918E2,2.262136E1,6.8712296E1,1.9191492E2,0E0,0E0,0E0,0E0,1.163691E1,2.6140137E0,5.3829193E0,5.6661472E1,3.3343337E0,2.583603E0,7.489007E0,4.874382E0,6.040625E1,3.0010365E1,5.398308E0,1.6990726E1,6.62191E1,1.4600786E1,7.1752625E0,4.9110394E0,4.769245E1,8.604847E0,8.441232E1,1.8271985E2,1.871603E1,1.0823669E1,3.1529266E1,4.190886E1,1.4127344E2,1.7416756E1,0E0,0E0,0E0,0E0,0E0,0E0,0E0,0E0,0E0,0E0,0E0,0E0,0E0,0E0,0E0,0E0,0E0,0E0,0E0,0E0,0E0,0E0,0E0,0E0,0E0,0E0,0E0,0E0,0E0,0E0,0E0,0E0,0E0,0E0,0E0,0E0,0E0,0E0,0E0,0E0,0E0,0E0,0E0,0E0,0E0,0E0,0E0,0E0,0E0,0E0,0E0,0E0],"parents":[2147483647,0,0,1,1,2,2,3,3,4,4,5,5,6,6,7,7,8,8,9,9,10,10,11,11,12,12,13,13,14,14,15,15,16,16,17,17,19,19,20,20,21,21,22,22,23,23,24,24,25,25,26,26,27,27,28,28,29,29,30,30,35,35,36,36,37,37,38,38,39,39,40,40,41,41,42,42,43,43,44,44,45,45,46,46,47,47,48,48,49,49,50,50,51,51,52,52,53,53,54,54,55,55,56,56,57,57,58,58,59,59,60,60],"right_children":[2,4,6,8,10,12,14,16,18,20,22,24,26,28,30,32,34,36,-1,38,40,42,44,46,48,50,52,54,56,58,60,-1,-1,-1,-1,62,64,66,68,70,72,74,76,78,80,82,84,86,88,90,92,94,96,98,100,102,104,106,108,110,112,-1,-1,-1,-1,-1,-1,-1,-1,-1,-1,-1,-1,-1,-1,-1,-1,-1,-1,-1,-1,-1,-1,-1,-1,-1,-1,-1,-1,-1,-1,-1,-1,-1,-1,-1,-1,-1,-1,-1,-1,-1,-1,-1,-1,-1,-1,-1,-1,-1,-1,-1,-1],"split_conditions":[-1.1528276E-1,-5.127711E-1,-5.8223754E-1,-3.1281745E0,6.9912356E-1,-1.3719264E0,7.4845296E-1,8.210518E-1,3.7155216E0,4.9066558E-1,-3.7365654E-1,-1.090807E0,-4.921269E-1,6.933381E-1,-7.018158E-1,6.194436E-1,4.7017612E0,-2.5231364E-1,-1.1738952E-2,3.3479776E-2,-1.9865564E0,-3.1179106E-1,5.5728894E-1,-9.268338E-1,6.824575E-1,1.7318974E0,-4.5721874E-1,-5.526323E-1,-6.610577E-1,-1.0941341E0,5.554408E-1,-7.420483E-2,3.3852311E-3,2.503231E-2,6.202489E-4,-6.529322E-2,1.4271768E0,-2.160648E0,-8.824049E-2,2.8405073E-1,2.8478277E0,-5.818746E-2,3.3492308E0,2.8849137E-1,-6.45788E-2,4.0088192E-1,-1.8341756E-1,3.2244498E-1,1.0311532E0,2.9278535E-1,-1.050881E0,-3.7672138E-1,1.2911518E0,-8.036843E-1,2.652477E-1,-8.972026E-1,2.821391E-1,9.231091E-1,-1.0409564E0,-1.2519774E0,-6.345515E-1,-2.722675E-2,2.3846872E-2,3.148515E-2,2.0193506E-2,-9.619723E-3,2.822016E-2,-3.2328054E-2,1.0975823E-2,1.5009183E-2,-1.886671E-2,3.0364972E-2,-4.4335998E-3,1.1948829E-2,-3.3449546E-2,2.9020019E-2,-1.1795418E-2,-9.627994E-2,2.7858323E-4,-4.4849508E-2,8.786796E-3,3.003261E-2,9.023567E-4,-3.571729E-2,1.2068854E-2,-1.68155E-2,-8.8929415E-2,-2.0421525E-2,1.9122265E-2,3.050781E-2,1.34409815E-2,-3.0984646E-2,1.03831235E-2,-3.1912163E-2,7.884186E-3,2.4548778E-2,-6.498051E-3,-1.2643746E-2,1.4607518E-2,-2.9965624E-2,9.468031E-3,-4.195918E-2,6.8225497E-3,2.6162298E-2,1.2108611E-3,-6.693213E-2,3.946835E-3,-4.3569837E-2,6.1697327E-3,-1.107219E-2,-7.780441E-2,2.2462076E-2,-2.160808E-2],"split_indices":[228,214,281,506,423,440,3,321,276,405,496,295,505,425,267,545,304,426,0,281,254,492,435,309,40,213,440,267,426,33,426,0,0,0,0,551,304,299,177,481,486,387,152,95,20,66,149,61,32,80,391,103,257,435,426,289,3,184,47,358,214,0,0,0,0,0,0,0,0,0,0,0,0,0,0,0,0,0,0,0,0,0,0,0,0,0,0,0,0,0,0,0,0,0,0,0,0,0,0,0,0,0,0,0,0,0,0,0,0,0,0,0,0],"split_type":[0,0,0,0,0,0,0,0,0,0,0,0,0,0,0,0,0,0,0,0,0,0,0,0,0,0,0,0,0,0,0,0,0,0,0,0,0,0,0,0,0,0,0,0,0,0,0,0,0,0,0,0,0,0,0,0,0,0,0,0,0,0,0,0,0,0,0,0,0,0,0,0,0,0,0,0,0,0,0,0,0,0,0,0,0,0,0,0,0,0,0,0,0,0,0,0,0,0,0,0,0,0,0,0,0,0,0,0,0,0,0,0,0],"sum_hessian":[4.0500598E3,1.3279698E3,2.72209E3,7.5822363E2,5.697463E2,7.6678815E2,1.9553019E3,1.5480098E1,7.427435E2,4.4373694E2,1.2600932E2,1.4903192E2,6.177562E2,1.4650723E3,4.9022958E2,3.6562994E0,1.1823799E1,7.410437E2,1.6998304E0,2.3151724E2,2.122197E2,5.1403248E1,7.460608E1,6.525022E1,8.37817E1,3.5556235E2,2.621939E2,1.2667849E3,1.9828734E2,1.5132846E2,3.3890112E2,2.253704E0,1.4025952E0,1.0818717E1,1.0050821E0,1.1827511E1,7.292162E2,1.1003356E2,1.2148368E2,3.9818215E0,2.0823788E2,7.213748E0,4.41895E1,3.298668E1,4.1619396E1,4.3489815E1,2.1760405E1,5.1355106E1,3.2426598E1,3.5115195E2,4.4103823E0,1.4474297E2,1.1745094E2,4.2806665E2,8.3871826E2,4.8141262E1,1.5014607E2,2.9559223E1,1.2176924E2,3.074426E2,3.1458508E1,2.811243E0,9.016268E0,6.823139E2,4.6902287E1,1.9936885E0,1.0803987E2,3.9498653E1,8.198502E1,2.981687E0,1.0001345E0,2.0709256E2,1.145314E0,4.570957E0,2.6427903E0,4.315787E1,1.0316263E0,2.5200195E1,7.7864857E0,1.0202036E1,3.141736E1,3.6074512E1,7.415305E0,1.0207026E1,1.1553379E1,2.2645649E1,2.8709455E1,9.867546E0,2.2559053E1,3.167899E2,3.436206E1,1.4593263E0,2.951056E0,3.4496727E1,1.1024623E2,1.097812E2,7.669743E0,2.3390317E2,1.9416348E2,7.081757E2,1.3054256E2,5.1866155E0,4.2954647E1,1.30885E2,1.9261076E1,2.2350359E1,7.2088637E0,1.512869E1,1.0664055E2,3.5348507E1,2.720941E2,2.2197485E1,9.261022E0],"tree_param":{"num_deleted":"0","num_feature":"630","num_nodes":"113","size_leaf_vector":"1"}},{"base_weights":[-2.4979291E-3,8.346579E-1,-3.0703926E-1,9.930213E-1,5.704061E-1,6.662427E-1,