{"learner":{"attributes":{"best_iteration":"297","best_score":"0.11539712120604743","scikit_learn":"{\"_estimator_type\": \"classifier\"}"},"feature_names":[],"feature_types":[],"gradient_booster":{"model":{"cats":{"enc":[],"feature_segments":[],"sorted_idx":[]},"gbtree_model_param":{"num_parallel_tree":"1","num_trees":"311"},"iteration_indptr":[0,1,2,3,4,5,6,7,8,9,10,11,12,13,14,15,16,17,18,19,20,21,22,23,24,25,26,27,28,29,30,31,32,33,34,35,36,37,38,39,40,41,42,43,44,45,46,47,48,49,50,51,52,53,54,55,56,57,58,59,60,61,62,63,64,65,66,67,68,69,70,71,72,73,74,75,76,77,78,79,80,81,82,83,84,85,86,87,88,89,90,91,92,93,94,95,96,97,98,99,100,101,102,103,104,105,106,107,108,109,110,111,112,113,114,115,116,117,118,119,120,121,122,123,124,125,126,127,128,129,130,131,132,133,134,135,136,137,138,139,140,141,142,143,144,145,146,147,148,149,150,151,152,153,154,155,156,157,158,159,160,161,162,163,164,165,166,167,168,169,170,171,172,173,174,175,176,177,178,179,180,181,182,183,184,185,186,187,188,189,190,191,192,193,194,195,196,197,198,199,200,201,202,203,204,205,206,207,208,209,210,211,212,213,214,215,216,217,218,219,220,221,222,223,224,225,226,227,228,229,230,231,232,233,234,235,236,237,238,239,240,241,242,243,244,245,246,247,248,249,250,251,252,253,254,255,256,257,258,259,260,261,262,263,264,265,266,267,268,269,270,271,272,273,274,275,276,277,278,279,280,281,282,283,284,285,286,287,288,289,290,291,292,293,294,295,296,297,298,299,300,301,302,303,304,305,306,307,308,309,310,311],"tree_info":[0,0,0,0,0,0,0,0,0,0,0,0,0,0,0,0,0,0,0,0,0,0,0,0,0,0,0,0,0,0,0,0,0,0,0,0,0,0,0,0,0,0,0,0,0,0,0,0,0,0,0,0,0,0,0,0,0,0,0,0,0,0,0,0,0,0,0,0,0,0,0,0,0,0,0,0,0,0,0,0,0,0,0,0,0,0,0,0,0,0,0,0,0,0,0,0,0,0,0,0,0,0,0,0,0,0,0,0,0,0,0,0,0,0,0,0,0,0,0,0,0,0,0,0,0,0,0,0,0,0,0,0,0,0,0,0,0,0,0,0,0,0,0,0,0,0,0,0,0,0,0,0,0,0,0,0,0,0,0,0,0,0,0,0,0,0,0,0,0,0,0,0,0,0,0,0,0,0,0,0,0,0,0,0,0,0,0,0,0,0,0,0,0,0,0,0,0,0,0,0,0,0,0,0,0,0,0,0,0,0,0,0,0,0,0,0,0,0,0,0,0,0,0,0,0,0,0,0,0,0,0,0,0,0,0,0,0,0,0,0,0,0,0,0,0,0,0,0,0,0,0,0,0,0,0,0,0,0,0,0,0,0,0,0,0,0,0,0,0,0,0,0,0,0,0,0,0,0,0,0,0,0,0,0,0,0,0,0,0,0,0,0,0,0,0,0,0,0,0,0,0,0,0,0,0,0,0,0,0,0,0],"trees":[{"base_weights":[2.102981E-4,7.508331E-1,-4.7185647E-1,9.895453E-1,2.9015818E-1,-8.4475434E-1,8.6436534E-1,1.0170721E0,-0E0,-1.4943925E-1,7.9026914E-1,-2.0693631E-1,-1.8245032E0,1.0194982E0,1.0563539E-3,1.0781132E0,7.0568854E-1,-1.3102262E0,5.024461E-1,3.0936483E-1,-1.1623776E0,-2.4531536E-1,8.232619E-1,-1.1603436E0,-2.6858978E-3,-3.1460617E0,6.205116E-3,-0E0,1.0346346E0,6.769669E-1,-3.49553E0,-0E0,1.0824848E0,9.5296854E-1,9.177909E-2,-0E0,-3.5665817E0,-2.4319962E-1,8.634848E-1,5.977446E-1,-3.0844577E-2,4.726057E-1,-2.1768591E0,-1.5081394E-1,-0E0,9.950709E-1,5.3147787E-1,-1.8322805E-1,-1.7857901E0,-5.6684256E-1,3.414106E-1,-1.063424E0,-4.337051E0,4.7051746E-1,-1.0905795E0,4.2253755E-2,-1.6374393E-1,7.6510526E-2,1.0525037E0,9.354334E-1,-2.180098E-1,-0E0,-5.8401647E0,-0E0,1.0854424E0,1.000674E0,-0E0,7.1682954E-1,-5.70645E-1,-0E0,1.0404225E-2,-0E0,-4.1844416E-1,-1.5081394E-1,2.1294148E-3,6.361602E-2,-0E0,7.4994737E-1,-0E0,-5.2258164E-1,5.7358557E-1,7.577315E-1,-7.563895E-1,-4.036641E0,-7.736135E-1,-0E0,1.0183636E0,-0E0,9.2170614E-1,2.1174191E-1,-9.3313754E-1,-0E0,-2.2794733E0,-7.945346E-2,-1.1012605E0,-1.00536965E-1,7.847521E-1,-1.9705421E0,4.612626E-1,-6.158861E0,-1.575852E0,-9.222071E-1,6.232884E-1,-2.3804233E0,2.6686764E-1,5.6892663E-1,-1.0104447E-1,-0E0,1.0604565E0,1.0155877E0,-0E0,1.9634148E-1,-3.0871203E0,-1.0104447E-1,2.8304266E-2,-0E0,-7.2579584E0,-0E0,1.0883976E0,1.021081E0,-0E0,1.894859E-2,-1.0104447E-1,-6.8574605E-5,8.6996543E-1,1.2482132E-1,-1.9350036E0,-0E0,8.6337143E-1,-7.533358E-1,5.9698564E-1,-1.0494792E0,5.636074E-1,-3.6944054E-2,7.697107E-1,-0E0,9.4964266E-1,-2.3700245E-1,-0E0,-5.714941E0,-1.0266739E0,-2.0242708E0,1.8046384E-1,1.0497178E0,-0E0,-1.6953487E0,5.6479865E-1,7.271107E-2,-2.8504893E-1,3.7032858E-1,-1.2310074E-1,-0E0,-2.037241E0,-8.8860905E-1,7.502921E-1,-1.2389405E0,-3.6663706E0,-1.1111348E0,3.8900416E-2,-1.7097661E0,-2.6311865E-1,3.7414217E-1,-8.483429E-1,5.774352E-2,8.8897085E-1,-2.814638E0,-5.505559E-2,7.8346854E-1,-4.6201488E-1,-2.9371783E-1,-6.698999E0,-2.7040377E0,2.2860783E-1,2.7966365E-1,-3.0603254E0,1.0797499E-3,8.371293E-1,-9.354687E-1,-4.4141197E0,-1.7646368E0,5.9941065E-1,5.3430554E-2,-0E0,1.894859E-2,-0E0,1.0631675E0,-0E0,-0E0,7.283951E-2,-3.834499E-2,-0E0,-9.316301E-2,5.536833E-2,-0E0,-3.5184234E-1,-5.739156E-1,-3.834499E-2,-0E0,7.518998E-2,-0E0,7.1780175E-2,-0E0,6.8511665E-2,-5.8238104E-2,4.3695197E-2,-2.4838503E-1,-0E0,3.564349E-2,-8.946854E-2,6.424918E-2,-0E0,1.2011817E-2,-1.8478152E-1,-0E0,5.9300747E-2,-1.6142446E-1,-1.8369397E-2,-0E0,5.877915E-2,1.7025875E-2,-1.3745688E-1,-0E0,6.047386E-2,-0E0,-8.740667E-2,-0E0,6.835948E-2,-0E0,-4.7069782E-1,7.972001E-3,-2.2999883E-1,-2.5127825E-1,1.4451108E-2,3.9704222E-2,-5.342476E-2,7.344357E-2,-0E0,1.894859E-2,-3.834499E-2,2.403878E-2,-2.3076235E-1,-0E0,6.4626515E-2,-0E0,-1.6374393E-1,-1.9148385E-2,4.412766E-2,2.3122301E-2,-1.8323916E-1,-2.0893676E-2,-2.7660677E-1,3.4060337E-2,-1.5237613E-1,-0E0,6.1887313E-2,-1.6436103E-1,5.0304155E-3,-3.0662304E-1,-6.520637E-3,-1.6000207E-1,7.282378E-3,3.5920396E-2,-9.471824E-3,-0E0,-1.4814566E-1,1.6774022E-3,-1.6227853E-1,4.75819E-2,-2.7137496E-2,-1.2029148E-1,1.24339545E-2,4.1414257E-2,-1.0572478E-1,-0E0,6.4445E-2,-2.797918E-1,-8.878598E-2,2.447411E-2,-2.2936939E-1,6.672154E-2,-0E0,1.7084882E-2,-1.3192163E-1,2.7630309E-2,-2.0783062E-1,-1.6121702E-1,-4.9901426E-1,-2.7584496E-1,-5.8962066E-2,-2.4544781E-1,3.7535314E-2,5.5619117E-2,-3.4440603E-2,-0E0,-3.200199E-1,4.7000907E-2,-5.6890756E-2,-0E0,6.511172E-2,-1.5914597E-1,5.1431926E-3,-3.586055E-1,-0E0,-2.662857E-1,-0E0,-1.1495353E-1,5.532623E-2,7.343413E-2,-0E0],"categories":[],"categories_nodes":[],"categories_segments":[],"categories_sizes":[],"default_left":[0,0,0,0,0,0,0,0,0,0,0,0,0,0,0,0,0,0,0,0,0,0,0,0,0,0,0,0,0,0,0,0,0,0,0,0,0,0,0,0,0,0,0,0,0,0,0,0,0,0,0,0,0,0,0,0,0,0,0,0,0,0,0,0,0,0,0,0,0,0,0,0,0,0,0,0,0,0,0,0,0,0,0,0,0,0,0,0,0,0,0,0,0,0,0,0,0,0,0,0,0,0,0,0,0,0,0,0,0,0,0,0,0,0,0,0,0,0,0,0,0,0,0,0,0,0,0,0,0,0,0,0,0,0,0,0,0,0,0,0,0,0,0,0,0,0,0,0,0,0,0,0,0,0,0,0,0,0,0,0,0,0,0,0,0,0,0,0,0,0,0,0,0,0,0,0,0,0,0,0,0,0,0,0,0,0,0,0,0,0,0,0,0,0,0,0,0,0,0,0,0,0,0,0,0,0,0,0,0,0,0,0,0,0,0,0,0,0,0,0,0,0,0,0,0,0,0,0,0,0,0,0,0,0,0,0,0,0,0,0,0,0,0,0,0,0,0,0,0,0,0,0,0,0,0,0,0,0,0,0,0,0,0,0,0,0,0,0,0,0,0,0,0,0,0,0,0,0,0,0,0,0,0,0,0,0,0,0,0,0,0,0,0,0,0,0,0,0,0,0,0,0,0,0,0,0,0,0,0],"id":0,"left_children":[1,3,5,7,9,11,13,15,17,19,21,23,25,27,29,31,33,35,37,39,41,43,45,47,49,51,53,55,57,59,61,-1,63,65,67,69,71,73,75,77,79,81,83,-1,-1,85,87,89,91,93,95,97,99,101,103,-1,-1,105,107,109,111,113,115,-1,117,119,121,123,125,-1,-1,-1,-1,-1,-1,-1,-1,127,129,131,133,135,137,139,141,-1,143,145,147,149,151,153,155,157,159,161,163,165,167,169,171,173,175,177,179,181,-1,183,185,187,189,191,193,-1,-1,-1,195,-1,197,199,-1,-1,-1,-1,201,203,205,207,209,211,213,215,217,219,221,223,225,-1,-1,227,229,231,233,235,237,239,241,-1,243,245,-1,247,249,251,253,255,257,259,261,263,265,267,269,271,273,275,277,279,281,283,285,287,289,291,293,295,297,299,301,303,305,-1,-1,-1,-1,307,-1,-1,-1,-1,-1,-1,-1,-1,-1,-1,-1,-1,-1,-1,-1,-1,-1,-1,-1,-1,-1,-1,-1,-1,-1,-1,-1,-1,-1,-1,-1,-1,-1,-1,-1,-1,-1,-1,-1,-1,-1,-1,-1,-1,-1,-1,-1,-1,-1,-1,-1,-1,-1,-1,-1,-1,-1,-1,-1,-1,-1,-1,-1,-1,-1,-1,-1,-1,-1,-1,-1,-1,-1,-1,-1,-1,-1,-1,-1,-1,-1,-1,-1,-1,-1,-1,-1,-1,-1,-1,-1,-1,-1,-1,-1,-1,-1,-1,-1,-1,-1,-1,-1,-1,-1,-1,-1,-1,-1,-1,-1,-1,-1,-1,-1,-1,-1,-1,-1,-1,-1,-1,-1],"loss_changes":[1.1574733E3,1.3588507E2,9.9776953E2,2.2035095E1,9.693144E1,9.745049E2,5.6022552E1,1.1184509E1,1.4797575E1,1.0828554E2,8.354675E0,1.8246646E2,1.4984907E3,5.350647E0,1.5613297E2,3.090088E0,1.8623192E1,2.4378786E1,6.001474E0,1.6591797E1,1.2484468E2,6.757111E0,6.5792236E0,9.679489E1,1.528998E2,8.7705444E2,1.299268E2,7.9940376E0,3.6160278E0,1.5104973E1,8.554619E1,0E0,2.7526855E0,5.196205E0,1.7953974E1,5.6296736E-2,2.5857418E1,6.806857E0,5.8970547E-1,7.837454E0,2.0134548E1,9.562319E0,1.0843132E2,0E0,0E0,3.909729E0,1.4643709E1,2.1267458E1,8.9401855E1,7.542645E1,9.660837E1,1.8514078E2,1.125856E3,3.823663E1,1.3661578E2,0E0,0E0,4.9127207E0,1.7113647E0,5.0147285E0,1.9868294E1,2.9343114E0,5.453279E1,0E0,2.3119507E0,2.4725418E0,2.5779002E0,4.5731316E0,2.2071995E1,0E0,0E0,0E0,0E0,0E0,0E0,0E0,0E0,6.5897713E0,8.221885E0,2.384312E1,5.078248E0,5.085655E0,1.3072671E1,8.011136E1,3.636901E1,0E0,3.655365E0,3.2313168E1,8.832996E0,9.987743E0,2.689493E1,1.4217199E1,1.01512665E2,2.1874205E1,6.729895E1,8.645904E1,1.6389618E1,1.2813489E2,1.5081654E1,4.164585E2,1.9103485E2,4.911138E1,2.0199348E1,1.0340445E2,2.1701843E1,1.6287374E0,0E0,2.1436192E-1,7.6864624E-1,1.2164803E0,3.4037283E-1,7.4481034E0,8.611406E0,0E0,0E0,0E0,1.6152222E1,0E0,1.4187012E0,2.2123718E0,0E0,0E0,0E0,0E0,3.0511532E0,5.2589717E0,2.6588297E1,6.295168E0,4.0728683E0,1.995743E1,3.2592707E0,2.2501993E1,2.964077E0,6.35318E0,3.144205E0,1.91557E0,7.1697426E-1,0E0,0E0,8.7138E1,2.6894234E1,5.3908722E1,5.015944E0,1.409317E0,5.5473477E-1,3.4413887E1,8.012624E0,0E0,5.9839582E0,7.76557E0,0E0,1.0422732E1,3.0175003E1,2.1217985E1,2.130704E0,7.423687E1,8.095441E1,3.2113075E1,1.2869387E1,5.9178528E1,4.1934532E1,3.601602E1,9.154709E1,2.696711E1,7.1072845E0,9.574805E1,4.2319767E1,5.311142E0,1.4852457E1,2.8688211E1,2.72208E2,1.2509891E2,3.4496983E1,4.868844E0,3.8085625E1,2.5237335E1,1.2899956E1,3.8186302E1,5.766092E1,2.2707256E1,1.2880745E1,0E0,0E0,0E0,0E0,4.348755E-1,0E0,0E0,0E0,0E0,0E0,0E0,0E0,0E0,0E0,0E0,0E0,0E0,0E0,0E0,0E0,0E0,0E0,0E0,0E0,0E0,0E0,0E0,0E0,0E0,0E0,0E0,0E0,0E0,0E0,0E0,0E0,0E0,0E0,0E0,0E0,0E0,0E0,0E0,0E0,0E0,0E0,0E0,0E0,0E0,0E0,0E0,0E0,0E0,0E0,0E0,0E0,0E0,0E0,0E0,0E0,0E0,0E0,0E0,0E0,0E0,0E0,0E0,0E0,0E0,0E0,0E0,0E0,0E0,0E0,0E0,0E0,0E0,0E0,0E0,0E0,0E0,0E0,0E0,0E0,0E0,0E0,0E0,0E0,0E0,0E0,0E0,0E0,0E0,0E0,0E0,0E0,0E0,0E0,0E0,0E0,0E0,0E0,0E0,0E0,0E0,0E0,0E0,0E0,0E0,0E0,0E0,0E0,0E0,0E0,0E0,0E0,0E0,0E0,0E0,0E0,0E0,0E0,0E0,0E0,0E0,0E0,0E0,0E0],"parents":[2147483647,0,0,1,1,2,2,3,3,4,4,5,5,6,6,7,7,8,8,9,9,10,10,11,11,12,12,13,13,14,14,15,15,16,16,17,17,18,18,19,19,20,20,21,21,22,22,23,23,24,24,25,25,26,26,27,27,28,28,29,29,30,30,32,32,33,33,34,34,35,35,36,36,37,37,38,38,39,39,40,40,41,41,42,42,45,45,46,46,47,47,48,48,49,49,50,50,51,51,52,52,53,53,54,54,57,57,58,58,59,59,60,60,61,61,62,62,64,64,65,65,66,66,67,67,68,68,77,77,78,78,79,79,80,80,81,81,82,82,83,83,84,84,86,86,87,87,88,88,89,89,90,90,91,91,92,92,93,93,94,94,95,95,96,96,97,97,98,98,99,99,100,100,101,101,102,102,103,103,104,104,105,105,107,107,108,108,109,109,110,110,111,111,112,112,116,116,118,118,119,119,124,124,125,125,126,126,127,127,128,128,129,129,130,130,131,131,132,132,133,133,134,134,135,135,136,136,139,139,140,140,141,141,142,142,143,143,144,144,145,145,146,146,148,148,149,149,151,151,152,152,153,153,154,154,155,155,156,156,157,157,158,158,159,159,160,160,161,161,162,162,163,163,164,164,165,165,166,166,167,167,168,168,169,169,170,170,171,171,172,172,173,173,174,174,175,175,176,176,177,177,178,178,179,179,180,180,185,185],"right_children":[2,4,6,8,10,12,14,16,18,20,22,24,26,28,30,32,34,36,38,40,42,44,46,48,50,52,54,56,58,60,62,-1,64,66,68,70,72,74,76,78,80,82,84,-1,-1,86,88,90,92,94,96,98,100,102,104,-1,-1,106,108,110,112,114,116,-1,118,120,122,124,126,-1,-1,-1,-1,-1,-1,-1,-1,128,130,132,134,136,138,140,142,-1,144,146,148,150,152,154,156,158,160,162,164,166,168,170,172,174,176,178,180,182,-1,184,186,188,190,192,194,-1,-1,-1,196,-1,198,200,-1,-1,-1,-1,202,204,206,208,210,212,214,216,218,220,222,224,226,-1,-1,228,230,232,234,236,238,240,242,-1,244,246,-1,248,250,252,254,256,258,260,262,264,266,268,270,272,274,276,278,280,282,284,286,288,290,292,294,296,298,300,302,304,306,-1,-1,-1,-1,308,-1,-1,-1,-1,-1,-1,-1,-1,-1,-1,-1,-1,-1,-1,-1,-1,-1,-1,-1,-1,-1,-1,-1,-1,-1,-1,-1,-1,-1,-1,-1,-1,-1,-1,-1,-1,-1,-1,-1,-1,-1,-1,-1,-1,-1,-1,-1,-1,-1,-1,-1,-1,-1,-1,-1,-1,-1,-1,-1,-1,-1,-1,-1,-1,-1,-1,-1,-1,-1,-1,-1,-1,-1,-1,-1,-1,-1,-1,-1,-1,-1,-1,-1,-1,-1,-1,-1,-1,-1,-1,-1,-1,-1,-1,-1,-1,-1,-1,-1,-1,-1,-1,-1,-1,-1,-1,-1,-1,-1,-1,-1,-1,-1,-1,-1,-1,-1,-1,-1,-1,-1,-1,-1],"split_conditions":[-3.2910863E-1,-5.087394E-1,5.2185243E-1,1.308049E0,-1.4293936E-1,1.6789293E-1,-7.95932E-2,9.741763E-2,1.0344048E-1,6.1487275E-1,-9.7244996E-1,-6.321294E-1,3.9339417E-1,-2.7741914E0,5.6504166E-1,-1.7415565E0,2.3766965E-1,-3.2719767E-1,-1.1893804E0,-1.3730864E-1,-4.9693286E-1,-6.825501E-1,-7.627518E-2,-2.1362972E-1,-9.452366E-1,-3.140047E-1,9.022608E-2,-6.3630843E-1,-1.6102245E-1,3.397641E-1,1.088876E-2,-0E0,-2.003483E0,1.4480287E0,-7.6153E-1,-3.6211875E-1,-5.591057E-1,4.636323E-1,1.2630619E0,5.929395E-1,1.5783447E-1,1.8552957E-3,-4.0270305E-1,-1.5081394E-1,-0E0,-1.5367452E0,4.8456302E-1,2.7132645E-1,-1.2668383E0,-5.118442E-1,7.466733E-1,5.393176E-3,3.451062E-1,-3.639298E-1,5.4366213E-1,4.2253755E-2,-1.6374393E-1,1.4257668E-1,-2.927982E0,1.5464647E0,-1.3900548E-1,8.717891E-1,2.3923746E-1,-0E0,-9.6450764E-1,2.5205567E0,7.3077154E-1,-1.2146816E0,1.9172819E-1,-0E0,1.0404225E-2,-0E0,-4.1844416E-1,-1.5081394E-1,2.1294148E-3,6.361602E-2,-0E0,-1.3746843E0,6.6798E-2,6.4159524E-1,7.7394345E-3,4.3472536E-2,-4.5396242E-1,4.1119245E-1,-7.702106E-1,-0E0,1.7251875E0,-6.0579574E-1,1.7479983E-1,2.741536E-1,7.665526E-1,-1.3798586E-1,-7.2822005E-1,-2.625825E-1,3.5394385E-1,6.851546E-3,-7.6658326E-1,6.1385584E-1,2.828162E-1,-9.338921E-1,8.334675E-1,2.4090659E-2,4.5430135E-2,4.0459168E-1,-9.8951274E-1,1.1045371E0,-1.0104447E-1,-1.0509217E0,1.7478827E-1,-1.5611624E0,1.3177638E-1,-3.5020557E-1,-4.477651E-1,-1.0104447E-1,2.8304266E-2,-0E0,4.734497E-2,-0E0,-1.0010258E0,-3.031582E0,-0E0,1.894859E-2,-1.0104447E-1,-6.8574605E-5,1.8382544E-2,-7.446015E-1,-5.5208195E-2,-1.9833776E-1,1.4198889E0,-5.782008E-1,-1.0530218E0,-6.010433E-1,-2.8278977E-1,-3.9196867E-1,-1.6051506E0,-1.7707251E-2,-1.3764938E0,-2.3700245E-1,-0E0,-1.2353058E-1,-1.9902074E-1,8.692671E-1,2.5817388E-1,1.6862682E0,5.2899194E-1,-5.561929E-1,-3.9157677E-1,7.271107E-2,-3.1059596E-1,-2.4366204E-1,-1.2310074E-1,8.5973704E-1,-5.269277E-1,-3.7056375E-1,-3.2573918E-1,-7.9331017E-1,2.9091528E-1,3.9958265E-1,-5.4241866E-1,-1.8221532E0,7.914413E-1,-1.05886206E-1,3.3526042E-1,-6.9353384E-1,-1.5535053E0,-6.625203E-1,1.5699658E0,1.4513585E-1,5.8888584E-1,-1.29303E-1,-7.013855E-1,1.4938986E-2,9.0400435E-2,5.5325615E-1,-3.5225028E-1,4.5041773E-1,-9.523378E-1,-4.0224828E-2,6.953473E-1,2.5852594E-1,-8.429382E-1,5.3430554E-2,-0E0,1.894859E-2,-0E0,3.3473313E0,-0E0,-0E0,7.283951E-2,-3.834499E-2,-0E0,-9.316301E-2,5.536833E-2,-0E0,-3.5184234E-1,-5.739156E-1,-3.834499E-2,-0E0,7.518998E-2,-0E0,7.1780175E-2,-0E0,6.8511665E-2,-5.8238104E-2,4.3695197E-2,-2.4838503E-1,-0E0,3.564349E-2,-8.946854E-2,6.424918E-2,-0E0,1.2011817E-2,-1.8478152E-1,-0E0,5.9300747E-2,-1.6142446E-1,-1.8369397E-2,-0E0,5.877915E-2,1.7025875E-2,-1.3745688E-1,-0E0,6.047386E-2,-0E0,-8.740667E-2,-0E0,6.835948E-2,-0E0,-4.7069782E-1,7.972001E-3,-2.2999883E-1,-2.5127825E-1,1.4451108E-2,3.9704222E-2,-5.342476E-2,7.344357E-2,-0E0,1.894859E-2,-3.834499E-2,2.403878E-2,-2.3076235E-1,-0E0,6.4626515E-2,-0E0,-1.6374393E-1,-1.9148385E-2,4.412766E-2,2.3122301E-2,-1.8323916E-1,-2.0893676E-2,-2.7660677E-1,3.4060337E-2,-1.5237613E-1,-0E0,6.1887313E-2,-1.6436103E-1,5.0304155E-3,-3.0662304E-1,-6.520637E-3,-1.6000207E-1,7.282378E-3,3.5920396E-2,-9.471824E-3,-0E0,-1.4814566E-1,1.6774022E-3,-1.6227853E-1,4.75819E-2,-2.7137496E-2,-1.2029148E-1,1.24339545E-2,4.1414257E-2,-1.0572478E-1,-0E0,6.4445E-2,-2.797918E-1,-8.878598E-2,2.447411E-2,-2.2936939E-1,6.672154E-2,-0E0,1.7084882E-2,-1.3192163E-1,2.7630309E-2,-2.0783062E-1,-1.6121702E-1,-4.9901426E-1,-2.7584496E-1,-5.8962066E-2,-2.4544781E-1,3.7535314E-2,5.5619117E-2,-3.4440603E-2,-0E0,-3.200199E-1,4.7000907E-2,-5.6890756E-2,-0E0,6.511172E-2,-1.5914597E-1,5.1431926E-3,-3.586055E-1,-0E0,-2.662857E-1,-0E0,-1.1495353E-1,5.532623E-2,7.343413E-2,-0E0],"split_indices":[113,106,181,18,27,3,2,421,16,3,202,61,53,58,3,192,25,454,188,83,71,54,440,52,181,2,45,2,356,66,442,0,206,469,106,0,248,67,2,119,369,136,384,0,0,480,356,110,2,52,4,197,61,180,61,0,0,360,184,421,200,181,1,0,284,430,45,209,440,0,0,0,0,0,0,0,0,27,172,149,83,249,155,53,4,0,273,352,2,318,200,356,3,23,61,218,188,33,18,78,40,58,61,38,40,66,0,2,179,373,12,296,8,0,0,0,422,0,459,74,0,0,0,0,485,352,267,414,31,395,247,379,261,524,217,66,23,0,0,2,45,172,283,287,21,30,431,0,115,146,0,194,346,211,202,356,47,417,58,3,26,137,2,358,12,95,118,179,258,251,38,53,2,81,358,18,88,177,39,476,402,0,0,0,0,76,0,0,0,0,0,0,0,0,0,0,0,0,0,0,0,0,0,0,0,0,0,0,0,0,0,0,0,0,0,0,0,0,0,0,0,0,0,0,0,0,0,0,0,0,0,0,0,0,0,0,0,0,0,0,0,0,0,0,0,0,0,0,0,0,0,0,0,0,0,0,0,0,0,0,0,0,0,0,0,0,0,0,0,0,0,0,0,0,0,0,0,0,0,0,0,0,0,0,0,0,0,0,0,0,0,0,0,0,0,0,0,0,0,0,0,0,0,0,0,0,0,0,0],"split_type":[0,0,0,0,0,0,0,0,0,0,0,0,0,0,0,0,0,0,0,0,0,0,0,0,0,0,0,0,0,0,0,0,0,0,0,0,0,0,0,0,0,0,0,0,0,0,0,0,0,0,0,0,0,0,0,0,0,0,0,0,0,0,0,0,0,0,0,0,0,0,0,0,0,0,0,0,0,0,0,0,0,0,0,0,0,0,0,0,0,0,0,0,0,0,0,0,0,0,0,0,0,0,0,0,0,0,0,0,0,0,0,0,0,0,0,0,0,0,0,0,0,0,0,0,0,0,0,0,0,0,0,0,0,0,0,0,0,0,0,0,0,0,0,0,0,0,0,0,0,0,0,0,0,0,0,0,0,0,0,0,0,0,0,0,0,0,0,0,0,0,0,0,0,0,0,0,0,0,0,0,0,0,0,0,0,0,0,0,0,0,0,0,0,0,0,0,0,0,0,0,0,0,0,0,0,0,0,0,0,0,0,0,0,0,0,0,0,0,0,0,0,0,0,0,0,0,0,0,0,0,0,0,0,0,0,0,0,0,0,0,0,0,0,0,0,0,0,0,0,0,0,0,0,0,0,0,0,0,0,0,0,0,0,0,0,0,0,0,0,0,0,0,0,0,0,0,0,0,0,0,0,0,0,0,0,0,0,0,0,0,0,0,0,0,0,0,0,0,0,0,0,0,0,0,0,0,0,0,0],"sum_hessian":[3.2645476E3,1.2622406E3,2.002307E3,8.281E2,4.3414062E2,1.5667965E3,4.3551044E2,8.0517834E2,2.2921602E1,2.286681E2,2.0547253E2,9.504703E2,6.163263E2,3.6692828E2,6.858217E1,6.6691815E2,1.3826018E2,6.0271945E0,1.689441E1,1.5588516E2,7.2782936E1,4.200772E0,2.0127176E2,1.6565652E2,7.848138E2,3.5861807E2,2.5770822E2,5.6619096E0,3.612664E2,5.8080235E1,1.0501929E1,2.7396338E0,6.641785E2,9.5887184E1,4.2373E1,3.3788817E0,2.6483126E0,3.4702027E0,1.3424206E1,8.7942245E1,6.794292E1,2.7031054E1,4.5751884E1,1.3698169E0,2.8309548E0,1.2163974E2,7.963202E1,6.611649E1,9.954002E1,2.9980725E2,4.850065E2,1.3122845E2,2.273896E2,1.8255093E2,7.515729E1,4.6573772E0,1.0045323E0,8.9494705E0,3.523169E2,4.703038E1,1.1049856E1,4.292093E0,6.2098365E0,1.2784958E0,6.629E2,9.214301E1,3.7441661E0,2.356085E1,1.8812151E1,1.0045323E0,2.3743494E0,1.0958536E0,1.5524591E0,1.3698169E0,2.100386E0,1.2419673E1,1.0045323E0,6.976934E1,1.8172903E1,3.9542046E1,2.840087E1,2.346953E1,3.561524E0,1.8903473E1,2.6848412E1,1.7351013E0,1.1990464E2,3.5980522E1,4.3651497E1,4.136847E1,2.4748026E1,2.1277822E1,7.826221E1,1.590814E2,1.4072586E2,2.4035721E2,2.4464929E2,8.319354E1,4.8034912E1,1.3643376E2,9.095584E1,1.6529123E1,1.660218E2,3.9359406E1,3.5797882E1,7.9449377E0,1.0045323E0,3.7441661E0,3.4857272E2,4.4747353E1,2.2830281E0,9.0407915E0,2.0090647E0,1.0045323E0,3.2875605E0,1.1871747E0,5.0226617E0,1.6437802E0,6.612563E2,9.086452E1,1.2784958E0,2.7396338E0,1.0045323E0,1.5524591E0,2.200839E1,1.1415141E1,7.3970113E0,8.310223E0,6.1459118E1,7.8536167E0,1.0319287E1,2.8035585E1,1.1506462E1,4.109451E0,2.429142E1,2.922276E0,2.0547253E1,1.1871747E0,2.3743494E0,1.1597783E1,7.30569E0,1.2602315E1,1.4246096E1,1.1616047E2,3.7441661E0,8.036259E0,2.7944265E1,4.1003185E1,2.6483126E0,3.9450726E1,1.9177437E0,1.3150242E1,1.1597783E1,9.3147545E0,1.1963067E1,4.5751884E1,3.2510323E1,1.8264225E1,1.4081717E2,7.990598E1,6.081987E1,1.4520059E2,9.515662E1,3.342353E1,2.1122577E2,5.6893063E1,2.6300484E1,3.744166E1,1.059325E1,1.1871746E1,1.2456201E2,5.671042E1,3.4245422E1,9.954002E0,6.575121E0,4.5203957E1,1.2081785E2,2.3743492E1,1.5615912E1,4.0181293E0,3.177975E1,6.9404054E0,1.0045323E0,2.7396338E0,1.0045323E0,3.474769E2,1.0958536E0,2.3743494E0,4.2373E1,1.0045323E0,1.2784958E0,1.461138E0,7.5796533E0,1.0045323E0,1.0045323E0,4.0181293E0,1.0045323E0,2.3743494E0,6.588819E2,1.5524591E0,8.931206E1,2.100386E0,1.9908005E1,2.3743494E0,9.0407915E0,4.109451E0,3.2875605E0,5.5705886E0,2.7396338E0,5.7349667E1,4.109451E0,4.5660563E0,3.2875605E0,1.0045323E0,9.3147545E0,9.4060755E0,1.8629509E1,2.4656703E0,9.0407915E0,2.6483126E0,1.461138E0,1.5524591E0,2.273896E1,1.8264225E0,1.0958536E0,1.0045323E0,1.954272E1,1.6437802E0,9.954002E0,4.292093E0,3.0135972E0,7.8536167E0,4.7486987E0,1.1780425E1,2.4656703E0,1.1387744E2,2.2830281E0,2.7396338E0,1.0045323E0,3.0135972E0,5.0226617E0,8.766829E0,1.9177437E1,1.6437802E0,1.0045323E0,9.1321125E0,3.0318613E1,1.1963067E1,1.1871747E0,6.8490844E0,4.7486987E0,3.7441661E0,5.5705886E0,1.0045323E0,1.0958535E1,2.5295952E1,2.0455933E1,2.6117842E1,6.392479E0,1.0045323E1,8.218902E0,4.1094505E1,9.972267E1,1.6620445E1,6.328554E1,5.2600967E1,8.218902E0,1.0492797E2,4.0272617E1,5.196172E1,4.3194893E1,2.6026522E1,7.3970113E0,1.2328352E1,1.9889742E2,3.0409935E1,2.6483126E1,2.2830282E1,3.4702027E0,3.0135971E1,7.30569E0,6.1185155E0,4.4747353E0,8.85815E0,3.0135972E0,1.4337417E1,1.102246E2,3.2510323E1,2.4200098E1,2.0090647E0,3.223636E1,7.6709747E0,2.2830281E0,2.0090647E0,4.5660563E0,2.6300484E1,1.8903473E1,1.1597783E1,1.0922007E2,1.0958535E1,1.2784958E1,1.3332885E1,2.2830281E0,2.2830281E0,1.7351013E0,1.6437802E0,3.0135971E1,3.4610706E2,1.3698169E0],"tree_param":{"num_deleted":"0","num_feature":"525","num_nodes":"309","size_leaf_vector":"1"}},{"base_weights":[1.3985266E-2,-3.2731676E-1,9.060303E-1,2.0564356E-1,-1.1008368E0,2.0416251E-1,9.781496E-1,7.560348E-1,-1.1518705E-1,1.11285865E-1,-1.5954434E0,-2.9154298E0,3.867603E-1,1.0500696E0,7.211495E-1,9.6353847E-1,2.1176864E-1,1.3003682E-1,-1.1362749E0,8.724223E-1,-4.22271E-1,-7.7238715E-1,-2.5261083E0,-4.75506E0,-0E0,7.9359394E-1,-4.796358E-1,1.0545106E0,-0E0,1.0499656E0,1.9352396E-1,1.0090564E0,4.3571163E-2,-5.066403E-1,6.600504E-1,-0E0,8.037677E-1,-3.721573E-1,-2.0943048E0,9.97363E-1,-0E0,-1.7324902E0,-6.4151265E-2,-1.225362E0,-3.4917276E-2,-1.2215748E-1,-3.2318068E0,-4.2851934E-1,-2.6452722E-2,-2.5815433E-2,8.5694253E-1,7.8550285E-1,-2.1774392E0,-0E0,1.057504E0,-0E0,1.3732666E-2,-0E0,1.0759963E0,5.19096E-1,-2.2400355E0,-0E0,1.0198826E0,6.8426394E-1,-7.3592526E-1,3.582891E-1,-1.2895342E0,-0E0,8.78669E-1,-4.625596E-1,1.9513242E-1,9.778544E-2,9.290164E-1,-1.1964442E0,6.107891E-2,-9.033872E-2,-3.06749E0,-2.2428794E-2,1.0347537E0,-1.3993338E0,4.6736795E-1,5.355562E-1,-2.4554064E0,-8.899766E-1,3.1710935E-1,-2.081134E0,-6.727276E-1,1.18753046E-1,-1.9141754E0,-1.4007624E0,7.7646565E-1,-3.865524E0,-1.1519023E0,9.470323E-1,-0E0,-0E0,6.326586E-2,-3.6542063E0,3.546279E-2,-0E0,1.0590167E0,7.4748136E-2,-0E0,7.6120377E-1,-1.8573632E0,-3.6610732E0,-0E0,-3.8764503E-2,-0E0,1.0354998E0,-0E0,-0E0,6.190978E-2,-0E0,-2.4178338E0,-8.437281E-1,7.408765E-1,7.1922946E-1,-2.211142E0,-1.5718597E0,4.0282175E-1,-0E0,9.681983E-1,-0E0,-2.0582848E0,-2.6860812E-1,5.587383E-1,4.8526433E-1,-1.0271341E0,-0E0,9.5825267E-1,-1.8126766E-1,-2.2391338E0,-5.8416605E-1,4.050932E-1,1.5736473E-1,-3.5433588E0,-0E0,-4.0146565E0,1.0535305E0,-0E0,-0E0,-3.4622838E0,5.313316E-2,-0E0,5.1977836E-2,-0E0,-0E0,-3.3236632E0,-1.4473186E0,7.73876E-1,-2.708886E-1,7.1983093E-1,-2.4557724E0,2.0733845E-1,-1.7333808E0,-2.6699764E-1,-1.8005978E-1,5.067164E-1,-3.2329319E0,-0E0,-3.3195086E0,-0E0,-3.241026E-1,9.0440315E-1,-2.1147091E0,-4.5928164E0,-2.3016737E0,1.08998396E-1,9.822523E-1,-0E0,3.1811204E-2,-9.228562E-2,-1.3314809E-1,-5.462801E0,-0E0,2.2718502E-2,-0E0,1.0634462E0,1.14728004E-1,7.229378E-2,-0E0,-4.015169E0,-4.748568E0,-0E0,7.1916476E-2,-0E0,-7.767498E-2,4.6482455E-2,2.8847594E-2,-0E0,-0E0,-2.8181922E-1,-1.8010575E-1,3.399219E-3,-0E0,6.315139E-2,-0E0,5.4964166E-2,3.0271985E-2,-2.1750762E-1,-2.4854495E-1,-0E0,5.3450264E-2,-3.0934501E-2,-1.08845435E-1,7.028197E-3,7.052846E-2,-0E0,2.3479562E-2,-4.2159997E-2,2.7690716E-2,-2.0501451E-1,-6.722208E-2,2.970142E-3,4.2026382E-2,-2.898505E-2,-2.5560232E-3,5.800447E-2,-0E0,-2.4464378E-1,6.87169E-2,-0E0,-1.3793841E-1,2.90736E-2,-3.2467654E-1,-4.95693E-2,-0E0,-1.2275346E-1,3.9485462E-2,-6.1466787E-2,-4.619074E-2,4.5821466E-2,-0E0,-3.6080787E-1,-1.6177918E-1,4.4466402E-2,-1.0334929E-1,-3.436964E-1,-0E0,7.387561E-2,-0E0,-4.0312636E-1,3.680377E-2,-1.8603937E-1,-2.801984E-1,-0E0,-7.1418025E-2,-3.676436E-1,-0E0,5.853192E-2,4.8643333E-4,-1.1804862E-1,6.126791E-2,-0E0,-2.6364544E-1,-1.0852203E-1,5.877463E-2,-8.682868E-2,-1.8364672E-1,-3.046024E-2,-5.9516583E-2,2.9147469E-2,-0E0,-1.4346097E-1,-0E0,5.9367888E-2,-3.2620612E-1,-0E0,-0E0,2.807841E-2,-0E0,-2.9554453E-1,5.216682E-2,-9.631129E-2,-1.5335563E-1,-0E0,6.711123E-2,-0E0,-1.8559478E-1,-0E0,-3.3608568E-1,-8.3084464E-2,-2.0482236E-1,-0E0,-2.2919622E-1,2.5436245E-2,-0E0,7.011827E-2,-1.3885388E-1,-0E0,-0E0,-4.5279473E-1,-0E0,3.1206705E-2,7.3372915E-2,-0E0,5.6972496E-2,-3.7681773E-2,-0E0,-4.0464205E-1,-0E0,-4.0967134E-1],"categories":[],"categories_nodes":[],"categories_segments":[],"categories_sizes":[],"default_left":[0,0,0,0,0,0,0,0,0,0,0,0,0,0,0,0,0,0,0,0,0,0,0,0,0,0,0,0,0,0,0,0,0,0,0,0,0,0,0,0,0,0,0,0,0,0,0,0,0,0,0,0,0,0,0,0,0,0,0,0,0,0,0,0,0,0,0,0,0,0,0,0,0,0,0,0,0,0,0,0,0,0,0,0,0,0,0,0,0,0,0,0,0,0,0,0,0,0,0,0,0,0,0,0,0,0,0,0,0,0,0,0,0,0,0,0,0,0,0,0,0,0,0,0,0,0,0,0,0,0,0,0,0,0,0,0,0,0,0,0,0,0,0,0,0,0,0,0,0,0,0,0,0,0,0,0,0,0,0,0,0,0,0,0,0,0,0,0,0,0,0,0,0,0,0,0,0,0,0,0,0,0,0,0,0,0,0,0,0,0,0,0,0,0,0,0,0,0,0,0,0,0,0,0,0,0,0,0,0,0,0,0,0,0,0,0,0,0,0,0,0,0,0,0,0,0,0,0,0,0,0,0,0,0,0,0,0,0,0,0,0,0,0,0,0,0,0,0,0,0,0,0,0,0,0,0,0,0,0,0,0,0,0,0,0,0,0,0,0,0,0,0,0,0,0,0,0,0,0,0,0,0,0,0,0,0,0,0,0,0,0,0,0,0,0,0,0,0,0,0,0,0,0],"id":1,"left_children":[1,3,5,7,9,11,13,15,17,19,21,23,25,27,29,31,33,35,37,39,41,43,45,47,-1,49,51,53,55,57,59,61,63,65,67,69,71,73,75,77,79,81,83,85,87,89,91,-1,-1,-1,93,95,97,-1,99,-1,-1,-1,101,103,105,107,109,111,113,115,117,119,121,123,125,127,129,131,133,135,137,-1,139,141,143,145,147,149,151,153,155,157,159,161,163,165,167,169,171,-1,-1,173,175,-1,177,-1,-1,179,181,183,-1,-1,-1,185,187,-1,-1,189,191,193,195,197,199,201,203,205,207,209,211,213,215,217,219,-1,221,223,225,227,229,231,233,235,237,239,-1,-1,241,-1,-1,-1,-1,243,245,247,249,251,253,255,257,259,261,263,265,267,269,271,273,275,277,279,281,283,285,287,-1,-1,-1,289,291,-1,-1,293,295,297,-1,-1,299,301,-1,-1,-1,-1,-1,-1,-1,-1,-1,-1,-1,-1,-1,-1,-1,-1,-1,-1,-1,-1,-1,-1,-1,-1,-1,-1,-1,-1,-1,-1,-1,-1,-1,-1,-1,-1,-1,-1,-1,-1,-1,-1,-1,-1,-1,-1,-1,-1,-1,-1,-1,-1,-1,-1,-1,-1,-1,-1,-1,-1,-1,-1,-1,-1,-1,-1,-1,-1,-1,-1,-1,-1,-1,-1,-1,-1,-1,-1,-1,-1,-1,-1,-1,-1,-1,-1,-1,-1,-1,-1,-1,-1,-1,-1,-1,-1,-1,-1,-1,-1,-1,-1,-1,-1,-1,-1,-1,-1,-1,-1,-1,-1,-1,-1,-1,-1,-1,-1,-1],"loss_changes":[9.9675275E2,9.761886E2,4.3188416E1,2.4821115E2,5.8233496E2,4.4225536E1,1.1048828E1,5.572354E1,2.2270847E2,1.14203E2,5.1868896E2,2.9208248E1,3.0166859E1,1.9349365E0,2.9483086E1,1.3158325E1,4.7366234E1,6.169348E1,1.2043288E2,1.4797241E1,7.197153E1,1.1943083E2,5.3719165E2,3.0739975E0,0E0,5.462887E0,5.6899696E1,1.2766724E0,1.0396649E-1,3.2622833E0,5.5071632E1,5.4931946E0,9.898299E0,3.8836388E1,1.4671555E1,5.3522793E1,7.7430725E0,3.7318333E1,1.3925784E2,6.7907944E0,1.0254481E1,5.929767E1,4.1869274E1,9.9969666E1,4.4904842E1,8.621437E1,3.1447314E2,0E0,0E0,0E0,4.80933E0,2.1998234E0,4.5619144E1,0E0,7.520752E-1,0E0,0E0,0E0,8.978882E-1,3.586783E1,2.9342575E1,3.4659326E-1,3.7060547E0,3.1302953E0,1.3828203E1,1.1060692E1,5.8760544E1,1.5310882E1,7.4123726E0,1.2880283E2,7.125305E1,7.542385E0,3.7484436E0,3.185223E1,1.3386839E1,2.9470984E1,1.3604794E2,0E0,2.6686707E0,1.7265411E1,2.3709233E0,1.5178792E0,4.9940155E1,4.111677E1,2.1469309E1,7.938449E1,5.497132E1,1.5774186E1,3.5472195E1,8.591077E1,7.3019924E0,2.2434082E2,9.021889E1,2.4250183E0,3.586172E0,0E0,0E0,3.485212E1,3.271885E-1,0E0,7.230835E-1,0E0,0E0,8.749256E0,2.5018091E1,2.1848167E1,0E0,0E0,0E0,3.65271E0,4.6574535E0,0E0,0E0,6.006937E-1,1.3611254E1,1.2965655E1,3.7355137E0,3.9419222E-1,5.9565414E1,1.9852528E1,5.8747454E0,3.5796187E0,3.641571E0,2.859444E1,9.45972E1,4.207699E1,1.2370903E1,4.8954573E0,1.1879069E1,0E0,3.9317093E0,2.4648329E1,4.865934E1,1.6239359E1,8.656069E0,9.773467E0,4.6269855E0,2.2536898E1,7.641199E1,1.0229568E0,0E0,0E0,1.2708994E1,0E0,0E0,0E0,0E0,1.4624249E1,4.9139755E1,3.763616E1,4.7198915E-1,1.7046299E1,8.08227E0,7.803E1,9.9947605E0,3.704007E1,4.2947186E1,2.5947021E1,1.2301152E1,3.5323357E1,5.5900955E-1,4.7961212E1,1.9111317E1,5.3675303E0,3.8643456E0,7.231073E1,1.1359888E2,5.1190826E1,1.7702518E1,1.4883766E0,0E0,0E0,0E0,4.885266E0,1.5313782E1,0E0,0E0,7.463402E-1,6.1816406E-1,1.0766853E1,0E0,0E0,1.4845692E1,1.2538528E1,0E0,0E0,0E0,0E0,0E0,0E0,0E0,0E0,0E0,0E0,0E0,0E0,0E0,0E0,0E0,0E0,0E0,0E0,0E0,0E0,0E0,0E0,0E0,0E0,0E0,0E0,0E0,0E0,0E0,0E0,0E0,0E0,0E0,0E0,0E0,0E0,0E0,0E0,0E0,0E0,0E0,0E0,0E0,0E0,0E0,0E0,0E0,0E0,0E0,0E0,0E0,0E0,0E0,0E0,0E0,0E0,0E0,0E0,0E0,0E0,0E0,0E0,0E0,0E0,0E0,0E0,0E0,0E0,0E0,0E0,0E0,0E0,0E0,0E0,0E0,0E0,0E0,0E0,0E0,0E0,0E0,0E0,0E0,0E0,0E0,0E0,0E0,0E0,0E0,0E0,0E0,0E0,0E0,0E0,0E0,0E0,0E0,0E0,0E0,0E0,0E0,0E0,0E0,0E0,0E0,0E0,0E0,0E0,0E0,0E0,0E0,0E0,0E0,0E0,0E0,0E0,0E0,0E0,0E0],"parents":[2147483647,0,0,1,1,2,2,3,3,4,4,5,5,6,6,7,7,8,8,9,9,10,10,11,11,12,12,13,13,14,14,15,15,16,16,17,17,18,18,19,19,20,20,21,21,22,22,23,23,25,25,26,26,27,27,28,28,29,29,30,30,31,31,32,32,33,33,34,34,35,35,36,36,37,37,38,38,39,39,40,40,41,41,42,42,43,43,44,44,45,45,46,46,50,50,51,51,52,52,54,54,58,58,59,59,60,60,61,61,62,62,63,63,64,64,65,65,66,66,67,67,68,68,69,69,70,70,71,71,72,72,73,73,74,74,75,75,76,76,78,78,79,79,80,80,81,81,82,82,83,83,84,84,85,85,86,86,87,87,88,88,89,89,90,90,91,91,92,92,93,93,94,94,97,97,98,98,100,100,103,103,104,104,105,105,109,109,110,110,113,113,114,114,115,115,116,116,117,117,118,118,119,119,120,120,121,121,122,122,123,123,124,124,125,125,126,126,127,127,128,128,130,130,131,131,132,132,133,133,134,134,135,135,136,136,137,137,138,138,139,139,142,142,147,147,148,148,149,149,150,150,151,151,152,152,153,153,154,154,155,155,156,156,157,157,158,158,159,159,160,160,161,161,162,162,163,163,164,164,165,165,166,166,167,167,168,168,169,169,173,173,174,174,177,177,178,178,179,179,182,182,183,183],"right_children":[2,4,6,8,10,12,14,16,18,20,22,24,26,28,30,32,34,36,38,40,42,44,46,48,-1,50,52,54,56,58,60,62,64,66,68,70,72,74,76,78,80,82,84,86,88,90,92,-1,-1,-1,94,96,98,-1,100,-1,-1,-1,102,104,106,108,110,112,114,116,118,120,122,124,126,128,130,132,134,136,138,-1,140,142,144,146,148,150,152,154,156,158,160,162,164,166,168,170,172,-1,-1,174,176,-1,178,-1,-1,180,182,184,-1,-1,-1,186,188,-1,-1,190,192,194,196,198,200,202,204,206,208,210,212,214,216,218,220,-1,222,224,226,228,230,232,234,236,238,240,-1,-1,242,-1,-1,-1,-1,244,246,248,250,252,254,256,258,260,262,264,266,268,270,272,274,276,278,280,282,284,286,288,-1,-1,-1,290,292,-1,-1,294,296,298,-1,-1,300,302,-1,-1,-1,-1,-1,-1,-1,-1,-1,-1,-1,-1,-1,-1,-1,-1,-1,-1,-1,-1,-1,-1,-1,-1,-1,-1,-1,-1,-1,-1,-1,-1,-1,-1,-1,-1,-1,-1,-1,-1,-1,-1,-1,-1,-1,-1,-1,-1,-1,-1,-1,-1,-1,-1,-1,-1,-1,-1,-1,-1,-1,-1,-1,-1,-1,-1,-1,-1,-1,-1,-1,-1,-1,-1,-1,-1,-1,-1,-1,-1,-1,-1,-1,-1,-1,-1,-1,-1,-1,-1,-1,-1,-1,-1,-1,-1,-1,-1,-1,-1,-1,-1,-1,-1,-1,-1,-1,-1,-1,-1,-1,-1,-1,-1,-1,-1,-1,-1,-1],"split_conditions":[4.678962E-1,6.7371994E-2,2.2800319E-1,-3.1125665E-1,-3.541474E-1,-1.1190467E0,-7.7692494E-2,-1.2545767E-1,3.3910567E-1,-4.674743E-1,3.0317742E-1,-2.2739713E-1,-2.8475562E-1,3.1881082E0,-4.1802442E-1,4.02796E-1,4.0268493E-1,9.8118377E-1,2.0588756E-1,-7.334098E-2,-1.7666842E-1,-1.08393945E-1,-1.0240635E0,2.373751E-1,-0E0,-2.3971798E0,-3.5131633E-1,-3.9187374E0,4.5796204E-1,-1.806149E0,1.3019527E0,-2.1478293E0,-7.0104145E-2,-2.1005602E-4,-9.598086E-1,3.5424918E-1,2.7286994E-1,-3.7616158E-1,-2.416289E-1,-1.0272278E0,-6.833234E-1,-9.8851144E-1,-3.867176E-1,-4.1490898E-1,1.3177497E0,6.507342E-1,5.66671E-1,-4.2851934E-1,-2.6452722E-2,-2.5815433E-2,6.0130423E-1,-7.130578E-1,5.05031E-1,-0E0,-3.0645642E0,-0E0,1.3732666E-2,-0E0,2.7981386E0,6.954889E-1,-2.8687835E-1,-6.6081357E-1,1.08639E0,-1.4460602E0,8.4480184E-1,-7.5783277E-1,-6.530901E-1,-3.2630745E-2,-1.2754799E0,5.550445E-1,-1.0443683E0,1.2639314E0,-3.066093E0,-9.987082E-1,-5.380869E-1,1.5437031E0,-4.4388807E-1,-2.2428794E-2,1.6345874E0,5.201125E-1,5.6921774E-1,3.900096E-1,-5.3706974E-1,5.0833446E-1,-9.6075935E-3,5.676175E-1,-8.061994E-1,-3.231538E-1,1.0640055E0,4.4284472E-1,-6.199172E-1,-1.5513135E-1,9.657471E-2,2.7732928E0,-4.1895163E-1,-0E0,6.326586E-2,-2.0701103E-1,-4.565529E-1,-0E0,-2.6955242E0,7.4748136E-2,-0E0,1.1517949E0,8.682512E-2,-1.0842326E-1,-0E0,-3.8764503E-2,-0E0,1.33756E0,-2.3887252E-2,-0E0,6.190978E-2,1.1574853E-2,1.7669633E-1,-3.1727007E-1,-9.35835E-1,-2.7433792E-1,-2.8475562E-1,-3.5944837E-1,1.7840777E-1,-9.8042324E-2,1.4505045E0,-3.2294145E-1,-7.773432E-1,-2.3495214E-2,1.9986287E0,-2.1156837E-1,3.841782E-1,-0E0,1.3078457E0,-1.1051804E0,-5.0419354E-1,2.4110171E-1,-1.1910454E-2,-4.8363256E-1,-3.7198934E-1,-3.9774203E-1,-4.495479E-1,-7.9125506E-1,-0E0,-0E0,-4.5800218E-1,5.313316E-2,-0E0,5.1977836E-2,-0E0,4.011865E-2,6.625185E-1,6.946926E-1,-1.0412067E0,9.9958897E-1,3.9551157E-1,4.5555907E-1,1.1031155E-1,1.2365509E0,3.865002E-1,8.318154E-1,-8.231279E-2,3.9074782E-1,-8.370417E-1,-1.3579043E0,-1.4894916E0,-8.21158E-1,1.4418175E0,5.297259E-1,1.2398351E0,1.0459006E0,-8.379176E-1,-1.7890832E0,-0E0,3.1811204E-2,-9.228562E-2,-7.188693E-1,-6.802279E-1,-0E0,2.2718502E-2,-4.4938484E-1,1.516122E0,4.8643246E-2,7.229378E-2,-0E0,4.070472E-1,-7.36843E-1,-0E0,7.1916476E-2,-0E0,-7.767498E-2,4.6482455E-2,2.8847594E-2,-0E0,-0E0,-2.8181922E-1,-1.8010575E-1,3.399219E-3,-0E0,6.315139E-2,-0E0,5.4964166E-2,3.0271985E-2,-2.1750762E-1,-2.4854495E-1,-0E0,5.3450264E-2,-3.0934501E-2,-1.08845435E-1,7.028197E-3,7.052846E-2,-0E0,2.3479562E-2,-4.2159997E-2,2.7690716E-2,-2.0501451E-1,-6.722208E-2,2.970142E-3,4.2026382E-2,-2.898505E-2,-2.5560232E-3,5.800447E-2,-0E0,-2.4464378E-1,6.87169E-2,-0E0,-1.3793841E-1,2.90736E-2,-3.2467654E-1,-4.95693E-2,-0E0,-1.2275346E-1,3.9485462E-2,-6.1466787E-2,-4.619074E-2,4.5821466E-2,-0E0,-3.6080787E-1,-1.6177918E-1,4.4466402E-2,-1.0334929E-1,-3.436964E-1,-0E0,7.387561E-2,-0E0,-4.0312636E-1,3.680377E-2,-1.8603937E-1,-2.801984E-1,-0E0,-7.1418025E-2,-3.676436E-1,-0E0,5.853192E-2,4.8643333E-4,-1.1804862E-1,6.126791E-2,-0E0,-2.6364544E-1,-1.0852203E-1,5.877463E-2,-8.682868E-2,-1.8364672E-1,-3.046024E-2,-5.9516583E-2,2.9147469E-2,-0E0,-1.4346097E-1,-0E0,5.9367888E-2,-3.2620612E-1,-0E0,-0E0,2.807841E-2,-0E0,-2.9554453E-1,5.216682E-2,-9.631129E-2,-1.5335563E-1,-0E0,6.711123E-2,-0E0,-1.8559478E-1,-0E0,-3.3608568E-1,-8.3084464E-2,-2.0482236E-1,-0E0,-2.2919622E-1,2.5436245E-2,-0E0,7.011827E-2,-1.3885388E-1,-0E0,-0E0,-4.5279473E-1,-0E0,3.1206705E-2,7.3372915E-2,-0E0,5.6972496E-2,-3.7681773E-2,-0E0,-4.0464205E-1,-0E0,-4.0967134E-1],"split_indices":[181,52,356,113,428,492,25,428,45,113,3,452,2,283,2,456,53,349,3,260,180,54,30,469,0,301,421,86,5,133,353,306,423,3,384,53,160,61,2,445,202,522,40,61,500,26,61,0,0,0,200,242,107,0,457,0,0,0,147,463,431,5,251,469,375,356,30,277,320,3,181,449,88,353,405,113,43,0,191,331,131,380,213,204,424,1,356,356,295,33,180,38,53,87,381,0,0,31,261,0,51,0,0,356,213,174,0,0,0,475,436,0,0,55,347,491,270,176,2,148,300,16,18,3,30,61,90,61,1,0,186,204,40,484,52,20,27,409,37,452,0,0,316,0,0,0,0,78,204,358,410,442,478,4,498,352,2,388,484,209,185,44,30,240,405,284,5,47,342,308,0,0,0,418,368,0,0,296,39,414,0,0,442,235,0,0,0,0,0,0,0,0,0,0,0,0,0,0,0,0,0,0,0,0,0,0,0,0,0,0,0,0,0,0,0,0,0,0,0,0,0,0,0,0,0,0,0,0,0,0,0,0,0,0,0,0,0,0,0,0,0,0,0,0,0,0,0,0,0,0,0,0,0,0,0,0,0,0,0,0,0,0,0,0,0,0,0,0,0,0,0,0,0,0,0,0,0,0,0,0,0,0,0,0,0,0,0,0,0,0,0,0,0,0,0,0,0,0,0,0,0,0,0],"split_type":[0,0,0,0,0,0,0,0,0,0,0,0,0,0,0,0,0,0,0,0,0,0,0,0,0,0,0,0,0,0,0,0,0,0,0,0,0,0,0,0,0,0,0,0,0,0,0,0,0,0,0,0,0,0,0,0,0,0,0,0,0,0,0,0,0,0,0,0,0,0,0,0,0,0,0,0,0,0,0,0,0,0,0,0,0,0,0,0,0,0,0,0,0,0,0,0,0,0,0,0,0,0,0,0,0,0,0,0,0,0,0,0,0,0,0,0,0,0,0,0,0,0,0,0,0,0,0,0,0,0,0,0,0,0,0,0,0,0,0,0,0,0,0,0,0,0,0,0,0,0,0,0,0,0,0,0,0,0,0,0,0,0,0,0,0,0,0,0,0,0,0,0,0,0,0,0,0,0,0,0,0,0,0,0,0,0,0,0,0,0,0,0,0,0,0,0,0,0,0,0,0,0,0,0,0,0,0,0,0,0,0,0,0,0,0,0,0,0,0,0,0,0,0,0,0,0,0,0,0,0,0,0,0,0,0,0,0,0,0,0,0,0,0,0,0,0,0,0,0,0,0,0,0,0,0,0,0,0,0,0,0,0,0,0,0,0,0,0,0,0,0,0,0,0,0,0,0,0,0,0,0,0,0,0,0,0,0,0,0,0,0,0,0,0,0,0,0,0,0,0,0,0,0],"sum_hessian":[3.269371E3,2.3628462E3,9.0652496E2,1.3972595E3,9.655866E2,8.7435844E1,8.190891E2,5.171046E2,8.8015497E2,2.7851602E2,6.8707056E2,4.0693097E0,8.336654E1,6.328619E2,1.8622728E2,3.7130084E2,1.4580376E2,7.0798474E2,1.7217023E2,1.1650822E2,1.620078E2,3.6600076E2,3.2106982E2,2.7626653E0,1.3066444E0,5.851696E1,2.4849575E1,6.2928186E2,3.5800095E0,1.1202022E2,7.420706E1,3.5143573E2,1.986512E1,5.4072113E1,9.173164E1,5.940513E2,1.1393348E2,9.716931E1,7.500092E1,1.0399978E2,1.2508441E1,3.333756E1,1.2867024E2,2.2478851E2,1.4121225E2,7.361821E1,2.474516E2,1.6503947E0,1.1122707E0,1.1426835E0,5.737428E1,1.3501952E1,1.1347623E1,2.416513E0,6.2686536E2,1.0574563E0,2.5225532E0,2.5412467E0,1.09478966E2,6.633902E1,7.8680434E0,2.1423206E0,3.492934E2,1.2508193E1,7.3569274E0,2.4336674E1,2.9735437E1,2.1006195E1,7.072545E1,1.755669E2,4.1848438E2,1.9923807E1,9.4009674E1,3.522442E1,6.1944893E1,2.5312897E1,4.9688023E1,1.1697625E0,1.0283002E2,4.2058682E0,8.302572E0,7.3045726E0,2.6032988E1,4.248177E1,8.618847E1,8.648886E1,1.3829965E2,1.2950287E2,1.170938E1,3.1405943E1,4.221227E1,1.8876509E2,5.8686512E1,5.2322887E1,5.0513916E0,1.0385721E0,1.2463381E1,7.384261E0,3.9633615E0,1.1191726E0,6.2574615E2,1.08444626E2,1.034339E0,6.1130585E1,5.208433E0,5.0756817E0,2.7923617E0,1.000527E0,1.1417935E0,3.422903E2,7.003075E0,1.4180545E0,1.1090138E1,4.395483E0,2.9614446E0,4.4157305E0,1.9920944E1,8.583646E0,2.1151793E1,5.048345E0,1.59578495E1,4.5845385E0,6.6140915E1,1.3638676E2,3.9180126E1,1.811842E2,2.3730017E2,1.6360262E1,3.563546E0,1.5724565E0,9.243722E1,1.9006968E1,1.621745E1,1.9223528E1,4.2721367E1,2.3089138E1,2.223758E0,1.2278022E1,3.7410004E1,1.0159831E2,1.231706E0,2.15745E0,2.048418E0,6.9760222E0,1.3265506E0,6.30106E0,1.0035121E0,7.3468933E0,1.8686094E1,3.2853516E1,9.628251E0,3.2756157E1,5.3432316E1,7.516842E1,1.1320438E1,3.663222E1,1.0166743E2,6.9879745E1,5.9623123E1,7.4375367E0,4.271843E0,1.3311326E1,1.8094616E1,2.5329978E0,3.9679268E1,5.6424362E1,1.3234073E2,3.1596975E1,2.7089537E1,5.1144733E1,1.1781543E0,3.584001E0,1.4673904E0,2.9661384E0,4.4181232E0,1.0016447E0,2.9617167E0,4.5632486E0,6.211829E2,2.1314543E1,3.981604E1,2.6161888E0,2.5922444E0,3.9477477E0,1.1279339E0,3.401997E2,2.0906186E0,1.6019669E0,5.4011083E0,3.3320358E0,1.0634471E0,1.1746143E0,1.7868303E0,2.272012E0,2.1437185E0,2.4928598E0,1.7428083E1,1.0053287E0,7.578317E0,4.94505E0,1.6206741E1,2.4075012E0,2.6408439E0,1.2957707E1,3.000142E0,1.3259245E0,3.258614E0,6.2630375E1,3.510537E0,8.719102E1,4.919575E1,9.984029E0,2.9196098E1,5.760289E1,1.2358132E2,2.277365E2,9.563671E0,4.0894413E0,1.227082E1,2.4096615E0,1.1538844E0,8.927017E1,3.1670415E0,5.6121497E0,1.3394818E1,5.5280437E0,1.0689406E1,1.2125577E1,7.0979505E0,3.941861E1,3.3027556E0,7.0662265E0,1.6022913E1,1.0881459E0,1.1356121E0,3.3083196E0,8.969702E0,1.1161716E1,2.6248287E1,2.632981E0,9.896533E1,1.0212595E0,1.0271585E0,5.6607537E0,1.6861393E0,1.5419763E1,3.266331E0,3.0351177E1,2.5023394E0,1.0011877E0,8.627064E0,2.6223429E1,6.532727E0,4.5198116E1,8.234199E0,2.826854E1,4.6899883E1,8.963084E0,2.3573544E0,2.019505E1,1.643717E1,5.6266647E1,4.540078E1,6.3466465E1,6.413282E0,2.2500362E1,3.712276E1,4.9930153E0,2.4445217E0,1.0004828E0,3.2713602E0,2.7716236E0,1.0539702E1,1.1939585E1,6.155031E0,1.0447526E0,1.4882451E0,3.8265076E1,1.414195E0,4.4700912E1,1.1723449E1,1.2140264E2,1.0938088E1,2.46941E1,6.9028745E0,1.2146444E0,2.5874893E1,2.0731337E0,4.9071598E1,1.1217828E0,1.8443556E0,1.0401713E0,3.3779516E0,1.0197626E0,3.543486E0,6.199517E2,1.2311978E0,1.1906337E1,9.408206E0,1.0005493E0,1.5916951E0,1.1096025E0,2.8381453E0],"tree_param":{"num_deleted":"0","num_feature":"525","num_nodes":"303","size_leaf_vector":"1"}},{"base_weights":[1.185222E-2,7.706601E-1,-3.5834718E-1,9.7370017E-1,3.594941E-1,-6.392171E-1,8.288903E-1,1.0237957E0,4.1685802E-1,7.459977E-1,-0E0,-1.4022759E0,-1.9696642E-1,1.0526688E0,2.9951146E-1,6.7183524E-1,1.0561522E0,8.000236E-1,-1.8770424E-1,9.35515E-1,3.119968E-1,2.9392347E-1,-1.1099334E0,-7.934443E-1,-2.6211545E0,2.3850572E-1,-6.2079203E-1,1.0593771E0,-0E0,-1.1190109E0,9.1944766E-1,8.882429E-1,-5.0619656E-1,-0E0,1.0609814E0,-0E0,9.2993283E-1,1.2591964E-1,-1.872518E0,-0E0,9.593314E-1,-8.967248E-1,8.008363E-1,7.0496774E-1,-0E0,-2.6093402E0,6.225544E-1,-6.0489126E-2,-1.1324726E0,-3.2287087E0,1.9200751E-1,-9.794005E-2,4.253564E-1,-4.545977E-2,-1.2211776E0,-0E0,1.0626711E0,8.0929893E-1,-2.469208E0,-0E0,1.0019252E0,-0E0,1.0302467E0,-2.2370653E0,3.7481327E-2,-0E0,2.1667923E-3,-0E0,1.0642825E0,1.739756E-2,-1.4322801E-1,7.110141E-2,-0E0,5.1922196E-1,-7.997794E-1,-3.501922E0,-0E0,-0E0,9.911303E-1,-3.146144E0,5.8583736E-1,9.5581466E-1,-3.5237025E-2,-0E0,8.226126E-1,1.5159264E-1,-1.217878E0,-0E0,-3.5932715E0,-1.6645238E-1,8.849183E-1,7.752037E-1,-6.2321556E-1,-0E0,-1.5689306E0,-1.2559084E0,-3.8521533E0,-1.0972488E0,6.3437057E-1,-3.7953573E-1,3.2001537E-1,-2.3543787E-1,5.922971E-1,4.7910964E-1,-3.0599844E-1,-2.0768993E0,-4.221349E-1,-0E0,1.0660068E0,6.41122E-2,-0E0,1.9373168E-1,-3.501088E0,-1.2704161E-1,2.8135097E-2,1.0578215E0,-0E0,1.7995943E-1,-1.5549609E-1,7.2349854E-2,-0E0,-2.5829363E-1,-0E0,-0E0,1.0675652E0,-0E0,-3.7597053E-2,8.277767E-1,-1.506354E-1,-0E0,-1.6648617E-1,-3.6259905E-1,-0E0,4.246339E-3,-3.6083147E-2,-0E0,1.007704E0,-0E0,-4.0713253E0,5.413536E-2,-0E0,-0E0,1.0051783E0,-1.8677652E-1,2.2592545E-2,-1.1538443E-1,2.95973E-1,8.9899564E-1,-0E0,4.1673678E-1,-3.5124192E-1,3.9375335E-1,-2.8421237E0,-4.266523E-2,3.221225E-1,-0E0,-4.266621E0,-9.236898E-2,-0E0,6.474564E-2,-0E0,-0E0,9.227867E-1,-1.4091487E0,-1.2844117E-1,-7.583076E-1,7.7185494E-1,-6.423452E-1,-2.2758627E0,-7.907866E-2,-2.8739142E0,-4.310389E-1,-4.187337E0,-2.850023E0,1.1131003E-1,-6.887513E-2,7.887137E-1,6.12901E-1,-6.6449344E-1,-3.1600967E-1,5.305868E-1,8.673424E-1,-7.980731E-1,6.915851E-1,-2.3932251E-1,-8.5583106E-2,9.357188E-1,-1.6638525E0,-1.45241E-1,-2.6217353E0,-3.9350557E-1,-1.3384728E0,1.7840399E-1,-0E0,1.0693539E0,-0E0,4.2541552E-2,-0E0,-4.2830606E0,7.368692E-2,-0E0,7.1877358E-3,-9.426679E-2,3.2034844E-2,-0E0,-0E0,7.377978E-2,6.14507E-2,-0E0,-0E0,-9.993684E-2,-0E0,7.057541E-2,-3.385165E-1,-0E0,-0E0,7.107729E-2,4.6406157E-2,-0E0,6.535288E-2,-0E0,-0E0,-8.897511E-2,-1.5712837E-2,4.5373894E-2,-0E0,-1.2916867E-1,-0E0,3.2348644E-2,-0E0,-2.6516807E-1,-0E0,2.6541205E-2,-0E0,-3.3461657E-1,-1.0121542E-1,3.2404643E-2,-0E0,6.6419885E-2,2.3414277E-2,-1.291883E-1,-1.6345128E-1,-0E0,5.8388617E-3,-9.459421E-2,-0E0,6.495003E-2,-1.5193957E-2,-1.4164945E-1,-2.4919397E-1,-7.23191E-2,-9.151183E-2,4.484345E-2,-0E0,-2.4837777E-1,3.3900205E-2,-1.8888623E-1,-0E0,-2.983043E-1,-0E0,-2.614212E-1,2.822785E-2,-0E0,6.360312E-2,-3.7087724E-2,5.8331773E-2,-0E0,-7.2687976E-2,1.5061118E-2,-9.1174275E-2,2.408401E-2,-0E0,5.4309577E-2,-0E0,6.805648E-2,-1.08767904E-1,3.5366751E-3,5.117369E-2,-0E0,-1.7974229E-1,-0E0,2.2066971E-2,-6.354947E-2,6.914023E-2,-0E0,-1.8114908E-1,-0E0,-2.4793087E-2,5.116762E-2,-7.805377E-2,-2.2805415E-1,4.3656662E-2,-6.7633085E-2,-1.2189335E-1,4.0803842E-2,-3.405764E-2,3.4987394E-2,-0E0,7.390706E-2,-0E0,-3.3128527E-1],"categories":[],"categories_nodes":[],"categories_segments":[],"categories_sizes":[],"default_left":[0,0,0,0,0,0,0,0,0,0,0,0,0,0,0,0,0,0,0,0,0,0,0,0,0,0,0,0,0,0,0,0,0,0,0,0,0,0,0,0,0,0,0,0,0,0,0,0,0,0,0,0,0,0,0,0,0,0,0,0,0,0,0,0,0,0,0,0,0,0,0,0,0,0,0,0,0,0,0,0,0,0,0,0,0,0,0,0,0,0,0,0,0,0,0,0,0,0,0,0,0,0,0,0,0,0,0,0,0,0,0,0,0,0,0,0,0,0,0,0,0,0,0,0,0,0,0,0,0,0,0,0,0,0,0,0,0,0,0,0,0,0,0,0,0,0,0,0,0,0,0,0,0,0,0,0,0,0,0,0,0,0,0,0,0,0,0,0,0,0,0,0,0,0,0,0,0,0,0,0,0,0,0,0,0,0,0,0,0,0,0,0,0,0,0,0,0,0,0,0,0,0,0,0,0,0,0,0,0,0,0,0,0,0,0,0,0,0,0,0,0,0,0,0,0,0,0,0,0,0,0,0,0,0,0,0,0,0,0,0,0,0,0,0,0,0,0,0,0,0,0,0,0,0,0,0,0,0,0,0,0,0,0,0,0,0,0,0,0,0,0,0,0,0,0,0,0,0,0,0,0,0,0,0,0,0,0,0,0,0,0,0,0,0,0,0,0,0,0,0,0],"id":2,"left_children":[1,3,5,7,9,11,13,15,17,19,21,23,25,27,29,31,33,35,37,39,41,43,45,47,49,51,53,55,-1,57,59,61,63,65,67,69,71,73,75,-1,77,79,81,83,85,87,89,91,93,95,97,99,101,103,105,-1,107,109,111,113,115,117,119,121,-1,-1,-1,-1,123,-1,-1,-1,125,127,129,131,-1,133,135,137,139,141,143,145,147,149,151,153,155,157,159,161,163,165,167,169,171,173,175,177,179,181,183,185,187,189,191,-1,193,-1,-1,195,197,-1,-1,199,201,203,-1,-1,-1,-1,-1,-1,205,-1,-1,207,209,-1,-1,-1,-1,-1,-1,-1,211,-1,213,-1,-1,-1,215,-1,-1,-1,217,219,221,223,225,227,229,-1,231,-1,233,-1,-1,-1,-1,235,237,239,241,243,245,247,249,251,253,255,257,259,261,-1,263,265,267,269,271,273,275,277,279,281,283,285,287,289,291,293,295,-1,297,-1,-1,-1,299,-1,-1,-1,-1,-1,-1,-1,-1,-1,-1,-1,-1,-1,-1,-1,-1,-1,-1,-1,-1,-1,-1,-1,-1,-1,-1,-1,-1,-1,-1,-1,-1,-1,-1,-1,-1,-1,-1,-1,-1,-1,-1,-1,-1,-1,-1,-1,-1,-1,-1,-1,-1,-1,-1,-1,-1,-1,-1,-1,-1,-1,-1,-1,-1,-1,-1,-1,-1,-1,-1,-1,-1,-1,-1,-1,-1,-1,-1,-1,-1,-1,-1,-1,-1,-1,-1,-1,-1,-1,-1,-1,-1,-1,-1,-1,-1,-1,-1,-1,-1,-1,-1],"loss_changes":[9.190031E2,8.657141E1,7.31411E2,1.6633484E1,4.8517E1,5.9577844E2,4.6458862E1,3.4370728E0,1.5977711E1,1.1163597E1,6.0024982E1,4.7430627E2,2.0879968E2,2.9614258E0,1.117176E2,1.6479382E1,2.5219116E0,5.892864E0,1.5708987E1,3.9066238E0,3.2704754E1,1.920007E1,1.0385854E2,1.05319885E2,3.7474792E2,3.5515343E1,1.952422E2,8.738098E-1,0E0,1.0207914E2,9.0425415E0,8.491699E0,1.8337337E1,2.1907564E-3,2.184204E0,5.3318167E0,4.4343033E0,5.8297963E0,1.780017E1,0E0,3.9058533E0,5.5073284E1,7.4028835E0,6.1482277E0,1.7403374E1,5.576169E1,5.182626E0,6.540415E1,1.4730145E2,2.0643323E2,2.0484865E1,2.288704E1,4.0529198E1,3.9928345E1,1.8483398E2,0E0,8.3465576E-1,2.181944E0,7.0448654E1,7.2332006E0,6.0705643E0,5.955924E0,8.4775925E-1,1.4982088E1,0E0,0E0,0E0,0E0,1.947998E0,0E0,0E0,0E0,3.2787114E-1,4.4774694E0,7.3502812E0,1.2910358E1,0E0,3.1470138E-1,2.0462112E0,2.4057793E1,1.6684651E0,1.8185654E0,9.583256E0,5.4177437E0,4.9892273E0,1.0179858E1,3.333111E1,1.0618833E0,4.331076E1,1.9847231E0,6.1593246E-1,5.150425E0,2.9611263E1,4.784047E1,1.3315991E2,7.6430855E1,1.430758E2,2.3915466E1,7.0101004E0,3.3732033E1,1.049171E1,4.32897E1,2.4996948E1,2.6436865E1,3.9527798E1,1.1522479E2,8.279774E1,0E0,6.5179443E-1,0E0,0E0,1.6264925E0,5.181801E1,0E0,0E0,8.198776E-1,2.0833704E0,6.508846E-1,0E0,0E0,0E0,0E0,0E0,0E0,1.8842773E0,0E0,0E0,5.308533E-1,2.2561712E0,0E0,0E0,0E0,0E0,0E0,0E0,0E0,1.3342743E0,0E0,1.4451828E1,0E0,0E0,0E0,8.295746E-1,0E0,0E0,0E0,1.9055121E0,3.0993042E0,1.9537077E0,9.130707E0,1.2228488E1,8.597505E-2,2.2310528E1,0E0,4.2231023E-2,0E0,3.6890274E1,0E0,0E0,0E0,0E0,5.8703136E0,2.4729424E0,2.890778E1,1.9743555E1,2.3988935E1,7.356243E0,5.08191E1,1.8594861E2,2.5502283E1,4.247116E1,3.226201E1,7.1588135E1,1.1753288E1,4.9316424E-1,0E0,5.9492702E0,5.1625547E0,3.43617E1,1.2933576E1,8.821623E0,2.526331E0,3.511036E1,9.632164E0,1.8142632E1,1.509701E1,4.4638824E0,3.1769253E1,3.3539032E1,9.1628174E1,2.1207314E1,5.1975113E1,1.9237682E1,0E0,6.38916E-1,0E0,0E0,0E0,3.50058E1,0E0,0E0,0E0,0E0,0E0,0E0,0E0,0E0,0E0,0E0,0E0,0E0,0E0,0E0,0E0,0E0,0E0,0E0,0E0,0E0,0E0,0E0,0E0,0E0,0E0,0E0,0E0,0E0,0E0,0E0,0E0,0E0,0E0,0E0,0E0,0E0,0E0,0E0,0E0,0E0,0E0,0E0,0E0,0E0,0E0,0E0,0E0,0E0,0E0,0E0,0E0,0E0,0E0,0E0,0E0,0E0,0E0,0E0,0E0,0E0,0E0,0E0,0E0,0E0,0E0,0E0,0E0,0E0,0E0,0E0,0E0,0E0,0E0,0E0,0E0,0E0,0E0,0E0,0E0,0E0,0E0,0E0,0E0,0E0,0E0,0E0,0E0,0E0,0E0,0E0,0E0,0E0,0E0,0E0,0E0,0E0,0E0,0E0,0E0,0E0,0E0,0E0],"parents":[2147483647,0,0,1,1,2,2,3,3,4,4,5,5,6,6,7,7,8,8,9,9,10,10,11,11,12,12,13,13,14,14,15,15,16,16,17,17,18,18,19,19,20,20,21,21,22,22,23,23,24,24,25,25,26,26,27,27,29,29,30,30,31,31,32,32,33,33,34,34,35,35,36,36,37,37,38,38,40,40,41,41,42,42,43,43,44,44,45,45,46,46,47,47,48,48,49,49,50,50,51,51,52,52,53,53,54,54,56,56,57,57,58,58,59,59,60,60,61,61,62,62,63,63,68,68,72,72,73,73,74,74,75,75,77,77,78,78,79,79,80,80,81,81,82,82,83,83,84,84,85,85,86,86,87,87,88,88,89,89,90,90,91,91,92,92,93,93,94,94,95,95,96,96,97,97,98,98,99,99,100,100,101,101,102,102,103,103,104,104,105,105,106,106,108,108,111,111,112,112,115,115,116,116,117,117,124,124,127,127,128,128,136,136,138,138,142,142,146,146,147,147,148,148,149,149,150,150,151,151,152,152,154,154,156,156,161,161,162,162,163,163,164,164,165,165,166,166,167,167,168,168,169,169,170,170,171,171,172,172,173,173,174,174,176,176,177,177,178,178,179,179,180,180,181,181,182,182,183,183,184,184,185,185,186,186,187,187,188,188,189,189,190,190,191,191,192,192,194,194,198,198],"right_children":[2,4,6,8,10,12,14,16,18,20,22,24,26,28,30,32,34,36,38,40,42,44,46,48,50,52,54,56,-1,58,60,62,64,66,68,70,72,74,76,-1,78,80,82,84,86,88,90,92,94,96,98,100,102,104,106,-1,108,110,112,114,116,118,120,122,-1,-1,-1,-1,124,-1,-1,-1,126,128,130,132,-1,134,136,138,140,142,144,146,148,150,152,154,156,158,160,162,164,166,168,170,172,174,176,178,180,182,184,186,188,190,192,-1,194,-1,-1,196,198,-1,-1,200,202,204,-1,-1,-1,-1,-1,-1,206,-1,-1,208,210,-1,-1,-1,-1,-1,-1,-1,212,-1,214,-1,-1,-1,216,-1,-1,-1,218,220,222,224,226,228,230,-1,232,-1,234,-1,-1,-1,-1,236,238,240,242,244,246,248,250,252,254,256,258,260,262,-1,264,266,268,270,272,274,276,278,280,282,284,286,288,290,292,294,296,-1,298,-1,-1,-1,300,-1,-1,-1,-1,-1,-1,-1,-1,-1,-1,-1,-1,-1,-1,-1,-1,-1,-1,-1,-1,-1,-1,-1,-1,-1,-1,-1,-1,-1,-1,-1,-1,-1,-1,-1,-1,-1,-1,-1,-1,-1,-1,-1,-1,-1,-1,-1,-1,-1,-1,-1,-1,-1,-1,-1,-1,-1,-1,-1,-1,-1,-1,-1,-1,-1,-1,-1,-1,-1,-1,-1,-1,-1,-1,-1,-1,-1,-1,-1,-1,-1,-1,-1,-1,-1,-1,-1,-1,-1,-1,-1,-1,-1,-1,-1,-1,-1,-1,-1,-1,-1,-1],"split_conditions":[-4.0243176E-1,-5.087394E-1,5.2185243E-1,8.703778E-1,6.424758E-2,-3.248035E-1,-4.1802442E-1,-6.590285E-1,-3.2555693E-1,4.869232E-1,9.7902095E-1,5.2693254E-1,-2.92543E-1,3.709023E-1,8.9275265E-1,4.4536877E-1,-2.7683833E0,-1.4205042E0,4.359216E-1,-2.9232066E0,1.4641465E-1,-6.698098E-1,4.785197E-1,-1.1552867E0,1.0622689E0,-9.273598E-1,1.1368988E-1,-1.4355396E0,-0E0,-3.6859218E-2,-6.842898E-1,-6.326635E-1,6.492412E-2,-5.8462876E-1,-1.1726149E0,1.619499E-1,-9.4352126E-2,-4.577475E-1,8.447307E-1,-0E0,-1.726824E0,-3.504261E-2,1.066474E-1,-1.0612658E0,1.1660424E0,-7.117947E-1,-1.078035E0,6.586425E-1,-3.140047E-1,-3.140047E-1,-2.4082285E-1,1.003391E0,-8.691945E-2,2.3881942E-2,5.063777E-1,-0E0,-2.7373144E-1,1.4456654E0,-5.631492E-1,-1.1254787E-1,1.6796199E0,-5.3307E-1,5.5118424E-1,5.198094E-1,3.7481327E-2,-0E0,2.1667923E-3,-0E0,-1.8897364E0,1.739756E-2,-1.4322801E-1,7.110141E-2,1.3051265E-2,1.0086457E0,7.63287E-1,-5.953607E-1,-0E0,3.5289514E-1,-1.0817661E0,-5.966018E-1,6.8410975E-1,-2.3943152E0,-4.1932994E-1,-3.9747167E-1,1.0672245E0,4.0193963E-1,-1.150951E-1,-5.179545E-1,-7.386446E-1,4.7589454E-1,5.217434E-1,-8.7261933E-1,1.4310284E-1,-1.3798586E-1,-1.1232432E-1,8.2749057E-1,-7.2858745E-1,-1.5555575E-1,-1.7155777E0,-1.2356603E0,-5.0239044E-1,-3.8987783E-1,6.088158E-1,7.114979E-1,-8.0847037E-1,9.129516E-1,-2.41583E-1,-0E0,-3.9125583E0,6.41122E-2,-0E0,-1.0690928E0,-7.5468755E-1,-1.2704161E-1,2.8135097E-2,9.237454E-1,1.0576454E0,7.150554E-1,-1.5549609E-1,7.2349854E-2,-0E0,-2.5829363E-1,-0E0,-0E0,-9.6450764E-1,-0E0,-3.7597053E-2,1.3395783E0,-4.9420613E-1,-0E0,-1.6648617E-1,-3.6259905E-1,-0E0,4.246339E-3,-3.6083147E-2,-0E0,-2.3692982E0,-0E0,-2.1523975E-2,5.413536E-2,-0E0,-0E0,-1.0007194E0,-1.8677652E-1,2.2592545E-2,-1.1538443E-1,9.541061E-3,1.826459E0,3.6182067E-1,-6.568214E-1,5.125801E-1,-1.1490222E-2,-7.261032E-1,-4.266523E-2,-1.1400352E0,-0E0,-1.870824E-1,-9.236898E-2,-0E0,6.474564E-2,-0E0,-5.374394E-2,-1.0728261E0,4.4632494E-1,-3.268395E-1,-4.9255893E-1,-1.2504097E0,1.0283552E0,4.0530166E-1,-1.37742E-1,-3.348069E-1,-6.1740303E-1,-1.127867E0,-4.2535728E-1,-1.6241515E-1,-6.887513E-2,1.9464206E0,5.868813E-1,-7.5208837E-1,-1.1509976E0,-5.060024E-1,-1.1066692E0,1.282803E-1,7.9626656E-1,-9.942676E-1,1.3075328E-1,2.2169516E0,8.314286E-1,2.3788783E-1,-6.7791134E-1,-5.5356395E-1,8.6537564E-1,-2.1689531E-1,-0E0,-1.8391242E0,-0E0,4.2541552E-2,-0E0,-1.7200212E0,7.368692E-2,-0E0,7.1877358E-3,-9.426679E-2,3.2034844E-2,-0E0,-0E0,7.377978E-2,6.14507E-2,-0E0,-0E0,-9.993684E-2,-0E0,7.057541E-2,-3.385165E-1,-0E0,-0E0,7.107729E-2,4.6406157E-2,-0E0,6.535288E-2,-0E0,-0E0,-8.897511E-2,-1.5712837E-2,4.5373894E-2,-0E0,-1.2916867E-1,-0E0,3.2348644E-2,-0E0,-2.6516807E-1,-0E0,2.6541205E-2,-0E0,-3.3461657E-1,-1.0121542E-1,3.2404643E-2,-0E0,6.6419885E-2,2.3414277E-2,-1.291883E-1,-1.6345128E-1,-0E0,5.8388617E-3,-9.459421E-2,-0E0,6.495003E-2,-1.5193957E-2,-1.4164945E-1,-2.4919397E-1,-7.23191E-2,-9.151183E-2,4.484345E-2,-0E0,-2.4837777E-1,3.3900205E-2,-1.8888623E-1,-0E0,-2.983043E-1,-0E0,-2.614212E-1,2.822785E-2,-0E0,6.360312E-2,-3.7087724E-2,5.8331773E-2,-0E0,-7.2687976E-2,1.5061118E-2,-9.1174275E-2,2.408401E-2,-0E0,5.4309577E-2,-0E0,6.805648E-2,-1.08767904E-1,3.5366751E-3,5.117369E-2,-0E0,-1.7974229E-1,-0E0,2.2066971E-2,-6.354947E-2,6.914023E-2,-0E0,-1.8114908E-1,-0E0,-2.4793087E-2,5.116762E-2,-7.805377E-2,-2.2805415E-1,4.3656662E-2,-6.7633085E-2,-1.2189335E-1,4.0803842E-2,-3.405764E-2,3.4987394E-2,-0E0,7.390706E-2,-0E0,-3.3128527E-1],"split_indices":[113,106,181,18,25,54,2,22,449,421,3,3,45,354,356,440,74,5,73,429,356,113,33,3,40,195,3,293,0,3,464,65,260,410,181,351,143,288,421,0,448,53,2,476,45,262,432,200,2,2,180,219,53,200,186,0,5,288,45,166,402,514,472,415,0,0,0,0,17,0,0,0,199,210,107,330,0,63,181,38,20,219,16,26,126,196,428,343,64,206,377,204,317,356,45,85,50,102,352,58,91,3,340,4,142,5,40,0,133,0,0,68,416,0,0,11,440,483,0,0,0,0,0,0,284,0,0,50,318,0,0,0,0,0,0,0,383,0,517,0,0,0,405,0,0,0,468,273,462,438,49,130,62,0,265,0,2,0,0,0,0,32,335,207,387,218,72,179,2,254,179,43,248,314,18,0,293,410,204,188,509,196,197,358,436,135,433,16,6,58,18,33,81,0,374,0,0,0,375,0,0,0,0,0,0,0,0,0,0,0,0,0,0,0,0,0,0,0,0,0,0,0,0,0,0,0,0,0,0,0,0,0,0,0,0,0,0,0,0,0,0,0,0,0,0,0,0,0,0,0,0,0,0,0,0,0,0,0,0,0,0,0,0,0,0,0,0,0,0,0,0,0,0,0,0,0,0,0,0,0,0,0,0,0,0,0,0,0,0,0,0,0,0,0,0,0,0,0,0,0,0],"split_type":[0,0,0,0,0,0,0,0,0,0,0,0,0,0,0,0,0,0,0,0,0,0,0,0,0,0,0,0,0,0,0,0,0,0,0,0,0,0,0,0,0,0,0,0,0,0,0,0,0,0,0,0,0,0,0,0,0,0,0,0,0,0,0,0,0,0,0,0,0,0,0,0,0,0,0,0,0,0,0,0,0,0,0,0,0,0,0,0,0,0,0,0,0,0,0,0,0,0,0,0,0,0,0,0,0,0,0,0,0,0,0,0,0,0,0,0,0,0,0,0,0,0,0,0,0,0,0,0,0,0,0,0,0,0,0,0,0,0,0,0,0,0,0,0,0,0,0,0,0,0,0,0,0,0,0,0,0,0,0,0,0,0,0,0,0,0,0,0,0,0,0,0,0,0,0,0,0,0,0,0,0,0,0,0,0,0,0,0,0,0,0,0,0,0,0,0,0,0,0,0,0,0,0,0,0,0,0,0,0,0,0,0,0,0,0,0,0,0,0,0,0,0,0,0,0,0,0,0,0,0,0,0,0,0,0,0,0,0,0,0,0,0,0,0,0,0,0,0,0,0,0,0,0,0,0,0,0,0,0,0,0,0,0,0,0,0,0,0,0,0,0,0,0,0,0,0,0,0,0,0,0,0,0,0,0,0,0,0,0,0,0,0,0,0,0,0,0,0,0,0,0],"sum_hessian":[3.2679998E3,1.0735485E3,2.1944512E3,7.148795E2,3.5866888E2,1.776203E3,4.182483E2,6.5206165E2,6.2817852E1,1.7039981E2,1.8826907E2,6.4976355E2,1.1264395E3,2.9089835E2,1.2734994E2,6.0978676E1,5.91083E2,4.072893E1,2.2088923E1,1.1489023E2,5.5509583E1,1.5017778E2,3.809129E1,4.3466565E2,2.1509789E2,5.529645E2,5.73475E2,2.8986346E2,1.0349007E0,3.7592888E1,8.975705E1,5.316285E1,7.8158255E0,3.1289976E0,5.87954E2,3.7947946E0,3.6934135E1,1.7559973E1,4.528951E0,1.3934737E0,1.1349676E2,1.4624853E1,4.0884727E1,6.466134E1,8.551644E1,2.1096056E1,1.6995234E1,1.3962144E2,2.9504422E2,1.7754651E2,3.7551373E1,1.9312178E2,3.5984268E2,2.948303E2,2.7864465E2,1.0210485E0,2.888424E2,1.4805089E1,2.2787798E1,5.176268E0,8.458079E1,5.6691656E0,4.7493687E1,3.7275434E0,4.088282E0,1.008393E0,2.1206045E0,1.7140021E0,5.8624E2,2.6965609E0,1.0982337E0,3.4135513E1,2.7986228E0,1.40741415E1,3.48583E0,2.6790385E0,1.8499126E0,3.1958053E0,1.1030095E2,6.3761287E0,8.248724E0,3.6770603E1,4.1141253E0,8.111731E0,5.6549606E1,7.504141E1,1.0475033E1,5.6973495E0,1.5398706E1,2.0903673E0,1.4904867E1,5.454617E1,8.507528E1,8.1526596E1,2.1351761E2,4.35775E1,1.3396901E2,8.246241E0,2.9305132E1,1.1863343E2,7.448835E1,6.982391E1,2.9001877E2,9.492177E1,1.9990851E2,1.331055E2,1.4553917E2,1.0709076E0,2.877715E2,1.3694892E1,1.1101972E0,5.771076E0,1.7016722E1,1.8660467E0,3.3102217E0,8.129364E1,3.2871478E0,4.6242237E0,1.044942E0,4.647827E1,1.0154158E0,2.332475E0,1.3950684E0,1.8910341E0,5.8434894E2,1.7919173E0,1.0067055E0,1.194078E1,2.1333618E0,1.929197E0,1.5566331E0,1.5996885E0,1.07935E0,2.1742039E0,1.0216014E0,1.5864273E0,1.0871452E2,1.1552068E0,5.220922E0,7.2459188E0,1.0028057E0,1.7320459E0,3.503856E1,1.1658498E0,2.9482753E0,1.6319852E0,6.479745E0,5.3506348E1,3.0432587E0,5.2100094E1,2.2941315E1,4.592215E0,5.8828177E0,1.5184875E0,4.178862E0,2.1250925E0,1.3273614E1,1.0435593E0,1.046808E0,1.3903074E1,1.0017924E0,1.0031509E1,4.451466E1,3.1027075E1,5.4048206E1,4.053296E1,4.0993637E1,9.3871E1,1.1964661E2,2.6097754E1,1.7479748E1,1.2577998E1,1.21391014E2,4.079748E0,4.166493E0,1.2151047E0,2.8090027E1,2.4662981E1,9.397045E1,1.5833923E1,5.8654423E1,2.220853E1,4.7615387E1,2.615391E2,2.8479687E1,4.024952E1,5.467225E1,1.9573668E1,1.8033484E2,9.950062E1,3.3604885E1,5.907043E1,8.6468735E1,1.2292573E0,2.8654224E2,1.02198E0,4.7490964E0,2.852973E0,1.4163749E1,8.0238594E1,1.0550404E0,2.2823992E0,1.0047486E0,3.6231296E0,1.0010937E0,1.9641001E0,5.823849E2,1.0939174E1,1.0016066E0,1.1313419E0,1.00202E0,2.2392068E0,1.0647531E2,4.1538057E0,1.0671165E0,1.0003867E0,3.403817E1,5.3751273E0,1.1046178E0,5.149543E1,2.0109181E0,1.966128E0,1.0771308E0,1.1651878E1,4.0448215E1,1.8748085E1,4.1932282E0,1.0005519E0,3.591663E0,1.2116235E0,4.671194E0,1.0008243E0,3.1780376E0,1.4874593E0,1.1786154E1,1.7691104E0,8.262399E0,1.0761675E0,4.343849E1,5.5074916E0,2.5519583E1,3.5722764E0,5.0475933E1,1.5568324E1,2.4964638E1,5.2667146E0,3.572692E1,7.361878E1,2.025222E1,5.6174427E1,6.3472183E1,1.0744171E1,1.5353581E1,3.137769E0,1.4341978E1,8.3384075E0,4.2395897E0,4.040592E0,1.1735042E2,1.0028197E0,3.0769284E0,3.1580515E0,1.0084414E0,2.7085249E1,1.0047774E0,2.008156E1,4.5814214E0,6.692599E1,2.7044458E1,7.6195693E0,8.2143545E0,1.7935072E1,4.071935E1,2.5188527E0,1.9689678E1,2.616266E1,2.1452724E1,2.4418852E2,1.7350567E1,2.811759E0,2.5667929E1,2.5315853E1,1.4933666E1,5.195294E1,2.719307E0,1.2377334E1,7.196334E0,1.4733527E2,3.299958E1,3.258045E1,6.692017E1,1.0827816E1,2.277707E1,4.9263435E1,9.806994E0,2.614246E1,6.0326275E1,1.2421558E0,2.8530008E2,1.4314543E0,1.2732294E1],"tree_param":{"num_deleted":"0","num_feature":"525","num_nodes":"301","size_leaf_vector":"1"}},{"base_weights":[2.277791E-3,-2.7656254E-1,8.9905417E-1,4.1052756E-1,-6.678198E-1,3.5672808E-1,9.9050117E-1,9.2295665E-1,-4.890226E-3,-1.1837893E0,-6.5413915E-2,9.147139E-1,-6.019916E-1,1.0001189E0,-0E0,9.766441E-1,-0E0,6.751368E-1,-2.892227E-1,-5.230984E-1,-2.221548E0,5.941547E-1,-2.4321389E-1,-0E0,9.654094E-1,5.0821173E-1,-2.3117456E0,1.0326868E0,5.5868536E-1,3.5283197E-2,-1.301162E-1,1.047331E0,6.1645526E-1,3.169585E-1,-1.9472526E0,-0E0,8.755794E-1,4.173454E-3,-1.1060278E0,-1.0181103E0,5.5307006E-3,-2.662621E0,2.2385411E-1,6.7962337E-1,-9.163675E-1,1.320272E-1,-6.4346826E-1,-0E0,1.017034E0,9.2159355E-1,-6.089697E-1,-0E0,-3.089953E0,1.0390234E0,-0E0,8.85899E-1,-1.448342E0,1.0535492E0,-0E0,-0E0,8.295627E-1,8.2089263E-1,-6.280667E-2,-0E0,-2.6158735E-1,-1.0727123E0,5.855412E-1,-0E0,9.142592E-1,5.654748E-1,-2.2970697E-1,-2.316865E0,-4.7668368E-1,-1.560047E-1,-1.7720464E0,-1.4917722E0,5.0231886E-1,-2.9445343E0,-4.2489547E-1,-8.100277E-1,7.38325E-1,-1.5427629E0,7.284567E-1,-2.927599E0,-0E0,4.006901E-1,-5.9777653E-1,-0E0,-9.7070825E-1,-3.9114565E-2,-0E0,-0E0,1.0438677E0,-0E0,6.651606E-2,5.2376287E-3,-1.9265976E0,1.6050044E-2,-0E0,-3.5761366E0,-0E0,1.0420808E0,-0E0,-0E0,1.0076782E0,-0E0,-2.7296364E0,-0E0,1.0627451E0,-9.8699737E-1,7.012442E-1,-0E0,9.3133205E-1,6.102518E-2,-0E0,1.7309426E-1,-1.2172358E0,-1.8023756E0,9.483198E-3,-4.193735E-2,8.052825E-1,-9.049462E-2,7.0336455E-4,9.4755983E-1,-0E0,-0E0,8.3735543E-1,8.917414E-1,-3.721493E-1,8.053323E-2,-2.7601905E0,-9.5049655E-1,7.957339E-1,4.3389064E-1,-7.8880376E-1,-2.2613227E0,-5.524213E-1,-9.3674403E-1,-3.4535735E0,8.237705E-1,-0E0,-3.1497912E0,2.1696651E-1,-3.4815176E0,-0E0,3.7761799E-1,-1.8007022E0,8.964204E-1,-5.8492344E-2,-0E0,-2.7144912E-1,7.807585E-1,-6.1351633E-1,-3.983349E-1,-0E0,-0E0,2.5829785E-2,5.9589833E-1,-5.7526838E-2,1.4796676E-1,-1.3456153E0,4.0504515E-1,-4.2593735E-1,-2.1160347E0,-6.1422604E-1,7.289386E-2,-0E0,-0E0,-2.6488495E-1,-0E0,-4.05905E0,1.0451657E0,-0E0,4.3741858E-1,-5.436419E-2,-0E0,7.112015E-2,-0E0,-2.7206838E-1,1.0732327E-2,-0E0,-0E0,7.386564E-2,-1.931058E-1,-0E0,-0E0,5.391098E-2,-1.2859869E-1,7.456589E-3,-0E0,6.798808E-2,-0E0,4.304728E-2,-0E0,-1.8688798E-1,-0E0,-1.7056169E-1,-9.798656E-2,-0E0,-0E0,6.6549785E-2,-0E0,6.7080095E-2,-3.3400435E-2,4.709675E-2,6.265261E-2,-1.9367607E-2,6.830156E-2,-0E0,5.0677704E-3,-5.144277E-2,-0E0,2.6115578E-2,-2.4389823E-1,-5.763956E-2,-1.102544E-1,-0E0,-0E0,6.595267E-2,-2.297861E-2,4.7639612E-2,-9.3830906E-2,5.579318E-3,-1.7574605E-1,3.3660475E-3,-1.0486096E-1,-0E0,-1.3698483E-1,-1.6228031E-2,-0E0,-2.8996345E-1,-2.4448639E-2,5.8999933E-2,2.7430482E-2,-5.158524E-2,-6.679249E-2,-2.2971761E-1,-6.518622E-2,6.1699603E-2,-3.3033633E-1,-0E0,-1.2058566E-1,2.6744679E-2,4.3563224E-2,-0E0,-0E0,-1.8603575E-1,-0E0,7.15237E-2,5.7957243E-2,-0E0,-0E0,-1.4942895E-1,4.4949815E-2,-1.460531E-1,-5.5863447E-2,6.691545E-2,5.1655762E-2,-1.03350505E-2,-0E0,-1.7126612E-1,4.8927292E-2,-1.3736677E-2,-1.0249857E-1,-0E0,-1.298272E-2,-1.8307622E-1,-7.453391E-2,-0E0,-3.0784237E-1,-0E0,-0E0,7.211686E-2,3.5329867E-2,-0E0],"categories":[],"categories_nodes":[],"categories_segments":[],"categories_sizes":[],"default_left":[0,0,0,0,0,0,0,0,0,0,0,0,0,0,0,0,0,0,0,0,0,0,0,0,0,0,0,0,0,0,0,0,0,0,0,0,0,0,0,0,0,0,0,0,0,0,0,0,0,0,0,0,0,0,0,0,0,0,0,0,0,0,0,0,0,0,0,0,0,0,0,0,0,0,0,0,0,0,0,0,0,0,0,0,0,0,0,0,0,0,0,0,0,0,0,0,0,0,0,0,0,0,0,0,0,0,0,0,0,0,0,0,0,0,0,0,0,0,0,0,0,0,0,0,0,0,0,0,0,0,0,0,0,0,0,0,0,0,0,0,0,0,0,0,0,0,0,0,0,0,0,0,0,0,0,0,0,0,0,0,0,0,0,0,0,0,0,0,0,0,0,0,0,0,0,0,0,0,0,0,0,0,0,0,0,0,0,0,0,0,0,0,0,0,0,0,0,0,0,0,0,0,0,0,0,0,0,0,0,0,0,0,0,0,0,0,0,0,0,0,0,0,0,0,0,0,0,0,0,0,0,0,0,0,0,0,0,0,0,0,0,0,0,0,0,0,0,0,0,0,0,0,0,0,0,0,0,0,0,0,0,0,0,0,0,0,0,0,0,0,0,0,0,0,0],"id":3,"left_children":[1,3,5,7,9,11,13,15,17,19,21,23,25,27,29,31,33,35,37,39,41,43,45,-1,47,49,51,53,55,-1,-1,57,59,61,63,65,67,69,71,73,75,77,79,81,83,85,87,89,91,93,95,97,99,101,-1,103,105,107,-1,109,111,113,115,-1,-1,117,119,121,123,125,127,129,131,133,135,137,139,141,143,145,147,149,151,153,155,157,159,161,163,-1,-1,-1,165,-1,-1,-1,167,-1,-1,169,-1,171,-1,173,175,-1,177,179,181,183,185,187,189,-1,-1,191,193,195,-1,197,199,-1,-1,201,-1,203,205,207,209,211,213,215,217,219,221,223,225,227,229,231,233,235,237,239,241,243,245,247,-1,-1,-1,249,251,-1,-1,-1,-1,253,255,257,259,261,263,265,267,-1,-1,-1,-1,-1,269,271,-1,273,-1,-1,-1,-1,-1,-1,-1,-1,-1,-1,-1,-1,-1,-1,-1,-1,-1,-1,-1,-1,-1,-1,-1,-1,-1,-1,-1,-1,-1,-1,-1,-1,-1,-1,-1,-1,-1,-1,-1,-1,-1,-1,-1,-1,-1,-1,-1,-1,-1,-1,-1,-1,-1,-1,-1,-1,-1,-1,-1,-1,-1,-1,-1,-1,-1,-1,-1,-1,-1,-1,-1,-1,-1,-1,-1,-1,-1,-1,-1,-1,-1,-1,-1,-1,-1,-1,-1,-1,-1,-1,-1,-1,-1,-1,-1,-1,-1,-1,-1,-1,-1],"loss_changes":[8.169292E2,6.688772E2,3.5367004E1,1.9364691E2,4.9013623E2,6.261412E1,7.1568604E0,1.8095642E1,9.4782425E1,5.780134E2,8.527785E1,5.630226E0,8.221382E1,5.7417603E0,6.6765966E0,5.8619385E0,1.1835104E1,2.0777565E1,8.667058E1,1.3894876E2,3.617119E2,1.9291801E1,8.84032E1,0E0,4.515869E0,1.1933838E1,3.7082924E1,5.8447266E0,3.1655785E1,0E0,0E0,2.827057E0,1.0185522E1,5.939928E0,1.0205753E1,2.0397985E1,5.1694183E0,3.444064E1,6.584249E1,1.7232156E2,1.8408527E2,1.6919019E2,2.6356983E1,1.4147133E1,1.7265957E1,5.7793922E1,6.0532745E1,3.5312563E-1,1.5316772E0,6.4048576E-1,8.824161E0,1.461633E-1,2.5646133E1,1.6156616E0,0E0,3.6973152E0,1.7407932E1,2.1541443E0,0E0,1.1392794E1,6.386612E0,5.469589E-1,5.134152E0,0E0,0E0,1.43802595E1,4.3967752E0,1.9856586E0,4.9909286E0,1.1088993E1,2.732321E1,3.9248764E1,3.887008E1,4.8751564E1,7.920535E1,5.6440277E1,2.9170242E1,1.677893E2,4.0521797E1,2.107277E1,8.896515E0,1.2616814E1,1.0555016E1,1.9832047E1,4.5268208E-1,2.0846813E1,4.604827E1,1.6398968E1,7.085747E1,0E0,0E0,0E0,8.762512E-1,0E0,0E0,0E0,1.2476352E1,0E0,0E0,1.671138E1,0E0,1.0449219E0,0E0,1.8905139E0,8.1355286E-1,0E0,1.4809233E1,6.1363935E-2,2.1822205E0,1.8186565E1,3.9498997E-1,4.449131E0,3.244194E0,0E0,0E0,1.7374959E0,8.1057205E0,1.5094959E1,0E0,2.216526E0,3.2753992E0,0E0,0E0,4.3322983E0,0E0,9.163582E0,5.6007576E0,2.277649E0,2.8242764E1,4.2689368E-1,3.0468552E1,2.7018612E1,2.594576E0,1.3610315E1,3.472937E1,7.3350525E1,2.4735077E1,3.0880413E1,3.1382019E1,5.5200653E0,2.2087233E1,8.392798E1,1.1445559E1,1.8170723E1,2.014711E1,1.1161797E0,1.9808565E1,5.168499E0,0E0,0E0,0E0,7.473015E0,6.6435614E0,0E0,0E0,0E0,0E0,2.0947567E1,4.7870834E1,8.087522E0,5.996328E1,1.0334493E1,1.7648705E1,3.8685593E1,4.3845825E1,0E0,0E0,0E0,0E0,0E0,1.3926056E1,8.574829E-1,0E0,9.892458E-2,0E0,0E0,0E0,0E0,0E0,0E0,0E0,0E0,0E0,0E0,0E0,0E0,0E0,0E0,0E0,0E0,0E0,0E0,0E0,0E0,0E0,0E0,0E0,0E0,0E0,0E0,0E0,0E0,0E0,0E0,0E0,0E0,0E0,0E0,0E0,0E0,0E0,0E0,0E0,0E0,0E0,0E0,0E0,0E0,0E0,0E0,0E0,0E0,0E0,0E0,0E0,0E0,0E0,0E0,0E0,0E0,0E0,0E0,0E0,0E0,0E0,0E0,0E0,0E0,0E0,0E0,0E0,0E0,0E0,0E0,0E0,0E0,0E0,0E0,0E0,0E0,0E0,0E0,0E0,0E0,0E0,0E0,0E0,0E0,0E0,0E0,0E0,0E0,0E0,0E0,0E0,0E0,0E0,0E0,0E0,0E0,0E0,0E0,0E0,0E0,0E0],"parents":[2147483647,0,0,1,1,2,2,3,3,4,4,5,5,6,6,7,7,8,8,9,9,10,10,11,11,12,12,13,13,14,14,15,15,16,16,17,17,18,18,19,19,20,20,21,21,22,22,24,24,25,25,26,26,27,27,28,28,31,31,32,32,33,33,34,34,35,35,36,36,37,37,38,38,39,39,40,40,41,41,42,42,43,43,44,44,45,45,46,46,47,47,48,48,49,49,50,50,51,51,52,52,53,53,55,55,56,56,57,57,59,59,60,60,61,61,62,62,65,65,66,66,67,67,68,68,69,69,70,70,71,71,72,72,73,73,74,74,75,75,76,76,77,77,78,78,79,79,80,80,81,81,82,82,83,83,84,84,85,85,86,86,87,87,88,88,92,92,96,96,99,99,101,101,103,103,104,104,106,106,107,107,108,108,109,109,110,110,111,111,112,112,115,115,116,116,117,117,119,119,120,120,123,123,125,125,126,126,127,127,128,128,129,129,130,130,131,131,132,132,133,133,134,134,135,135,136,136,137,137,138,138,139,139,140,140,141,141,142,142,143,143,144,144,145,145,146,146,147,147,151,151,152,152,157,157,158,158,159,159,160,160,161,161,162,162,163,163,164,164,170,170,171,171,173,173],"right_children":[2,4,6,8,10,12,14,16,18,20,22,24,26,28,30,32,34,36,38,40,42,44,46,-1,48,50,52,54,56,-1,-1,58,60,62,64,66,68,70,72,74,76,78,80,82,84,86,88,90,92,94,96,98,100,102,-1,104,106,108,-1,110,112,114,116,-1,-1,118,120,122,124,126,128,130,132,134,136,138,140,142,144,146,148,150,152,154,156,158,160,162,164,-1,-1,-1,166,-1,-1,-1,168,-1,-1,170,-1,172,-1,174,176,-1,178,180,182,184,186,188,190,-1,-1,192,194,196,-1,198,200,-1,-1,202,-1,204,206,208,210,212,214,216,218,220,222,224,226,228,230,232,234,236,238,240,242,244,246,248,-1,-1,-1,250,252,-1,-1,-1,-1,254,256,258,260,262,264,266,268,-1,-1,-1,-1,-1,270,272,-1,274,-1,-1,-1,-1,-1,-1,-1,-1,-1,-1,-1,-1,-1,-1,-1,-1,-1,-1,-1,-1,-1,-1,-1,-1,-1,-1,-1,-1,-1,-1,-1,-1,-1,-1,-1,-1,-1,-1,-1,-1,-1,-1,-1,-1,-1,-1,-1,-1,-1,-1,-1,-1,-1,-1,-1,-1,-1,-1,-1,-1,-1,-1,-1,-1,-1,-1,-1,-1,-1,-1,-1,-1,-1,-1,-1,-1,-1,-1,-1,-1,-1,-1,-1,-1,-1,-1,-1,-1,-1,-1,-1,-1,-1,-1,-1,-1,-1,-1,-1,-1,-1],"split_conditions":[5.2185243E-1,-3.0918017E-1,4.088764E-1,-3.941972E-1,2.517376E-1,-4.1802442E-1,5.0634665E0,4.9795607E-1,-6.480279E-1,4.468001E-1,-1.0475205E0,-2.3971798E0,9.741763E-2,1.002028E-1,-3.4789696E-1,-2.4920635E-1,-2.411025E-1,6.6792175E-2,3.1388116E-1,4.8073295E-1,8.807156E-1,1.5912372E0,7.3337436E-1,-0E0,-1.6749552E0,2.52059E-1,-4.334935E-1,3.3473313E0,1.0744038E0,3.5283197E-2,-1.301162E-1,2.1125178E0,-8.7709725E-1,8.269657E-2,2.722164E-1,3.8018774E-2,-1.6247181E0,-8.9778453E-1,1.4135533E-3,1.60889E-2,-8.237336E-1,1.0844399E0,-2.2416678E-1,-1.8597097E0,-1.1096385E0,3.4995544E-1,-3.3077982E-1,-2.6851881E-2,-2.6066992E0,-1.630422E0,-4.5277637E-1,8.502103E-1,7.3273504E-1,2.76506E0,-0E0,-2.1380755E-1,-6.3092357E-1,-1.2731596E0,-0E0,2.781681E-1,-5.7522327E-1,7.546921E-1,6.3812E-1,-0E0,-2.6158735E-1,8.5988015E-1,-1.1091719E0,-3.415168E-1,1.5269482E0,-1.1575987E0,-1.0945239E0,-1.870824E-1,4.4536364E-1,-1.9509606E-1,1.1507673E0,-8.099745E-1,-6.383852E-2,1.347435E0,-1.3197839E0,-1.3320476E0,1.4258769E0,-2.6279613E-1,8.679691E-1,1.5405318E-1,-3.8533565E-1,5.735943E-1,-1.5923765E-2,-4.7996652E-1,-7.1194565E-1,-3.9114565E-2,-0E0,-0E0,3.288473E0,-0E0,6.651606E-2,5.2376287E-3,-9.876508E-2,1.6050044E-2,-0E0,-1.3262953E0,-0E0,3.467993E0,-0E0,5.5356425E-1,-1.3894935E0,-0E0,-5.247662E-1,4.420174E-1,-6.6848034E-1,-4.685911E-1,-9.754264E-1,-2.7712032E-1,-1.4075196E0,6.102518E-2,-0E0,-6.1196804E-1,-5.631492E-1,-7.91872E-1,9.483198E-3,-8.688294E-1,-9.932176E-1,-9.049462E-2,7.0336455E-4,-2.2350307E0,-0E0,1.1681619E-1,1.6876723E0,1.8279849E0,-9.1538537E-1,-4.243776E-1,4.8748732E-1,-4.154694E-1,-9.1936344E-1,-6.548902E-1,-7.82033E-2,1.7580053E0,-5.084966E-1,3.1886062E-1,-6.6413325E-1,-2.3975654E0,-6.9066155E-1,-9.410528E-1,-2.1186255E-1,4.0767497E-1,-4.1132808E-1,7.940971E-1,-5.6919664E-1,-3.6207196E-1,-5.8492344E-2,-0E0,-2.7144912E-1,1.2789859E0,-7.919107E-2,-3.983349E-1,-0E0,-0E0,2.5829785E-2,3.1383424E0,6.7494565E-1,-3.781219E-2,8.180012E-3,2.6245818E-1,-2.4122983E-2,-8.910618E-1,-7.066247E-1,7.289386E-2,-0E0,-0E0,-2.6488495E-1,-0E0,5.748693E-1,-1.3740991E0,-0E0,3.3320782E-1,-5.436419E-2,-0E0,7.112015E-2,-0E0,-2.7206838E-1,1.0732327E-2,-0E0,-0E0,7.386564E-2,-1.931058E-1,-0E0,-0E0,5.391098E-2,-1.2859869E-1,7.456589E-3,-0E0,6.798808E-2,-0E0,4.304728E-2,-0E0,-1.8688798E-1,-0E0,-1.7056169E-1,-9.798656E-2,-0E0,-0E0,6.6549785E-2,-0E0,6.7080095E-2,-3.3400435E-2,4.709675E-2,6.265261E-2,-1.9367607E-2,6.830156E-2,-0E0,5.0677704E-3,-5.144277E-2,-0E0,2.6115578E-2,-2.4389823E-1,-5.763956E-2,-1.102544E-1,-0E0,-0E0,6.595267E-2,-2.297861E-2,4.7639612E-2,-9.3830906E-2,5.579318E-3,-1.7574605E-1,3.3660475E-3,-1.0486096E-1,-0E0,-1.3698483E-1,-1.6228031E-2,-0E0,-2.8996345E-1,-2.4448639E-2,5.8999933E-2,2.7430482E-2,-5.158524E-2,-6.679249E-2,-2.2971761E-1,-6.518622E-2,6.1699603E-2,-3.3033633E-1,-0E0,-1.2058566E-1,2.6744679E-2,4.3563224E-2,-0E0,-0E0,-1.8603575E-1,-0E0,7.15237E-2,5.7957243E-2,-0E0,-0E0,-1.4942895E-1,4.4949815E-2,-1.460531E-1,-5.5863447E-2,6.691545E-2,5.1655762E-2,-1.03350505E-2,-0E0,-1.7126612E-1,4.8927292E-2,-1.3736677E-2,-1.0249857E-1,-0E0,-1.298272E-2,-1.8307622E-1,-7.453391E-2,-0E0,-3.0784237E-1,-0E0,-0E0,7.211686E-2,3.5329867E-2,-0E0],"split_indices":[181,421,356,113,53,2,493,440,515,3,58,301,421,2,2,428,288,335,52,4,33,32,200,0,415,407,45,76,353,0,0,252,202,119,214,429,222,64,180,218,356,40,27,33,17,393,283,17,49,253,213,244,33,455,0,457,66,247,0,450,305,94,382,0,0,387,343,417,207,209,30,2,29,36,407,3,207,1,4,30,178,448,176,249,227,3,351,45,40,0,0,0,279,0,0,0,360,0,0,341,0,241,0,213,247,0,235,469,438,153,301,134,16,0,0,252,45,226,0,209,380,0,0,460,0,291,399,69,3,165,263,5,509,53,270,139,47,394,327,245,3,36,181,197,22,1,388,178,0,0,0,77,220,0,0,0,0,325,33,113,286,451,296,220,384,0,0,0,0,0,282,197,0,9,0,0,0,0,0,0,0,0,0,0,0,0,0,0,0,0,0,0,0,0,0,0,0,0,0,0,0,0,0,0,0,0,0,0,0,0,0,0,0,0,0,0,0,0,0,0,0,0,0,0,0,0,0,0,0,0,0,0,0,0,0,0,0,0,0,0,0,0,0,0,0,0,0,0,0,0,0,0,0,0,0,0,0,0,0,0,0,0,0,0,0,0,0,0,0,0,0,0,0,0,0],"split_type":[0,0,0,0,0,0,0,0,0,0,0,0,0,0,0,0,0,0,0,0,0,0,0,0,0,0,0,0,0,0,0,0,0,0,0,0,0,0,0,0,0,0,0,0,0,0,0,0,0,0,0,0,0,0,0,0,0,0,0,0,0,0,0,0,0,0,0,0,0,0,0,0,0,0,0,0,0,0,0,0,0,0,0,0,0,0,0,0,0,0,0,0,0,0,0,0,0,0,0,0,0,0,0,0,0,0,0,0,0,0,0,0,0,0,0,0,0,0,0,0,0,0,0,0,0,0,0,0,0,0,0,0,0,0,0,0,0,0,0,0,0,0,0,0,0,0,0,0,0,0,0,0,0,0,0,0,0,0,0,0,0,0,0,0,0,0,0,0,0,0,0,0,0,0,0,0,0,0,0,0,0,0,0,0,0,0,0,0,0,0,0,0,0,0,0,0,0,0,0,0,0,0,0,0,0,0,0,0,0,0,0,0,0,0,0,0,0,0,0,0,0,0,0,0,0,0,0,0,0,0,0,0,0,0,0,0,0,0,0,0,0,0,0,0,0,0,0,0,0,0,0,0,0,0,0,0,0,0,0,0,0,0,0,0,0,0,0,0,0,0,0,0,0,0,0],"sum_hessian":[3.261127E3,2.4857507E3,7.753764E2,8.997991E2,1.5859515E3,1.1552772E2,6.598487E2,4.0525534E2,4.9454373E2,8.5218396E2,7.337676E2,7.452539E1,4.1002323E1,6.543721E2,5.476625E0,3.808865E2,2.4368826E1,1.434193E2,3.5112442E2,5.221108E2,3.3007318E2,1.5304416E2,5.8072345E2,1.5901574E0,7.2935234E1,2.4095037E1,1.6907288E1,6.0450397E2,4.9868103E1,4.000069E0,1.4765561E0,3.1298132E2,6.79052E1,2.1925297E1,2.4435298E0,3.1084654E1,1.1233464E2,2.563559E2,9.476853E1,2.7180136E2,2.503094E2,2.8041516E2,4.9658012E1,1.4631987E2,6.7242813E0,2.9683237E2,2.8389108E2,2.8599255E0,7.007531E1,1.908265E1,5.0123878E0,3.6014209E0,1.3305867E1,6.0256604E2,1.9379449E0,4.389547E1,5.9726334E0,3.1184357E2,1.1377391E0,1.5648683E1,5.225652E1,1.194421E1,9.981086E0,1.1623464E0,1.2811836E0,1.188272E1,1.9201933E1,3.1273944E0,1.09207245E2,7.821555E1,1.7814035E2,3.1090767E1,6.367777E1,1.282621E2,1.4353928E2,6.1174084E1,1.8913533E2,2.4811305E2,3.23021E1,1.50156355E1,3.4642376E1,2.0844154E0,1.4423546E2,2.5882454E0,4.1360354E0,2.1926686E2,7.756552E1,9.495632E1,1.8893475E2,1.001285E0,1.8586406E0,2.1555367E0,6.791977E1,1.015388E0,1.806726E1,2.2227526E0,2.7896352E0,2.598981E0,1.0024402E0,1.1915341E1,1.390525E0,6.005229E2,2.0431561E0,6.348779E0,3.754669E1,2.0225365E0,3.9500968E0,3.4677465E0,3.0837582E2,7.378233E0,8.27045E0,3.4528368E0,4.880368E1,1.0942952E1,1.0012585E0,6.7212644E0,3.259822E0,8.554924E0,3.327796E0,2.3205273E0,1.6881407E1,1.0565103E0,2.0708842E0,1.0721837E2,1.9888713E0,2.6781994E1,5.143356E1,1.8224543E1,1.599158E2,4.0649214E0,2.7025845E1,4.7717243E1,1.59605255E1,6.453997E1,6.3722126E1,1.0105651E2,4.2482758E1,4.8694195E1,1.2479889E1,1.1325334E2,7.588198E1,2.3366129E2,1.4451771E1,3.7313383E0,2.8570763E1,5.8132844E0,9.202351E0,3.284256E1,1.7998197E0,1.0318922E0,1.0525231E0,1.4049113E2,3.7443273E0,1.1867987E0,1.4014467E0,1.0096548E0,3.126381E0,1.5721622E2,6.205064E1,3.7355057E1,4.021046E1,4.9584568E1,4.5371754E1,4.3225014E1,1.4570973E2,6.689562E1,1.0241534E0,1.3157016E0,1.4739335E0,1.6733437E0,1.0241998E1,5.97939E2,2.5838416E0,4.959917E0,1.3888621E0,1.0087477E0,3.653794E1,1.1622968E0,2.7878E0,2.4345388E0,1.0332077E0,3.473369E0,3.0490247E2,3.1473548E0,4.230878E0,1.0017395E0,7.26871E0,1.1747398E0,2.278097E0,2.012153E0,4.6791527E1,1.8417746E0,4.8794894E0,1.5771208E0,1.6827012E0,1.601614E0,6.95331E0,1.0036061E0,1.3169214E0,1.6666838E0,1.5214723E1,1.1003512E0,1.0611802E2,1.4713942E1,1.2068053E1,5.0245785E1,1.1877717E0,1.704538E1,1.1791623E0,7.0284874E1,8.963093E1,1.0003859E0,3.0645354E0,1.833354E1,8.692306E0,2.7323128E1,2.0394115E1,2.129816E0,1.3830709E1,1.3996666E1,5.054331E1,3.9953453E1,2.3768673E1,9.066602E1,1.0390487E1,1.6192518E1,2.629024E1,1.8116327E1,3.0577868E1,2.335518E0,1.0144371E1,1.1471908E0,1.1210615E2,5.103408E1,2.4847902E1,1.9230436E1,2.1443085E2,4.0783873E0,1.03733835E1,2.7132044E0,1.0181338E0,5.3349237E0,2.3235838E1,4.804577E0,1.0087078E0,2.4454377E0,6.756913E0,3.5825007E0,2.9260057E1,1.3156918E2,8.921949E0,2.1191757E0,1.6251516E0,1.5489981E2,2.3164093E0,3.7106586E1,2.494405E1,1.4846644E1,2.2508413E1,1.8790953E1,2.1419508E1,3.543619E1,1.4148375E1,1.1606495E1,3.3765263E1,1.042334E1,3.2801674E1,8.437189E1,6.1337852E1,9.133339E0,1.1086594E0,1.0134071E0,5.969256E2,3.9594707E0,1.0004464E0],"tree_param":{"num_deleted":"0","num_feature":"525","num_nodes":"275","size_leaf_vector":"1"}},{"base_weights":[1.344252E-2,8.8185835E-1,-2.530223E-1,1.0011772E0,4.7496724E-1,-4.9551132E-1,7.986658E-1,1.0076128E0,-0E0,9.254711E-2,8.94256E-1,-1.2874747E-2,-9.520072E-1,4.1061845E-1,9.9019885E-1,-0E0,1.0140233E0,-0E0,-3.7643652E-2,3.5884333E-1,-6.7592853E-1,9.4797724E-1,-0E0,3.064784E-1,-2.4784428E-1,-1.5514433E0,-3.9855024E-1,8.828604E-1,-1.4054006E-1,-0E0,1.0050876E0,-0E0,-3.776526E-2,1.0233355E0,1.1259096E-2,-4.3438902E-1,5.8302635E-1,-0E0,-1.9010727E0,9.951064E-1,-0E0,1.4673317E-2,-8.58653E-2,6.478053E-1,4.7394704E-2,6.267602E-2,-6.789086E-1,-1.049435E0,-2.233627E0,-8.545095E-1,7.464482E-2,9.1442305E-1,-0E0,9.245868E-1,-7.767941E-1,-8.6783536E-2,-0E0,-0E0,1.0108958E0,-0E0,1.0266663E0,4.7734246E-2,-6.568539E-2,1.4765903E-1,-1.7928233E0,-1.471505E-1,7.3362374E-1,-7.447138E-1,6.2572336E-1,-0E0,-2.6841104E0,-0E0,1.0200313E0,-0E0,-3.4612097E-2,7.2630876E-1,-3.2930505E-1,-1.0898446E-1,6.885596E-1,3.568611E-1,-2.2295682E-1,2.2060865E-1,-8.921693E-1,2.2001032E-2,-1.2871268E0,-2.4651508E0,1.4851147E-1,-3.9565924E-1,-1.519363E0,-3.918437E-1,4.4804132E-1,-0E0,9.6300536E-1,6.8919316E-2,-0E0,5.918146E-1,-1.7089546E0,-0E0,1.0138974E0,-0E0,1.0299697E0,-4.694865E-1,5.0632786E-2,-2.9510245E0,-0E0,3.2328516E-1,-1.3650771E0,-0E0,8.253485E-1,-1.6824747E0,-0E0,5.5452425E-2,-0E0,-0E0,-3.2403307E0,1.0455035E0,-0E0,8.297544E-1,4.6357214E-2,1.1286592E-1,-1.4143816E0,-8.686029E-1,1.5744524E-1,-8.310702E-1,8.483736E-1,-2.1474077E-1,5.34383E-1,-1.6632613E0,-1.1473888E-1,-5.2064216E-1,6.460769E-1,-1.1545637E0,6.00653E-3,-1.2774174E0,3.266645E-1,-3.3700667E-2,-1.6090373E0,-2.6721218E0,-0E0,-1.8011187E0,8.6333245E-1,6.9925624E-1,-6.2639457E-1,-2.8043053E-1,-2.0436137E0,1.7086081E-1,-1.1395187E0,-2.0592499E0,5.325217E-1,3.528734E-2,-2.785619E-2,9.857616E-1,-0E0,8.915247E-1,-3.5318846E-1,-2.467744E0,-0E0,1.0198251E0,-0E0,-0E0,7.129525E-2,-1.5547569E-1,-0E0,-3.0479974E-1,-0E0,2.5893843E-2,-0E0,-0E0,-2.2048892E-1,-9.66245E-2,7.1980124E-3,-0E0,6.40894E-2,-0E0,-1.8179217E-1,-0E0,-2.501871E-1,-0E0,7.295004E-2,-0E0,5.9667874E-2,-3.5908345E-2,4.8935246E-2,4.5584835E-2,-2.5640178E-2,-2.09504E-1,-0E0,-1.2575185E-1,7.793592E-3,1.7336732E-2,-7.438092E-2,-0E0,-1.4509165E-1,6.2467095E-2,-0E0,3.88043E-2,-5.266076E-2,-4.8082587E-3,4.460826E-2,1.321563E-3,-1.6552846E-1,-6.0953293E-2,4.4367523E-3,-0E0,-2.1272396E-1,5.6250375E-2,-1.3568238E-2,-0E0,-9.80834E-2,3.6569186E-2,-4.4376906E-2,-0E0,-1.9047746E-1,4.871719E-2,-2.4015933E-2,4.5022212E-2,-7.778403E-2,-1.7203227E-1,-6.299106E-2,-8.418495E-2,-2.0213588E-1,3.3975266E-2,-1.2142176E-1,-0E0,-2.1690078E-1,6.319551E-2,-0E0,5.9540343E-2,-3.7430435E-2,-6.1422523E-2,3.001827E-2,5.387345E-2,-9.5647E-2,-8.4403045E-2,-2.2129269E-1,-8.128474E-3,5.2911285E-2,-1.2894078E-1,-0E0,-2.4360655E-1,-0E0,-3.324255E-2,4.4702515E-2,-0E0,6.9489434E-2,6.516363E-2,-0E0,-1.11242175E-1,-0E0,-1.9978456E-1,-0E0,3.098413E-2,-7.4429974E-2,-0E0,7.047564E-2],"categories":[],"categories_nodes":[],"categories_segments":[],"categories_sizes":[],"default_left":[0,0,0,0,0,0,0,0,0,0,0,0,0,0,0,0,0,0,0,0,0,0,0,0,0,0,0,0,0,0,0,0,0,0,0,0,0,0,0,0,0,0,0,0,0,0,0,0,0,0,0,0,0,0,0,0,0,0,0,0,0,0,0,0,0,0,0,0,0,0,0,0,0,0,0,0,0,0,0,0,0,0,0,0,0,0,0,0,0,0,0,0,0,0,0,0,0,0,0,0,0,0,0,0,0,0,0,0,0,0,0,0,0,0,0,0,0,0,0,0,0,0,0,0,0,0,0,0,0,0,0,0,0,0,0,0,0,0,0,0,0,0,0,0,0,0,0,0,0,0,0,0,0,0,0,0,0,0,0,0,0,0,0,0,0,0,0,0,0,0,0,0,0,0,0,0,0,0,0,0,0,0,0,0,0,0,0,0,0,0,0,0,0,0,0,0,0,0,0,0,0,0,0,0,0,0,0,0,0,0,0,0,0,0,0,0,0,0,0,0,0,0,0,0,0,0,0,0,0,0,0,0,0,0,0,0,0,0,0,0,0,0,0,0,0,0,0,0,0,0,0,0,0,0,0],"id":4,"left_children":[1,3,5,7,9,11,13,15,17,19,21,23,25,27,29,31,33,-1,-1,35,37,39,41,43,45,47,49,51,53,55,57,-1,-1,59,61,63,65,67,69,71,73,-1,-1,75,77,79,81,83,85,87,89,91,-1,93,95,-1,-1,-1,97,-1,99,-1,-1,101,103,105,107,109,111,-1,113,-1,115,-1,-1,117,119,121,123,125,127,129,131,133,135,137,139,141,143,145,147,149,151,-1,-1,153,155,-1,157,-1,159,161,-1,163,-1,165,167,169,171,173,-1,-1,-1,-1,175,177,-1,179,181,183,185,187,189,191,193,195,197,199,201,203,205,207,209,211,213,215,217,219,221,223,225,227,229,231,233,235,237,239,241,-1,-1,243,-1,245,247,249,251,253,-1,-1,-1,-1,-1,-1,-1,-1,-1,-1,-1,-1,-1,-1,-1,-1,-1,-1,-1,-1,-1,-1,-1,-1,-1,-1,-1,-1,-1,-1,-1,-1,-1,-1,-1,-1,-1,-1,-1,-1,-1,-1,-1,-1,-1,-1,-1,-1,-1,-1,-1,-1,-1,-1,-1,-1,-1,-1,-1,-1,-1,-1,-1,-1,-1,-1,-1,-1,-1,-1,-1,-1,-1,-1,-1,-1,-1,-1,-1,-1,-1,-1,-1,-1,-1,-1,-1,-1,-1,-1,-1,-1,-1,-1,-1,-1,-1],"loss_changes":[7.511919E2,3.363568E1,6.3112616E2,5.197937E0,2.6205078E1,4.4175003E2,3.1153168E1,4.790283E0,3.2669795E-1,1.8895926E1,4.785141E0,7.355826E1,3.3826135E2,4.2536476E1,6.0775757E0,3.303777E-1,3.069641E0,0E0,0E0,1.3406658E1,2.2896078E1,4.405876E0,1.9601892E0,3.4869144E1,7.768196E1,1.6148547E2,1.1812428E2,3.893692E0,4.7351116E1,1.778748E0,8.177185E-1,0E0,0E0,2.7937622E0,4.5193305E0,1.481899E1,7.8806667E0,6.0179462E0,1.9299046E1,2.3561096E0,2.8370816E-1,0E0,0E0,1.4276405E1,2.5206402E1,2.7895973E1,4.7906303E1,7.587604E1,1.19678345E2,8.012364E1,4.582732E1,2.5619354E0,0E0,2.5854244E0,6.0519196E1,0E0,0E0,0E0,7.581177E-1,0E0,1.8981934E0,0E0,0E0,3.7913256E0,1.4067247E1,6.8005595E0,4.4935646E0,5.993288E0,1.6441159E0,0E0,1.1813747E1,0E0,2.1609573E0,0E0,0E0,9.494141E0,8.18015E0,3.9824177E1,1.2143185E1,1.7547064E1,2.1305122E1,1.4304803E1,4.9136963E1,1.7835102E1,9.162622E1,9.841077E1,2.2534637E1,4.183485E1,6.682272E1,5.0157013E1,2.807438E1,1.3470013E0,2.1939545E0,0E0,0E0,6.1989813E0,3.6540466E1,0E0,8.028259E-1,0E0,1.97052E0,5.241163E0,0E0,9.775736E0,0E0,1.5234917E-2,9.428146E0,2.2324774E0,4.6522636E0,5.3101463E0,0E0,0E0,0E0,0E0,2.0655823E0,8.320236E-1,0E0,5.6728363E0,9.719255E0,2.36164E0,1.6798443E1,5.2022663E1,1.417765E1,6.7416945E0,3.6308174E0,1.6016083E1,1.0161053E1,1.772558E1,2.295662E1,1.815635E1,5.7542934E0,5.046144E1,1.4367973E1,2.1359741E1,1.170903E1,3.865551E1,1.0715259E2,5.681653E1,1.2039515E1,1.3861423E1,4.8025036E-1,6.355504E0,4.0194527E1,4.199718E1,6.295996E1,1.2412919E1,4.1422455E1,1.440843E1,1.7470081E1,0E0,0E0,1.602623E0,0E0,6.0815907E-1,3.1291585E0,2.3588669E1,4.197995E0,7.994995E-1,0E0,0E0,0E0,0E0,0E0,0E0,0E0,0E0,0E0,0E0,0E0,0E0,0E0,0E0,0E0,0E0,0E0,0E0,0E0,0E0,0E0,0E0,0E0,0E0,0E0,0E0,0E0,0E0,0E0,0E0,0E0,0E0,0E0,0E0,0E0,0E0,0E0,0E0,0E0,0E0,0E0,0E0,0E0,0E0,0E0,0E0,0E0,0E0,0E0,0E0,0E0,0E0,0E0,0E0,0E0,0E0,0E0,0E0,0E0,0E0,0E0,0E0,0E0,0E0,0E0,0E0,0E0,0E0,0E0,0E0,0E0,0E0,0E0,0E0,0E0,0E0,0E0,0E0,0E0,0E0,0E0,0E0,0E0,0E0,0E0,0E0,0E0,0E0,0E0,0E0,0E0,0E0,0E0,0E0,0E0,0E0,0E0],"parents":[2147483647,0,0,1,1,2,2,3,3,4,4,5,5,6,6,7,7,8,8,9,9,10,10,11,11,12,12,13,13,14,14,15,15,16,16,19,19,20,20,21,21,22,22,23,23,24,24,25,25,26,26,27,27,28,28,29,29,30,30,33,33,34,34,35,35,36,36,37,37,38,38,39,39,40,40,43,43,44,44,45,45,46,46,47,47,48,48,49,49,50,50,51,51,53,53,54,54,58,58,60,60,63,63,64,64,65,65,66,66,67,67,68,68,70,70,72,72,75,75,76,76,77,77,78,78,79,79,80,80,81,81,82,82,83,83,84,84,85,85,86,86,87,87,88,88,89,89,90,90,91,91,92,92,95,95,96,96,98,98,100,100,101,101,103,103,105,105,106,106,107,107,108,108,109,109,114,114,115,115,117,117,118,118,119,119,120,120,121,121,122,122,123,123,124,124,125,125,126,126,127,127,128,128,129,129,130,130,131,131,132,132,133,133,134,134,135,135,136,136,137,137,138,138,139,139,140,140,141,141,142,142,143,143,144,144,145,145,146,146,147,147,148,148,151,151,153,153,154,154,155,155,156,156,157,157],"right_children":[2,4,6,8,10,12,14,16,18,20,22,24,26,28,30,32,34,-1,-1,36,38,40,42,44,46,48,50,52,54,56,58,-1,-1,60,62,64,66,68,70,72,74,-1,-1,76,78,80,82,84,86,88,90,92,-1,94,96,-1,-1,-1,98,-1,100,-1,-1,102,104,106,108,110,112,-1,114,-1,116,-1,-1,118,120,122,124,126,128,130,132,134,136,138,140,142,144,146,148,150,152,-1,-1,154,156,-1,158,-1,160,162,-1,164,-1,166,168,170,172,174,-1,-1,-1,-1,176,178,-1,180,182,184,186,188,190,192,194,196,198,200,202,204,206,208,210,212,214,216,218,220,222,224,226,228,230,232,234,236,238,240,242,-1,-1,244,-1,246,248,250,252,254,-1,-1,-1,-1,-1,-1,-1,-1,-1,-1,-1,-1,-1,-1,-1,-1,-1,-1,-1,-1,-1,-1,-1,-1,-1,-1,-1,-1,-1,-1,-1,-1,-1,-1,-1,-1,-1,-1,-1,-1,-1,-1,-1,-1,-1,-1,-1,-1,-1,-1,-1,-1,-1,-1,-1,-1,-1,-1,-1,-1,-1,-1,-1,-1,-1,-1,-1,-1,-1,-1,-1,-1,-1,-1,-1,-1,-1,-1,-1,-1,-1,-1,-1,-1,-1,-1,-1,-1,-1,-1,-1,-1,-1,-1,-1,-1,-1],"split_conditions":[-5.8173144E-1,-4.0273657E-1,5.3268665E-1,2.6974823E0,-8.423143E-2,-1.5513135E-1,4.651943E-1,-1.2475305E0,-3.300515E-1,9.7902095E-1,8.449257E-1,-4.278685E-1,-2.3851463E-1,1.6671717E-1,-3.6443846E0,-9.6462995E-1,1.3077492E0,-0E0,-3.7643652E-2,-2.491519E-2,3.8921606E-2,1.1262019E0,2.2439681E-1,4.0857118E-2,-4.3012153E-2,5.735943E-1,1.6836274E-1,2.9483318E0,-4.1802442E-1,6.2349323E-2,-3.1895463E0,-0E0,-3.776526E-2,-2.6295729E0,1.729233E-1,-5.996819E-2,-1.0300871E0,-3.618067E-1,-6.6459394E-1,-3.9348853E-1,-6.5615976E-1,1.4673317E-2,-8.58653E-2,9.957819E-1,1.0627563E0,7.212905E-1,-5.9793735E-1,-5.39095E-1,1.2542976E0,3.3910567E-1,3.6581206E-1,-1.2747953E0,-0E0,1.1107213E-1,-3.2589264E-2,-8.6783536E-2,-0E0,-0E0,-7.643588E-1,-0E0,-3.2469404E0,4.7734246E-2,-6.568539E-2,-9.045811E-1,3.271763E-1,-1.6858396E-1,-8.602273E-1,-2.4510317E-1,1.259377E0,-0E0,-1.9856028E-1,-0E0,2.4379015E0,-0E0,-3.4612097E-2,8.7196165E-1,7.4975014E-1,-6.319628E-2,-7.136636E-1,-4.810446E-1,-1.8001024E-2,-1.2264741E-2,7.294598E-1,-1.2812238E0,-1.1292082E0,1.1268086E0,-1.0894279E-1,-8.5055244E-1,-3.4789696E-1,4.2952615E-1,-1.7878077E0,6.190492E-1,1.0463547E0,6.8919316E-2,-0E0,4.1886768E-1,1.1801507E0,-0E0,8.336449E-1,-0E0,-1.8347262E0,-4.0889058E-1,5.0632786E-2,-3.2327685E-1,-0E0,-7.3199525E-2,2.4482155E-1,-4.0812492E-1,-1.3595176E0,-4.802703E-1,-0E0,5.5452425E-2,-0E0,-0E0,-6.490908E-1,-1.742534E0,-0E0,-5.573208E-1,-9.040427E-1,7.001277E-1,3.2583967E-1,5.883674E-1,3.0029684E-1,1.1666582E0,3.717166E-1,-4.6642175E-1,-1.1157076E0,-8.030947E-1,-7.4401253E-1,9.954797E-1,8.809832E-1,-6.6098356E-1,-4.034492E-2,-4.1697395E-1,-5.4354534E-2,1.7088349E-1,3.924548E-1,-7.099696E-1,1.0918621E0,-7.835626E-2,1.6176553E0,7.5091463E-1,7.122596E-1,-1.8304975E-1,6.795302E-1,-6.230585E-2,4.244414E-1,4.2059466E-1,-5.210103E-1,3.528734E-2,-2.785619E-2,-2.1520844E0,-0E0,9.442128E-1,1.606349E-2,1.5139093E0,-3.0881122E-1,-1.8939134E0,-0E0,-0E0,7.129525E-2,-1.5547569E-1,-0E0,-3.0479974E-1,-0E0,2.5893843E-2,-0E0,-0E0,-2.2048892E-1,-9.66245E-2,7.1980124E-3,-0E0,6.40894E-2,-0E0,-1.8179217E-1,-0E0,-2.501871E-1,-0E0,7.295004E-2,-0E0,5.9667874E-2,-3.5908345E-2,4.8935246E-2,4.5584835E-2,-2.5640178E-2,-2.09504E-1,-0E0,-1.2575185E-1,7.793592E-3,1.7336732E-2,-7.438092E-2,-0E0,-1.4509165E-1,6.2467095E-2,-0E0,3.88043E-2,-5.266076E-2,-4.8082587E-3,4.460826E-2,1.321563E-3,-1.6552846E-1,-6.0953293E-2,4.4367523E-3,-0E0,-2.1272396E-1,5.6250375E-2,-1.3568238E-2,-0E0,-9.80834E-2,3.6569186E-2,-4.4376906E-2,-0E0,-1.9047746E-1,4.871719E-2,-2.4015933E-2,4.5022212E-2,-7.778403E-2,-1.7203227E-1,-6.299106E-2,-8.418495E-2,-2.0213588E-1,3.3975266E-2,-1.2142176E-1,-0E0,-2.1690078E-1,6.319551E-2,-0E0,5.9540343E-2,-3.7430435E-2,-6.1422523E-2,3.001827E-2,5.387345E-2,-9.5647E-2,-8.4403045E-2,-2.2129269E-1,-8.128474E-3,5.2911285E-2,-1.2894078E-1,-0E0,-2.4360655E-1,-0E0,-3.324255E-2,4.4702515E-2,-0E0,6.9489434E-2,6.516363E-2,-0E0,-1.11242175E-1,-0E0,-1.9978456E-1,-0E0,3.098413E-2,-7.4429974E-2,-0E0,7.047564E-2],"split_indices":[113,106,202,94,27,38,356,181,9,3,9,151,54,353,100,351,200,0,0,305,76,198,248,92,52,3,61,454,2,204,222,0,0,93,421,24,308,143,148,106,309,0,0,99,349,18,428,414,1,45,53,68,0,352,421,0,0,0,22,0,429,0,0,183,253,388,450,173,178,0,501,0,71,0,0,440,132,331,361,155,25,249,61,197,2,40,181,71,2,3,33,334,207,0,0,442,391,0,163,0,58,505,0,434,0,115,21,254,74,297,0,0,0,0,396,308,0,325,181,439,187,61,325,106,144,253,114,85,79,427,456,2,51,248,402,354,2,43,442,85,8,428,211,179,353,74,379,16,153,0,0,175,0,275,457,381,396,321,0,0,0,0,0,0,0,0,0,0,0,0,0,0,0,0,0,0,0,0,0,0,0,0,0,0,0,0,0,0,0,0,0,0,0,0,0,0,0,0,0,0,0,0,0,0,0,0,0,0,0,0,0,0,0,0,0,0,0,0,0,0,0,0,0,0,0,0,0,0,0,0,0,0,0,0,0,0,0,0,0,0,0,0,0,0,0,0,0,0,0,0,0,0,0,0,0],"split_type":[0,0,0,0,0,0,0,0,0,0,0,0,0,0,0,0,0,0,0,0,0,0,0,0,0,0,0,0,0,0,0,0,0,0,0,0,0,0,0,0,0,0,0,0,0,0,0,0,0,0,0,0,0,0,0,0,0,0,0,0,0,0,0,0,0,0,0,0,0,0,0,0,0,0,0,0,0,0,0,0,0,0,0,0,0,0,0,0,0,0,0,0,0,0,0,0,0,0,0,0,0,0,0,0,0,0,0,0,0,0,0,0,0,0,0,0,0,0,0,0,0,0,0,0,0,0,0,0,0,0,0,0,0,0,0,0,0,0,0,0,0,0,0,0,0,0,0,0,0,0,0,0,0,0,0,0,0,0,0,0,0,0,0,0,0,0,0,0,0,0,0,0,0,0,0,0,0,0,0,0,0,0,0,0,0,0,0,0,0,0,0,0,0,0,0,0,0,0,0,0,0,0,0,0,0,0,0,0,0,0,0,0,0,0,0,0,0,0,0,0,0,0,0,0,0,0,0,0,0,0,0,0,0,0,0,0,0,0,0,0,0,0,0,0,0,0,0,0,0,0,0,0,0,0,0],"sum_hessian":[3.2399048E3,7.626642E2,2.4772407E3,5.853083E2,1.7735591E2,2.0148766E3,4.6236407E2,5.829739E2,2.3344095E0,9.564798E1,8.1707924E1,9.818608E2,1.0330159E3,1.5681174E2,3.0555234E2,2.6900141E0,5.802839E2,1.3343581E0,1.0000514E0,7.3264465E1,2.2383518E1,7.802401E1,3.683918E0,4.120892E2,5.6977155E2,4.9385797E2,5.391579E2,8.6639656E1,7.017207E1,2.9721036E0,3.0258023E2,1.6847523E0,1.0052618E0,5.726996E2,7.5842814E0,1.389265E1,5.9371815E1,1.3301007E1,9.08251E0,7.524905E1,2.7749603E0,2.5947526E0,1.0891656E0,1.739788E2,2.381104E2,3.2817926E2,2.415923E2,2.8655438E2,2.0730359E2,2.7698425E2,2.621736E2,8.541207E1,1.2275853E0,2.4891453E1,4.528062E1,1.0267725E0,1.9453311E0,2.6679187E0,2.9991232E2,1.0601357E0,5.7163947E2,5.8388224E0,1.7454587E0,8.61446E0,5.278189E0,7.574402E0,5.1797413E1,4.4213142E0,8.879693E0,1.8945425E0,7.187968E0,1.3726319E0,7.387642E1,1.7451473E0,1.0298129E0,1.6321344E2,1.0765366E1,1.886391E2,4.9471306E1,1.6557317E2,1.6260611E2,4.4259712E1,1.9733258E2,5.0309612E1,2.3624477E2,1.8980582E2,1.7497784E1,1.6599055E2,1.10993706E2,1.1385218E2,1.4832143E2,5.6471815E0,7.976489E1,2.3834764E1,1.0566884E0,1.7372744E1,2.7907875E1,1.036192E0,2.9887613E2,1.8721597E0,5.697673E2,2.3245816E0,6.289879E0,3.503952E0,1.7742373E0,4.169253E0,3.4051492E0,4.296474E0,4.750094E1,2.9076288E0,1.5136853E0,7.8675137E0,1.0121791E0,1.1603612E0,6.0276065E0,7.2292885E1,1.5835317E0,1.3874554E2,2.446789E1,6.222111E0,4.543254E0,5.1140385E1,1.374987E2,3.3181667E0,4.615314E1,3.6201122E1,1.2937204E2,9.802902E0,1.528032E2,1.4186705E1,3.0073006E1,1.5465279E2,4.2679802E1,8.082837E0,4.2226776E1,4.973759E1,1.8650717E2,1.7531E2,1.4495809E1,3.8038254E0,1.3693957E1,2.7145514E1,1.3884503E2,3.433259E1,7.6661125E1,6.3270676E1,5.0581505E1,3.886837E0,1.444346E2,3.881365E0,1.7658166E0,7.837816E1,1.3867325E0,1.50175705E1,2.355173E0,1.9335283E1,8.572591E0,2.9618268E2,2.6934314E0,3.482139E0,5.6628516E2,1.0395887E0,1.2849929E0,2.0062256E0,1.4977266E0,3.1681755E0,1.0010772E0,1.9421966E0,1.4629527E0,1.022033E0,3.274441E0,4.750666E0,4.275027E1,1.0187165E0,1.8889123E0,1.0907378E0,4.9368687E0,1.0687984E0,7.122409E1,3.8295913E0,1.3491595E2,1.135868E1,1.310921E1,5.0991E0,1.1230111E0,2.7256954E0,1.8175586E0,2.7031527E1,2.410886E1,1.2954547E2,7.9532413E0,1.3608996E0,1.9572672E0,4.4813217E1,1.3399206E0,1.32759495E1,2.2925173E1,1.723738E1,1.1213466E2,2.083192E0,7.7197104E0,3.1162333E1,1.2164087E2,1.1970389E1,2.2163148E0,2.7259905E1,2.8131015E0,2.8068605E1,1.2658418E2,2.5558323E1,1.7121477E1,3.636902E0,4.4459352E0,2.915701E1,1.3069766E1,2.9312563E1,2.0425028E1,8.033012E1,1.06177055E2,2.8213835E1,1.4709616E2,1.1631961E1,2.8638473E0,1.2236698E0,2.5801554E0,1.2691418E1,1.0025402E0,2.560269E1,1.5428234E0,1.1283232E2,2.6012712E1,1.649396E1,1.7838629E1,4.6334805E1,3.032632E1,4.0131683E1,2.3138996E1,3.0519203E1,2.00623E1,2.4085248E0,1.4783123E0,1.28120775E1,1.3162251E2,1.9386184E0,7.643954E1,1.4012304E1,1.0052663E0,1.2231853E0,1.1319878E0,1.678237E1,2.552914E0,6.1523895E0,2.4202018E0,1.024412E0,2.951583E2],"tree_param":{"num_deleted":"0","num_feature":"525","num_nodes":"255","size_leaf_vector":"1"}},{"base_weights":[1.07618375E-2,8.8050103E-1,-2.38085E-1,9.182058E-1,-5.03338E-1,6.176891E-1,-4.9037126E-1,6.2501687E-1,1.0200828E0,6.671218E-1,-2.4263284E0,8.971408E-1,1.4600153E-1,4.2175084E-2,-8.4993124E-1,9.492027E-1,-0E0,-0E0,1.0255399E0,-0E0,5.7543788E-2,-2.2400038E-1,-0E0,3.5724353E-2,9.68995E-1,3.2521623E-1,-6.055774E-1,7.6053613E-1,-6.738025E-2,-1.3072579E0,-3.0162886E-1,-0E0,9.7194046E-1,6.024437E-1,-1.2918807E0,1.0290675E0,-0E0,-5.5294627E-1,5.817655E-1,-0E0,9.84947E-1,4.6790707E-1,-4.8472357E-1,-9.750016E-1,5.780778E-1,8.7010056E-1,-5.010179E-2,2.9589817E-1,-3.0566558E-1,-6.491323E-1,-1.736927E0,6.5319467E-1,-5.0635153E-1,-0E0,9.9401146E-1,-0E0,9.215633E-1,3.9143145E-2,-2.2258494E0,1.0325855E0,-0E0,4.3036464E-1,-2.7500691E0,-0E0,8.597619E-1,-1.268139E-1,4.017047E-2,1.0140954E0,2.2050665E-1,2.2538762E-1,9.083701E-1,8.2257375E-2,-2.0346193E0,-4.1523954E-1,-2.2624977E0,5.3512268E-2,-0E0,-0E0,9.719016E-1,-1.3269194E0,4.558318E-2,-2.6188272E-1,5.030399E-1,-1.1612327E-1,-9.83552E-1,-1.7724204E0,-1.5113348E-1,-1.9731361E0,-4.5092653E-2,9.042882E-1,5.445305E-2,-3.454713E-2,-9.333331E-1,1.0098569E0,-0E0,-8.3306193E-1,7.050599E-1,9.827856E-1,-0E0,-7.5254716E-2,6.2448066E-1,-0E0,-2.7927182E0,1.0361756E0,-0E0,-0E0,5.2281406E-2,-0E0,-3.707617E0,-9.354329E-2,4.993265E-3,6.345311E-2,-0E0,4.4245E-2,1.0377628E0,-6.306625E-1,6.0246732E-2,-4.6894053E-1,4.6391103E-1,-0E0,9.441804E-1,6.1274546E-1,-4.6890298E-1,-0E0,-2.9455462E0,1.5235206E-1,-1.1336963E0,-3.2719233E0,-0E0,-1.0078942E0,3.50687E-1,1.0147812E0,-0E0,-0E0,-3.301286E0,-1.8866297E0,6.2102326E-3,-0E0,6.699812E-1,1.6982324E-1,-5.750916E-1,3.260525E-1,-1.3473734E0,-3.730108E-1,-2.3302026E0,-8.184302E-1,6.943235E-1,-4.5388833E-1,-2.2716577E0,2.9411176E-1,-1.5951182E0,-0E0,9.458989E-1,-6.788141E-1,5.1708883E-1,-3.661156E-1,4.4577733E-1,-1.9495215E0,-4.043325E-1,-0E0,7.0665166E-2,-1.496468E-1,-0E0,-0E0,5.4367512E-2,6.9693476E-2,-0E0,4.9155273E-2,-0E0,-2.1564837E-1,-0E0,7.151528E-2,-0E0,-3.4839842E-1,-0E0,4.073686E-2,-2.8178181E-2,-0E0,7.193407E-2,-0E0,-1.4490359E-1,1.6267244E-2,-8.309745E-2,5.472029E-2,1.7548492E-3,6.7482695E-2,-0E0,5.8569834E-2,-0E0,-0E0,-1.4693107E-1,-2.5867787E-1,-0E0,-1.2312297E-3,4.9696054E-2,-1.5236048E-1,-0E0,-0E0,-2.7231538E-1,-1.7544392E-2,-0E0,-1.541886E-1,-0E0,-0E0,4.1947495E-2,-0E0,7.1413785E-2,-3.389465E-2,-0E0,-0E0,-3.3097783E-1,-1.9914234E-1,-0E0,2.6947366E-2,-3.6089845E-2,-6.021631E-2,2.0829136E-2,-3.3302955E-2,5.0653588E-2,-3.2682654E-2,2.0947909E-2,7.118663E-3,-6.899919E-2,6.456973E-2,-4.1635863E-2,-1.1176393E-1,2.1340098E-2,-9.266159E-2,1.6494988E-2,-1.1712587E-1,-2.7104622E-1,-0E0,-1.08942255E-1,-0E0,6.011386E-2,4.824669E-2,-9.4570026E-2,-0E0,-1.686431E-1,-1.0553175E-1,3.749852E-2,-0E0,-1.4380608E-1,-0E0,6.911827E-2,-1.5458235E-1,1.0371081E-2,-0E0,5.610703E-2,-0E0,-5.8415256E-2,-0E0,6.19196E-2,2.6766788E-3,-1.5121222E-1,5.944986E-2,-4.9422964E-2],"categories":[],"categories_nodes":[],"categories_segments":[],"categories_sizes":[],"default_left":[0,0,0,0,0,0,0,0,0,0,0,0,0,0,0,0,0,0,0,0,0,0,0,0,0,0,0,0,0,0,0,0,0,0,0,0,0,0,0,0,0,0,0,0,0,0,0,0,0,0,0,0,0,0,0,0,0,0,0,0,0,0,0,0,0,0,0,0,0,0,0,0,0,0,0,0,0,0,0,0,0,0,0,0,0,0,0,0,0,0,0,0,0,0,0,0,0,0,0,0,0,0,0,0,0,0,0,0,0,0,0,0,0,0,0,0,0,0,0,0,0,0,0,0,0,0,0,0,0,0,0,0,0,0,0,0,0,0,0,0,0,0,0,0,0,0,0,0,0,0,0,0,0,0,0,0,0,0,0,0,0,0,0,0,0,0,0,0,0,0,0,0,0,0,0,0,0,0,0,0,0,0,0,0,0,0,0,0,0,0,0,0,0,0,0,0,0,0,0,0,0,0,0,0,0,0,0,0,0,0,0,0,0,0,0,0,0,0,0,0,0,0,0,0,0,0,0,0,0,0,0,0,0,0,0,0,0,0,0,0,0,0,0,0,0,0,0,0,0,0,0,0,0,0,0,0,0],"id":5,"left_children":[1,3,5,7,9,11,13,15,17,19,21,23,25,27,29,31,33,-1,35,-1,-1,-1,-1,37,39,41,43,45,47,49,51,-1,53,55,57,59,-1,61,63,65,67,69,71,73,75,77,79,81,83,85,87,89,91,-1,93,95,97,99,101,103,-1,105,107,109,111,-1,-1,113,115,117,119,121,123,125,127,-1,-1,129,131,133,-1,135,137,139,141,143,145,147,149,151,153,155,157,159,-1,161,163,165,-1,-1,167,-1,169,171,-1,-1,-1,-1,173,-1,-1,-1,-1,175,177,179,-1,181,183,-1,185,187,189,-1,191,193,195,197,199,201,203,205,207,-1,209,211,213,215,217,219,221,223,225,227,229,231,233,235,237,239,241,-1,243,245,247,249,251,253,255,-1,-1,-1,-1,-1,-1,-1,-1,-1,-1,-1,-1,-1,-1,-1,-1,-1,-1,-1,-1,-1,-1,-1,-1,-1,-1,-1,-1,-1,-1,-1,-1,-1,-1,-1,-1,-1,-1,-1,-1,-1,-1,-1,-1,-1,-1,-1,-1,-1,-1,-1,-1,-1,-1,-1,-1,-1,-1,-1,-1,-1,-1,-1,-1,-1,-1,-1,-1,-1,-1,-1,-1,-1,-1,-1,-1,-1,-1,-1,-1,-1,-1,-1,-1,-1,-1,-1,-1,-1,-1,-1,-1,-1,-1,-1,-1,-1,-1],"loss_changes":[6.999483E2,3.8552673E1,5.410675E2,1.7188965E1,4.3672066E1,7.260365E1,3.7303308E2,3.7524635E1,3.2827148E0,1.8737826E0,1.9947277E1,1.963852E1,2.8310791E1,6.2875397E1,2.871258E2,4.135689E0,4.994863E1,0E0,8.579712E-1,0E0,0E0,0E0,0E0,9.674558E0,4.577606E0,2.031463E1,1.7984364E1,1.1263821E1,5.830081E1,1.7264233E2,1.0326073E2,0E0,2.5959854E0,8.921598E0,3.0217304E1,8.182373E-1,0E0,3.2141087E1,3.9198203E0,5.767552E0,4.2789917E0,1.3643784E1,2.5550493E1,1.630292E1,1.4968004E0,9.618759E0,1.0881288E1,3.0936867E1,5.021477E1,1.3607492E2,1.4688708E2,1.1593319E1,8.609108E1,0E0,2.597229E0,8.878816E0,2.3546886E0,3.9455252E0,1.8360596E1,6.2371826E-1,0E0,2.4785924E0,1.2944054E1,2.0579183E0,6.038418E-1,0E0,0E0,4.5212708E0,8.781974E0,1.6815096E1,2.40205E0,5.2072797E0,1.5187275E1,1.1654192E1,1.6696224E1,0E0,0E0,3.9544673E0,5.0087967E0,1.8041563E1,0E0,3.4016647E1,1.6091084E1,4.3371056E1,4.3826927E1,5.2886307E1,9.933497E1,1.4402808E2,2.8083603E1,3.2085304E0,9.789627E0,3.341193E1,1.1689758E2,2.086731E0,0E0,9.735428E0,3.5565448E-1,5.969868E-1,0E0,0E0,2.3849893E-1,0E0,1.0826065E1,5.72937E-1,0E0,0E0,0E0,0E0,9.313E0,0E0,0E0,0E0,0E0,2.8241298E0,2.5830994E0,8.489759E0,0E0,1.4474348E1,9.435387E0,0E0,2.349907E0,2.4439628E0,8.142894E0,0E0,1.3580994E1,2.6837988E0,1.5697939E1,9.442036E0,7.1826965E-2,6.825937E0,1.0683212E0,2.3970795E0,2.6595828E-1,0E0,3.8001442E0,2.1094353E1,1.1451944E1,1.2800941E1,1.156041E1,1.6598392E1,3.8846413E1,1.083952E1,3.4670906E1,1.6142416E1,4.011081E1,6.410902E1,1.05872345E1,6.078177E1,1.0704358E2,1.5204196E1,1.1233944E1,0E0,2.5801544E0,1.7355814E1,4.0811815E0,2.4329542E1,1.7853268E1,4.2160065E1,5.9713577E1,0E0,0E0,0E0,0E0,0E0,0E0,0E0,0E0,0E0,0E0,0E0,0E0,0E0,0E0,0E0,0E0,0E0,0E0,0E0,0E0,0E0,0E0,0E0,0E0,0E0,0E0,0E0,0E0,0E0,0E0,0E0,0E0,0E0,0E0,0E0,0E0,0E0,0E0,0E0,0E0,0E0,0E0,0E0,0E0,0E0,0E0,0E0,0E0,0E0,0E0,0E0,0E0,0E0,0E0,0E0,0E0,0E0,0E0,0E0,0E0,0E0,0E0,0E0,0E0,0E0,0E0,0E0,0E0,0E0,0E0,0E0,0E0,0E0,0E0,0E0,0E0,0E0,0E0,0E0,0E0,0E0,0E0,0E0,0E0,0E0,0E0,0E0,0E0,0E0,0E0,0E0,0E0,0E0,0E0,0E0,0E0,0E0,0E0],"parents":[2147483647,0,0,1,1,2,2,3,3,4,4,5,5,6,6,7,7,8,8,9,9,10,10,11,11,12,12,13,13,14,14,15,15,16,16,18,18,23,23,24,24,25,25,26,26,27,27,28,28,29,29,30,30,32,32,33,33,34,34,35,35,37,37,38,38,39,39,40,40,41,41,42,42,43,43,44,44,45,45,46,46,47,47,48,48,49,49,50,50,51,51,52,52,54,54,55,55,56,56,57,57,58,58,59,59,61,61,62,62,63,63,64,64,67,67,68,68,69,69,70,70,71,71,72,72,73,73,74,74,77,77,78,78,79,79,81,81,82,82,83,83,84,84,85,85,86,86,87,87,88,88,89,89,90,90,91,91,92,92,93,93,95,95,96,96,97,97,100,100,102,102,103,103,108,108,113,113,114,114,115,115,117,117,118,118,120,120,121,121,122,122,124,124,125,125,126,126,127,127,128,128,129,129,130,130,131,131,132,132,134,134,135,135,136,136,137,137,138,138,139,139,140,140,141,141,142,142,143,143,144,144,145,145,146,146,147,147,148,148,149,149,150,150,152,152,153,153,154,154,155,155,156,156,157,157,158,158],"right_children":[2,4,6,8,10,12,14,16,18,20,22,24,26,28,30,32,34,-1,36,-1,-1,-1,-1,38,40,42,44,46,48,50,52,-1,54,56,58,60,-1,62,64,66,68,70,72,74,76,78,80,82,84,86,88,90,92,-1,94,96,98,100,102,104,-1,106,108,110,112,-1,-1,114,116,118,120,122,124,126,128,-1,-1,130,132,134,-1,136,138,140,142,144,146,148,150,152,154,156,158,160,-1,162,164,166,-1,-1,168,-1,170,172,-1,-1,-1,-1,174,-1,-1,-1,-1,176,178,180,-1,182,184,-1,186,188,190,-1,192,194,196,198,200,202,204,206,208,-1,210,212,214,216,218,220,222,224,226,228,230,232,234,236,238,240,242,-1,244,246,248,250,252,254,256,-1,-1,-1,-1,-1,-1,-1,-1,-1,-1,-1,-1,-1,-1,-1,-1,-1,-1,-1,-1,-1,-1,-1,-1,-1,-1,-1,-1,-1,-1,-1,-1,-1,-1,-1,-1,-1,-1,-1,-1,-1,-1,-1,-1,-1,-1,-1,-1,-1,-1,-1,-1,-1,-1,-1,-1,-1,-1,-1,-1,-1,-1,-1,-1,-1,-1,-1,-1,-1,-1,-1,-1,-1,-1,-1,-1,-1,-1,-1,-1,-1,-1,-1,-1,-1,-1,-1,-1,-1,-1,-1,-1,-1,-1,-1,-1,-1,-1],"split_conditions":[-5.9303725E-1,2.0552924E0,-6.850225E-1,7.457991E-1,-3.4789696E-1,-7.80298E-2,-3.2727316E-1,-2.2537519E-1,-3.1112437E0,-2.5273871E0,1.2938596E0,-4.6029818E-1,4.891418E-1,-6.5996546E-1,-9.044017E-2,-3.0650089E0,1.0238637E0,-0E0,3.3473313E0,-0E0,5.7543788E-2,-2.2400038E-1,-0E0,-5.037304E-1,-1.2944163E0,1.4133999E0,5.95228E-1,1.1034083E0,-4.6859914E-1,1.0484777E-1,-1.1965337E0,-0E0,-6.3454723E-1,-3.548403E-1,3.7732673E-1,2.7758167E0,-0E0,-5.0509993E-2,2.741431E-2,-1.193667E0,3.958497E-1,-4.844123E-1,5.175537E-1,-1.9113268E-1,1.3048627E0,-1.1825165E0,6.3160616E-1,-1.0626394E0,5.9538454E-1,-8.061994E-1,1.0930499E0,2.623041E-1,1.3994697E-1,-0E0,3.630852E0,-1.544956E-1,1.8815749E0,-3.0770624E-1,-4.4357678E-1,-6.089017E-1,-0E0,-1.03149444E-1,3.0268922E-1,-2.7681985E-1,1.4725446E0,-1.268139E-1,4.017047E-2,-8.5516864E-1,-3.834922E-1,-4.053848E-1,-1.0534486E0,-5.137037E-1,-7.3536026E-1,3.6093596E-1,5.2397937E-1,5.3512268E-2,-0E0,-4.4000137E-1,1.1300595E0,-3.6901405E-1,4.558318E-2,-1.0272278E0,-8.3955914E-1,6.858732E-1,-6.949384E-1,-2.4496062E-1,7.354931E-1,-5.005198E-1,1.0900521E0,-2.4833376E0,-6.638286E-1,-1.672048E-1,-9.551892E-2,-2.7785823E0,-0E0,-4.5986503E-1,-5.6962645E-1,1.4717087E0,-0E0,-7.5254716E-2,1.361533E0,-0E0,8.058792E-1,1.7866265E0,-0E0,-0E0,5.2281406E-2,-0E0,1.14229284E-1,-9.354329E-2,4.993265E-3,6.345311E-2,-0E0,1.8396367E-1,-2.3709714E0,-2.6275522E-1,6.0246732E-2,-8.9374506E-1,-7.9914594E-1,-0E0,1.7803842E0,8.3085513E-1,9.947492E-1,-0E0,-5.2389884E-1,-7.248051E-1,9.779314E-2,5.0052685E-1,-8.814553E-1,-5.453451E-1,1.8382544E-2,-1.5029043E0,2.5693473E-1,-0E0,-5.49245E-1,2.3532657E-1,-7.913755E-1,-5.9382623E-1,-1.2092825E0,-5.9673834E-1,-2.5045347E-1,8.476782E-1,1.7161415E0,1.1383446E0,-7.1639663E-1,1.60889E-2,-6.6067827E-1,-6.377589E-1,-1.3622487E0,-1.8577888E0,-4.501842E-1,-0E0,-1.04357295E-1,1.9914955E-1,-9.4840564E-2,-3.2926503E-1,6.550349E-1,-8.3274347E-1,-8.381633E-1,-0E0,7.0665166E-2,-1.496468E-1,-0E0,-0E0,5.4367512E-2,6.9693476E-2,-0E0,4.9155273E-2,-0E0,-2.1564837E-1,-0E0,7.151528E-2,-0E0,-3.4839842E-1,-0E0,4.073686E-2,-2.8178181E-2,-0E0,7.193407E-2,-0E0,-1.4490359E-1,1.6267244E-2,-8.309745E-2,5.472029E-2,1.7548492E-3,6.7482695E-2,-0E0,5.8569834E-2,-0E0,-0E0,-1.4693107E-1,-2.5867787E-1,-0E0,-1.2312297E-3,4.9696054E-2,-1.5236048E-1,-0E0,-0E0,-2.7231538E-1,-1.7544392E-2,-0E0,-1.541886E-1,-0E0,-0E0,4.1947495E-2,-0E0,7.1413785E-2,-3.389465E-2,-0E0,-0E0,-3.3097783E-1,-1.9914234E-1,-0E0,2.6947366E-2,-3.6089845E-2,-6.021631E-2,2.0829136E-2,-3.3302955E-2,5.0653588E-2,-3.2682654E-2,2.0947909E-2,7.118663E-3,-6.899919E-2,6.456973E-2,